SVM-light Version V6.02
0 # kernel type
3 # kernel parameter -d 
1 # kernel parameter -g 
1 # kernel parameter -s 
1 # kernel parameter -r 
empty# kernel parameter -u 
7 # highest feature index 
10060 # number of training documents 
458 # number of support vectors plus 1 
0.99942723 # threshold b, each following line is a SV (starting with alpha*y)
1000 1:0 2:0 3:0 4:0 5:0 6:0 7:0.094591253 #
1000 1:0.13500001 2:0.13500001 3:0.13500001 4:0.13500001 5:1 6:0 7:0.10961125 #
-1000 1:0 2:0 3:0 4:0 5:0 6:0 7:0.61435628 #
1000 1:0.98000002 2:0.92000002 3:0.86000001 4:0.80000001 5:0.75 6:0.22285625 7:0 #
-1000 1:0.97000003 2:0.91000003 3:0.85000002 4:0.79000002 5:1 6:0 7:0 #
1000 1:0 2:0 3:0 4:0 5:0 6:0 7:0.12287125 #
-1000 1:0 2:0 3:0 4:0 5:0 6:0 7:0 #
-1000 1:0.98000002 2:0.92000002 3:0.86000001 4:0.80000001 5:1 6:0.217325 7:0 #
1000 1:0 2:0 3:0 4:0 5:0 6:0 7:0.1179875 #
1000 1:0 2:0 3:0 4:0 5:0 6:0 7:0.082051247 #
1000 1:0.93000001 2:0.87 3:0.81 4:0.75 5:1 6:0.2329625 7:0 #
-1000 1:0.0099999998 2:0 3:0 4:0 5:0 6:0 7:0.036979999 #
-1000 1:0.38 2:0.25999999 3:0.02 4:0 5:1 6:0 7:0 #
1000 1:0 2:0 3:0 4:0 5:0 6:0 7:0.023119999 #
-1000 1:0.51499999 2:0.39500001 3:0.39500001 4:0.39500001 5:1 6:0 7:0 #
-1000 1:0.98500001 2:0.92500001 3:0.86500001 4:0.80500001 5:1 6:0.221 7:0 #
1000 1:0.98500001 2:0.92500001 3:0.86500001 4:0.80500001 5:0.75 6:0.066306248 7:0 #
-1000 1:0 2:0 3:0 4:0 5:0 6:0 7:0.1203475 #
1000 1:0.85000002 2:0.79000002 3:0.67000002 4:0.61000001 5:1 6:0.21945626 7:0 #
-1000 1:0.075000003 2:0.075000003 3:0 4:0 5:0 6:0 7:0.028124999 #
-1000 1:0.27500001 2:0.27500001 3:0.085000001 4:0.16500001 5:0 6:0 7:0 #
1000 1:0.85000002 2:0.79000002 3:0.67000002 4:0.61000001 5:1 6:0.20604999 7:0 #
-1000 1:0.94 2:0.88 3:0.81999999 4:0.75999999 5:1 6:0.22305626 7:0 #
1000 1:0.83499998 2:0.77499998 3:0.65499997 4:0.59500003 5:1 6:0.18175624 7:0 #
1000 1:0.76499999 2:0.70499998 3:0.58499998 4:0.52499998 5:1 6:0.22443751 7:0 #
1000 1:0.98500001 2:0.92500001 3:0.86500001 4:0.745 5:0 6:0.34875625 7:0 #
1000 1:0 2:0 3:0 4:0 5:0 6:0 7:0.066471249 #
-1000 1:0.94499999 2:0.88499999 3:0.82499999 4:0.76499999 5:1 6:0.22758125 7:0 #
1000 1:0 2:0 3:0 4:0 5:0 6:0 7:0.085864998 #
1000 1:0.85000002 2:0.79000002 3:0.67000002 4:0.61000001 5:1 6:0.18478125 7:0 #
-1000 1:0.07 2:0.07 3:0.07 4:0.07 5:1 6:0.3165625 7:0.032805 #
-1000 1:0.98500001 2:0.92500001 3:0.86500001 4:0.80500001 5:1 6:0.18062501 7:0 #
1000 1:0 2:0 3:0 4:0 5:0 6:0 7:0.084212497 #
-1000 1:0.98500001 2:0.92500001 3:0.86500001 4:0.80500001 5:1 6:0 7:0 #
1000 1:0 2:0 3:0 4:0 5:0 6:0 7:0.081501253 #
-1000 1:0.98000002 2:0.92000002 3:0.86000001 4:0.80000001 5:0.5 6:0.15015624 7:0 #
1000 1:0 2:0 3:0 4:0 5:0 6:0 7:0.088881247 #
1000 1:0.93000001 2:0.87 3:0.75 4:0.69 5:0.75 6:0.21825001 7:0 #
-1000 1:0.255 2:0.255 3:0.255 4:0.255 5:1 6:0.096100003 7:0.045018751 #
-1000 1:0.37 2:0.37 3:0.13 4:0.13 5:0 6:0.216225 7:0 #
-1000 1:0.875 2:0.815 3:0.755 4:0.69499999 5:1 6:0.10725625 7:0 #
1000 1:0.29499999 2:0.175 3:0.175 4:0.29499999 5:1 6:0.15015624 7:0 #
-1000 1:0.98500001 2:0.92500001 3:0.86500001 4:0.745 5:0 6:0.35026249 7:0 #
1000 1:0 2:0 3:0 4:0 5:0 6:0 7:0.09173125 #
-1000 1:0.175 2:0.175 3:0.050000001 4:0.050000001 5:1 6:0.18275625 7:0 #
1000 1:0.015 2:0.015 3:0.015 4:0.015 5:0.75 6:0 7:0.11951375 #
-1000 1:0.31 2:0.31 3:0.28999999 4:0.31 5:1 6:0 7:0 #
1000 1:0.205 2:0.205 3:0.205 4:0.205 5:0.75 6:0 7:0 #
1000 1:0.80500001 2:0.745 3:0.685 4:0.625 5:1 6:0.31093124 7:0 #
-1000 1:0.98500001 2:0.92500001 3:0.86500001 4:0.80500001 5:0.5 6:0.78453124 7:0 #
-1000 1:0.17 2:0.17 3:0.17 4:0.17 5:1 6:0 7:0.08405 #
-1000 1:0.97500002 2:0.91500002 3:0.79500002 4:0.73500001 5:0.75 6:0.82921875 7:0 #
-1000 1:0.41 2:0.33000001 3:0.33000001 4:0.20999999 5:1 6:0 7:0 #
-1000 1:0.15000001 2:0.15000001 3:0.15000001 4:0.11 5:1 6:0 7:0 #
1000 1:0.094999999 2:0.094999999 3:0.094999999 4:0.094999999 5:1 6:0 7:0.14971624 #
1000 1:0.0049999999 2:0.0049999999 3:0.0049999999 4:0.0049999999 5:0.75 6:0 7:0.11951375 #
-1000 1:0.255 2:0.255 3:0.255 4:0.255 5:1 6:0.10080625 7:0.045018751 #
1000 1:0.059999999 2:0.059999999 3:0.059999999 4:0.059999999 5:0.75 6:0 7:0.088846251 #
1000 1:0.0099999998 2:0.0099999998 3:0.0099999998 4:0.0099999998 5:0.5 6:0 7:0.18866874 #
1000 1:0.76999998 2:0.70999998 3:0.58999997 4:0.52999997 5:1 6:0.16965625 7:0 #
-1000 1:0.0099999998 2:0.0099999998 3:0.0099999998 4:0.0099999998 5:1 6:0 7:0.090801246 #
-1000 1:0.19499999 2:0.19499999 3:0.19499999 4:0 5:1 6:0 7:0.075208336 #
-372.83486824893089 1:0.055 2:0.055 3:0.055 4:0.055 5:0.25 6:0 7:0.14338541 #
1000 1:0.0049999999 2:0.0049999999 3:0.0049999999 4:0.0049999999 5:0.5 6:0 7:0.10753907 #
-1000 1:0.97500002 2:0.91500002 3:0.85500002 4:0.79500002 5:0.5 6:0.77574372 7:0 #
-1000 1:0.075000003 2:0.015 3:0.075000003 4:0.075000003 5:1 6:0.072899997 7:0.03741125 #
1000 1:0.94499999 2:0.88499999 3:0.82499999 4:0.76499999 5:0.5 6:0 7:0 #
1000 1:0.0049999999 2:0.0049999999 3:0.0049999999 4:0.0049999999 5:0.75 6:0 7:0.20478542 #
1000 1:0.055 2:0.055 3:0.055 4:0.055 5:0.75 6:0 7:0.25679374 #
-1000 1:0.41 2:0.41 3:0.41 4:0.41 5:0.75 6:0 7:0 #
1000 1:0.93000001 2:0.87 3:0.81 4:0.75 5:0.75 6:0.42408749 7:0 #
1000 1:0.81 2:0.75 3:0.69 4:0.63 5:1 6:0.32063124 7:0 #
-1000 1:0.35499999 2:0.35499999 3:0.35499999 4:0.35499999 5:1 6:0 7:0 #
1000 1:0.185 2:0.185 3:0.185 4:0.185 5:1 6:0.09765625 7:0.054002084 #
-1000 1:0.33500001 2:0.33500001 3:0.33500001 4:0.33500001 5:1 6:0.16605625 7:0 #
1000 1:0.175 2:0.175 3:0.175 4:0.175 5:1 6:0.096100003 7:0.055352084 #
-1000 1:0.0099999998 2:0.0099999998 3:0 4:0 5:1 6:0 7:0 #
1000 1:0.81 2:0.75 3:0.69 4:0.55000001 5:0.5 6:0.09455625 7:0.03403125 #
-1000 1:0.33500001 2:0.215 3:0 4:0 5:1 6:0 7:0 #
-1000 1:0.25 2:0.25 3:0.25 4:0.25 5:1 6:0 7:0 #
-1000 1:0.33500001 2:0.33500001 3:0.33500001 4:0.33500001 5:1 6:0.16605625 7:0 #
1000 1:0.81 2:0.75 3:0.69 4:0.55000001 5:0.5 6:0.082656249 7:0.038281251 #
1000 1:0.19499999 2:0.19499999 3:0.19499999 4:0.19499999 5:1 6:0.099225 7:0.05266875 #
-1000 1:0.33500001 2:0.33500001 3:0.33500001 4:0.33500001 5:1 6:0.16402499 7:0 #
-1000 1:0.0099999998 2:0 3:0 4:0 5:0 6:0 7:0.26735312 #
-1000 1:0 2:0 3:0 4:0 5:0 6:0 7:0.031205 #
-999.99998219865665 1:0.145 2:0.025 3:0.025 4:0 5:0 6:0 7:0.47295624 #
-1000 1:0.015 2:0.015 3:0.015 4:0.015 5:0.5 6:0 7:0.080556251 #
1000 1:0.02 2:0.02 3:0.02 4:0.02 5:0.5 6:0 7:0.18436874 #
-1000 1:0.0099999998 2:0 3:0 4:0 5:0 6:0 7:0.26735312 #
1000 1:0 2:0 3:0 4:0 5:0 6:0 7:0.085864998 #
1000 1:0.81 2:0.75 3:0.69 4:0.55000001 5:0.5 6:0.09150625 7:0.035701249 #
1000 1:0.255 2:0.13500001 3:0.13500001 4:0.255 5:1 6:0.14250626 7:0 #
-1000 1:0.98500001 2:0.92500001 3:0.86500001 4:0.80500001 5:1 6:0.34689999 7:0 #
-1000 1:0.98500001 2:0.92500001 3:0.86500001 4:0.745 5:0 6:0.35500625 7:0 #
1000 1:0.93000001 2:0.87 3:0.81 4:0.75 5:0.5 6:0.35498124 7:0 #
1000 1:0.815 2:0.755 3:0.63499999 4:0.57499999 5:1 6:0.1965625 7:0 #
1000 1:0.98000002 2:0.92000002 3:0.86000001 4:0.80000001 5:0.75 6:0.21948124 7:0 #
1000 1:0.78500003 2:0.72500002 3:0.66500002 4:0.60500002 5:1 6:0.41102499 7:0 #
-1000 1:0.97500002 2:0.91500002 3:0.79500002 4:0.73500001 5:1 6:0.2901125 7:0 #
1000 1:0.035 2:0.035 3:0.035 4:0.035 5:0.75 6:0 7:0.11951375 #
-1000 1:0.32499999 2:0.32499999 3:0.285 4:0.32499999 5:0 6:0 7:0 #
-1000 1:0.85000002 2:0.79000002 3:0.73000002 4:0.61000001 5:1 6:0.34503126 7:0 #
1000 1:0.090000004 2:0.090000004 3:0.090000004 4:0.090000004 5:0.75 6:0 7:0.14338541 #
1000 1:0.93000001 2:0.87 3:0.81 4:0.75 5:0.75 6:0.4282625 7:0 #
1000 1:0.235 2:0.235 3:0.235 4:0.235 5:1 6:0 7:0.02850125 #
1000 1:0.93000001 2:0.87 3:0.81 4:0.75 5:0.75 6:0.20648125 7:0 #
1000 1:0.93000001 2:0.87 3:0.81 4:0.75 5:0.75 6:0.42205626 7:0 #
-1000 1:0.98500001 2:0.92500001 3:0.86500001 4:0.745 5:0 6:0.3533875 7:0 #
-1000 1:0.25 2:0.25 3:0.25 4:0.25 5:1 6:0 7:0 #
1000 1:0.93000001 2:0.87 3:0.81 4:0.75 5:0.5 6:0.35078126 7:0 #
-1000 1:0.98500001 2:0.92500001 3:0.86500001 4:0.745 5:0 6:0.35835624 7:0 #
-1000 1:0.875 2:0.815 3:0.755 4:0.69499999 5:1 6:0.112225 7:0 #
1000 1:0.215 2:0.215 3:0.215 4:0.215 5:0.75 6:0 7:0 #
1000 1:0.13 2:0.13 3:0.13 4:0.025 5:1 6:0 7:0.2100625 #
1000 1:0.055 2:0.055 3:0.055 4:0.055 5:0.75 6:0 7:0.085116252 #
-1000 1:0.35499999 2:0.35499999 3:0.35499999 4:0.35499999 5:1 6:0 7:0 #
1000 1:0.94 2:0.88 3:0.81999999 4:0.75999999 5:0.75 6:0.20643125 7:0 #
-999.99747241528894 1:0.47999999 2:0.31999999 3:0.47999999 4:0.47999999 5:0 6:0 7:0.61435628 #
-1000 1:0.35499999 2:0.35499999 3:0.35499999 4:0.35499999 5:1 6:0 7:0 #
-1000 1:0.41999999 2:0.34 3:0.34 4:0.22 5:1 6:0 7:0 #
1000 1:0.93000001 2:0.87 3:0.81 4:0.75 5:0.75 6:0 7:0 #
-1000 1:0.51499999 2:0.39500001 3:0.39500001 4:0.39500001 5:1 6:0 7:0 #
-1000 1:0.02 2:0.02 3:0.02 4:0.02 5:1 6:0 7:0.047045 #
-1000 1:0.29499999 2:0.29499999 3:0.29499999 4:0.29499999 5:1 6:0.12425625 7:0.02850125 #
1000 1:0.19499999 2:0.19499999 3:0.19499999 4:0.19499999 5:0.75 6:0 7:0 #
1000 1:0.30500001 2:0.30500001 3:0.30500001 4:0.30500001 5:1 6:0 7:0.15448542 #
1000 1:0.22499999 2:0.22499999 3:0.22499999 4:0.22499999 5:0.75 6:0 7:0 #
1000 1:0.93000001 2:0.87 3:0.81 4:0.75 5:0.75 6:0.42615625 7:0 #
-1000 1:0.38999999 2:0.34999999 3:0.34999999 4:0.38999999 5:1 6:0 7:0 #
-1000 1:0.0049999999 2:0.0049999999 3:0.0049999999 4:0.0049999999 5:1 6:0 7:0.048511252 #
-1000 1:0.41499999 2:0.34999999 3:0.34999999 4:0.41499999 5:1 6:0 7:0 #
1000 1:0.76999998 2:0.70999998 3:0.64999998 4:0.58999997 5:1 6:0.1225 7:0 #
-1000 1:0.38999999 2:0.38999999 3:0.38999999 4:0.38999999 5:0.5 6:0 7:0 #
-618.63724940933935 1:0.31 2:0.31 3:0.31 4:0.31 5:0.75 6:0.17850626 7:0 #
-1000 1:0.0049999999 2:0.0049999999 3:0.0049999999 4:0.0049999999 5:1 6:0.028899999 7:0.046252083 #
1000 1:0.93000001 2:0.87 3:0.81 4:0.75 5:0.75 6:0.42006251 7:0 #
-1000 1:0.41 2:0.41 3:0.41 4:0.41 5:0.75 6:0 7:0 #
1000 1:0.73000002 2:0.67000002 3:0.61000001 4:0.55000001 5:0.75 6:0.36703125 7:0 #
1000 1:0.055 2:0.055 3:0.055 4:0.055 5:1 6:0 7:0.13886042 #
-1000 1:0.41999999 2:0.34 3:0.34 4:0.22 5:1 6:0 7:0 #
1000 1:0.81999999 2:0.75999999 3:0.69999999 4:0.63999999 5:1 6:0.19758125 7:0 #
-1000 1:0.025 2:0 3:0 4:0 5:1 6:0 7:0.20148125 #
-1000 1:0.36500001 2:0.36500001 3:0.36500001 4:0.36500001 5:0 6:0 7:0.115405 #
1000 1:0.025 2:0.025 3:0.025 4:0.025 5:0.75 6:0 7:0.11951375 #
-1000 1:0.31 2:0.31 3:0.31 4:0.31 5:1 6:0 7:0 #
-1000 1:0.98000002 2:0.92000002 3:0.86000001 4:0.80000001 5:0 6:0.54313123 7:0 #
-1000 1:0.435 2:0.37 3:0.435 4:0.435 5:1 6:0.23280625 7:0.03042 #
1000 1:0.78500003 2:0.72500002 3:0.66500002 4:0.60500002 5:1 6:0.20433125 7:0 #
-1000 1:0.12 2:0.12 3:0.12 4:0.12 5:1 6:0 7:0.052008335 #
-1000 1:0.98500001 2:0.92500001 3:0.86500001 4:0.745 5:0 6:0.35666251 7:0 #
-1000 1:0.41 2:0.41 3:0.41 4:0.41 5:0.75 6:0 7:0 #
1000 1:0.039999999 2:0.039999999 3:0.039999999 4:0.039999999 5:0.5 6:0 7:0.10555125 #
1000 1:0.76999998 2:0.70999998 3:0.58999997 4:0.52999997 5:1 6:0.23271251 7:0 #
-1000 1:0.98500001 2:0.92500001 3:0.86500001 4:0.745 5:0 6:0.35180625 7:0 #
1000 1:0.185 2:0.185 3:0.185 4:0.185 5:0.75 6:0 7:0 #
1000 1:0.93000001 2:0.87 3:0.81 4:0.75 5:0.75 6:0 7:0 #
1000 1:0.97000003 2:0.91000003 3:0.85000002 4:0.79000002 5:0.75 6:0.21953125 7:0 #
-1000 1:0.1 2:0 3:0 4:0 5:1 6:0 7:0.21053125 #
-1000 1:0.015 2:0.015 3:0.015 4:0.015 5:1 6:0 7:0 #
1000 1:0.015 2:0.015 3:0.015 4:0.015 5:0.75 6:0 7:0.20478542 #
1000 1:0.025 2:0.025 3:0.025 4:0.025 5:0.75 6:0 7:0.20478542 #
1000 1:0.84500003 2:0.78500003 3:0.66500002 4:0.60500002 5:1 6:0.20604999 7:0 #
-1000 1:0.33500001 2:0.33500001 3:0.33500001 4:0.33500001 5:1 6:0.16402499 7:0 #
1000 1:0.26499999 2:0.145 3:0.145 4:0.145 5:0.75 6:0 7:0.094591253 #
1000 1:0.17 2:0.17 3:0.17 4:0.17 5:1 6:0 7:0.10022657 #
-1000 1:0.98500001 2:0.92500001 3:0.80500001 4:0.745 5:1 6:0.084100001 7:0 #
-1000 1:0.98500001 2:0.92500001 3:0.80500001 4:0.745 5:1 6:0.2938 7:0 #
1000 1:0.79000002 2:0.73000002 3:0.67000002 4:0.61000001 5:0.75 6:0.24678124 7:0 #
1000 1:0.27500001 2:0.155 3:0.155 4:0.155 5:0.75 6:0 7:0.092656247 #
1000 1:0.95499998 2:0.89499998 3:0.83499998 4:0.77499998 5:0.75 6:0.21623126 7:0 #
-853.62518325040583 1:0.30000001 2:0.30000001 3:0.02 4:0.22499999 5:1 6:0 7:0 #
-1000 1:0.85000002 2:0.79000002 3:0.73000002 4:0.67000002 5:1 6:0.33120626 7:0 #
1000 1:0.98000002 2:0.92000002 3:0.86000001 4:0.80000001 5:0.75 6:0 7:0 #
1000 1:0.81 2:0.75 3:0.69 4:0.55000001 5:0.5 6:0.093024999 7:0.034861252 #
-1000 1:0.215 2:0.215 3:0.215 4:0.215 5:1 6:0 7:0.060639061 #
-1000 1:0.25 2:0.25 3:0.25 4:0.064999998 5:1 6:0 7:0 #
1000 1:0.93000001 2:0.87 3:0.81 4:0.75 5:0.75 6:0.22620624 7:0 #
1000 1:0.23999999 2:0.23999999 3:0.23999999 4:0.23999999 5:1 6:0 7:0.187925 #
1000 1:0.285 2:0.16500001 3:0.16500001 4:0.16500001 5:0.75 6:0 7:0.090741247 #
-1000 1:0.094999999 2:0.094999999 3:0.094999999 4:0 5:1 6:0 7:0 #
-1000 1:0.98500001 2:0.92500001 3:0.86500001 4:0.78500003 5:1 6:0.33864999 7:0 #
-1000 1:0.0049999999 2:0.0049999999 3:0.0049999999 4:0.0049999999 5:1 6:0.02175625 7:0 #
-1000 1:0.98500001 2:0.92500001 3:0.86500001 4:0.80500001 5:1 6:0 7:0 #
-1000 1:0.059999999 2:0.059999999 3:0.059999999 4:0.059999999 5:1 6:0.23280625 7:0.078524999 #
-1000 1:0.96499997 2:0.90499997 3:0.84500003 4:0.78500003 5:1 6:0.56776249 7:0 #
-1000 1:0.34 2:0.34 3:0.34 4:0.34 5:1 6:0 7:0 #
-190.4557718350552 1:0.0099999998 2:0.0099999998 3:0.0099999998 4:0.0099999998 5:0.75 6:0 7:0.53905624 #
1000 1:0.035 2:0.035 3:0.035 4:0.035 5:0.75 6:0 7:0.20478542 #
-1000 1:0.98500001 2:0.92500001 3:0.86500001 4:0.80500001 5:0.75 6:0 7:0 #
-1000 1:0.98500001 2:0.92500001 3:0.86500001 4:0.80500001 5:0.75 6:0.37740624 7:0 #
-1000 1:0.97500002 2:0.91500002 3:0.85500002 4:0.73500001 5:1 6:0 7:0 #
-1000 1:0.32499999 2:0.32499999 3:0.205 4:0.32499999 5:1 6:0 7:0.20820312 #
-1000 1:0.12 2:0 3:0 4:0 5:1 6:0 7:0.20148125 #
-1000 1:0.98500001 2:0.92500001 3:0.86500001 4:0.80500001 5:0.75 6:0 7:0 #
1000 1:0.93000001 2:0.87 3:0.81 4:0.75 5:1 6:0.15565625 7:0 #
-1000 1:0.145 2:0.145 3:0.145 4:0.145 5:1 6:0 7:0 #
-1000 1:0.12 2:0 3:0 4:0 5:1 6:0 7:0.20148125 #
1000 1:0.26499999 2:0.145 3:0.145 4:0.26499999 5:1 6:0.1444 7:0 #
-1000 1:0.92500001 2:0.86500001 3:0.80500001 4:0.745 5:1 6:0.46675625 7:0 #
1000 1:0.94999999 2:0.88999999 3:0.82999998 4:0.76999998 5:0.75 6:0 7:0 #
-1000 1:0.98000002 2:0.92000002 3:0.86000001 4:0.80000001 5:1 6:0.3799625 7:0 #
-1000 1:0.0099999998 2:0.0099999998 3:0 4:0 5:1 6:0 7:0 #
1000 1:0.93000001 2:0.87 3:0.81 4:0.75 5:1 6:0.22280625 7:0 #
1000 1:0.07 2:0.07 3:0.07 4:0.07 5:0.75 6:0 7:0.086971253 #
1000 1:0.94 2:0.88 3:0.81999999 4:0.75999999 5:0.75 6:0 7:0 #
1000 1:0.075000003 2:0.075000003 3:0.075000003 4:0.075000003 5:1 6:0 7:0.087941252 #
-1000 1:0.94499999 2:0.82499999 3:0.76499999 4:0.70499998 5:1 6:0 7:0 #
-1000 1:0.13 2:0.13 3:0.13 4:0 5:1 6:0 7:0.12857126 #
-1000 1:0.115 2:0.115 3:0.115 4:0.115 5:1 6:0.15602501 7:0.047851563 #
-1000 1:0.15000001 2:0.15000001 3:0.15000001 4:0.15000001 5:1 6:0 7:0 #
-1000 1:0.064999998 2:0.064999998 3:0.064999998 4:0.064999998 5:1 6:0 7:0.33139375 #
1000 1:0.30500001 2:0.185 3:0.185 4:0.185 5:1 6:0.1521 7:0 #
1000 1:0.105 2:0.105 3:0.105 4:0.105 5:1 6:0 7:0.11951375 #
-1000 1:0.97500002 2:0.91500002 3:0.85500002 4:0.73500001 5:1 6:0 7:0 #
-1000 1:0.58999997 2:0.58999997 3:0.53500003 4:0.41499999 5:0 6:0 7:0 #
1000 1:0.93000001 2:0.87 3:0.81 4:0.75 5:1 6:0.15013126 7:0 #
-1000 1:0.98500001 2:0.92500001 3:0.86500001 4:0.745 5:0.75 6:0.23980625 7:0 #
1000 1:0.98500001 2:0.92500001 3:0.86500001 4:0.80500001 5:0.75 6:0.22280625 7:0 #
-1000 1:0.75999999 2:0.69999999 3:0.63999999 4:0.56 5:1 6:0 7:0.035208333 #
1000 1:0.15000001 2:0.15000001 3:0.15000001 4:0.15000001 5:1 6:0 7:0.10473906 #
1000 1:0.27500001 2:0.155 3:0.155 4:0.27500001 5:1 6:0.14630625 7:0 #
-1000 1:0.70499998 2:0.64499998 3:0.58499998 4:0.505 5:1 6:0.041006248 7:0.073633336 #
1000 1:0.84500003 2:0.78500003 3:0.66500002 4:0.60500002 5:1 6:0.21288125 7:0 #
1000 1:0.82999998 2:0.76999998 3:0.64999998 4:0.58999997 5:1 6:0.18758126 7:0 #
1000 1:0.094999999 2:0.094999999 3:0.094999999 4:0.094999999 5:1 6:0 7:0.18393281 #
-1000 1:0.13 2:0.13 3:0.13 4:0.075000003 5:1 6:0 7:0.12857126 #
1000 1:0.115 2:0.115 3:0.115 4:0.115 5:1 6:0 7:0.14290625 #
-1000 1:0.064999998 2:0.064999998 3:0.064999998 4:0.064999998 5:1 6:0 7:0.090801246 #
-1000 1:0.35499999 2:0.35499999 3:0.185 4:0.35499999 5:1 6:0 7:0 #
1000 1:0.77999997 2:0.72000003 3:0.60000002 4:0.54000002 5:1 6:0.24540626 7:0 #
1000 1:0.064999998 2:0.064999998 3:0.064999998 4:0.064999998 5:1 6:0 7:0.089826249 #
-1000 1:0.094999999 2:0.094999999 3:0.094999999 4:0.094999999 5:1 6:0 7:0.03916125 #
1000 1:0.79000002 2:0.73000002 3:0.67000002 4:0.61000001 5:1 6:0.29198125 7:0 #
1000 1:0.094999999 2:0.094999999 3:0.094999999 4:0.094999999 5:1 6:0 7:0.08423125 #
-1000 1:0.0049999999 2:0.0049999999 3:0.0049999999 4:0.0049999999 5:1 6:0.027225001 7:0 #
-749.55104276883867 1:0.33000001 2:0.33000001 3:0.090000004 4:0.035 5:1 6:0 7:0.14338541 #
1000 1:0.98500001 2:0.92500001 3:0.86500001 4:0.80500001 5:0.75 6:0.22620624 7:0 #
-1000 1:0.98500001 2:0.86500001 3:0.80500001 4:0.745 5:1 6:0 7:0 #
-1000 1:0.094999999 2:0.094999999 3:0.094999999 4:0.094999999 5:1 6:0 7:0.066752084 #
1000 1:0.075000003 2:0.075000003 3:0.075000003 4:0.075000003 5:1 6:0 7:0.19259532 #
-1000 1:0.73000002 2:0.67000002 3:0.61000001 4:0.55000001 5:1 6:0.044100001 7:0 #
1000 1:0.090000004 2:0.090000004 3:0.090000004 4:0.090000004 5:1 6:0 7:0.14191875 #
1000 1:0.84500003 2:0.78500003 3:0.66500002 4:0.60500002 5:1 6:0.19375625 7:0 #
1000 1:0.81999999 2:0.75999999 3:0.63999999 4:0.57999998 5:1 6:0.19065624 7:0 #
-1000 1:0.064999998 2:0.064999998 3:0.064999998 4:0.064999998 5:1 6:0 7:0.045125 #
1000 1:0.055 2:0.055 3:0.055 4:0.055 5:1 6:0 7:0.09173125 #
-1000 1:0.98500001 2:0.92500001 3:0.86500001 4:0.80500001 5:0.75 6:0.34095624 7:0 #
1000 1:0.16 2:0.16 3:0.16 4:0.16 5:1 6:0 7:0.10247032 #
-1000 1:0.38999999 2:0.38999999 3:0.15000001 4:0.055 5:1 6:0 7:0.022533333 #
-1000 1:0.35499999 2:0.35499999 3:0.235 4:0.35499999 5:1 6:0 7:0 #
-984.31140624067507 1:0.27000001 2:0.029999999 3:0.029999999 4:0.13 5:1 6:0 7:0 #
1000 1:0.81 2:0.75 3:0.69 4:0.55000001 5:0.5 6:0.088506252 7:0.03741125 #
1000 1:0.085000001 2:0.085000001 3:0.085000001 4:0.085000001 5:1 6:0 7:0.18823907 #
-998.81276884319834 1:0.5 2:0.39500001 3:0.27500001 4:0.035 5:0 6:0 7:0.069008335 #
-1000 1:0.98500001 2:0.92500001 3:0.86500001 4:0.80500001 5:1 6:0.17640001 7:0 #
1000 1:0.94999999 2:0.88999999 3:0.82999998 4:0.76999998 5:0.75 6:0.21295625 7:0 #
-1000 1:0.76499999 2:0.70499998 3:0.64499998 4:0.58499998 5:1 6:0.38097501 7:0 #
-1000 1:0.465 2:0.465 3:0.465 4:0.465 5:0.5 6:0 7:0.61903751 #
1000 1:0.12 2:0.12 3:0.12 4:0.015 5:1 6:0 7:0.21466251 #
1000 1:0.064999998 2:0.064999998 3:0.064999998 4:0.064999998 5:0.75 6:0 7:0.20478542 #
-361.37310909331791 1:0.38999999 2:0.315 3:0.075000003 4:0.029999999 5:1 6:0 7:0 #
1000 1:0.11 2:0.090000004 3:0.090000004 4:0.11 5:1 6:0 7:0.086740002 #
1000 1:0.125 2:0.125 3:0.125 4:0.125 5:1 6:0 7:0.13956125 #
-120.52766777936631 1:0.255 2:0.255 3:0.255 4:0.13500001 5:1 6:0.13689999 7:0 #
1000 1:0.12 2:0.1 3:0.1 4:0.12 5:1 6:0 7:0.084890001 #
1000 1:0.81 2:0.75 3:0.69 4:0.55000001 5:0.5 6:0.090000004 7:0.036551248 #
1000 1:0.80000001 2:0.74000001 3:0.68000001 4:0.62 5:1 6:0.3061375 7:0 #
-1000 1:0.96499997 2:0.90499997 3:0.78500003 4:0.72500002 5:0.75 6:0.82018125 7:0 #
1000 1:0.075000003 2:0.075000003 3:0.075000003 4:0.075000003 5:1 6:0 7:0.079706252 #
1000 1:0.059999999 2:0.059999999 3:0.059999999 4:0.039999999 5:1 6:0 7:0.082406253 #
1000 1:0.83499998 2:0.77499998 3:0.65499997 4:0.59500003 5:1 6:0.19065624 7:0 #
-1000 1:0.075000003 2:0.075000003 3:0.075000003 4:0.075000003 5:1 6:0 7:0.089392498 #
1000 1:0.079999998 2:0.079999998 3:0.079999998 4:0.079999998 5:1 6:0 7:0.14501041 #
1000 1:0.105 2:0.105 3:0.105 4:0.105 5:1 6:0 7:0.14629126 #
1000 1:0.085000001 2:0.085000001 3:0.085000001 4:0.085000001 5:1 6:0 7:0.086076252 #
-1000 1:0.82499999 2:0.76499999 3:0.64499998 4:0.58499998 5:1 6:0.09765625 7:0 #
-1000 1:0.98000002 2:0.92000002 3:0.86000001 4:0.74000001 5:1 6:0.13322499 7:0 #
-1000 1:0.98500001 2:0.92500001 3:0.84500003 4:0.78500003 5:1 6:0.4165 7:0 #
-999.99786611767195 1:0.47999999 2:0.31999999 3:0.2 4:0.47999999 5:0 6:0 7:0.61435628 #
1000 1:0.97500002 2:0.91500002 3:0.85500002 4:0.79500002 5:0.75 6:0.22285625 7:0 #
1000 1:0.80000001 2:0.74000001 3:0.62 4:0.56 5:1 6:0.27180624 7:0 #
1000 1:0.77499998 2:0.71499997 3:0.65499997 4:0.59500003 5:1 6:0.19488125 7:0 #
1000 1:0.79000002 2:0.73000002 3:0.67000002 4:0.61000001 5:1 6:0.28506875 7:0 #
1000 1:0.93000001 2:0.87 3:0.81 4:0.75 5:0.75 6:0.20648125 7:0 #
-1000 1:0.95499998 2:0.83499998 3:0.77499998 4:0.71499997 5:1 6:0 7:0 #
-1000 1:0.41 2:0.41 3:0.28999999 4:0.41 5:1 6:0 7:0 #
-1000 1:0.085000001 2:0.085000001 3:0.085000001 4:0.079999998 5:1 6:0 7:0.040951248 #
-1000 1:0.46000001 2:0.46000001 3:0.46000001 4:0.34 5:0.75 6:0 7:0 #
1000 1:0.93000001 2:0.87 3:0.81 4:0.75 5:1 6:0.15288125 7:0 #
-1000 1:0.97500002 2:0.91500002 3:0.83499998 4:0.77499998 5:1 6:0.40296251 7:0 #
-1000 1:0.98500001 2:0.92500001 3:0.86500001 4:0.80500001 5:0.5 6:0.1521 7:0 #
-1000 1:0.58999997 2:0.58999997 3:0.53500003 4:0.41499999 5:0 6:0 7:0 #
-1000 1:0.95999998 2:0.89999998 3:0.83999997 4:0.77999997 5:1 6:0.31410626 7:0 #
-1000 1:0.69999999 2:0.63999999 3:0.57999998 4:0.5 5:1 6:0.039999999 7:0.073633336 #
-1000 1:0.84500003 2:0.78500003 3:0.72500002 4:0.66500002 5:1 6:0.32715625 7:0 #
1000 1:0.77499998 2:0.71499997 3:0.59500003 4:0.53500003 5:1 6:0.23690625 7:0 #
1000 1:0.80500001 2:0.745 3:0.625 4:0.565 5:1 6:0.2763375 7:0 #
1000 1:0.97500002 2:0.91500002 3:0.85500002 4:0.79500002 5:0.75 6:0.21948124 7:0 #
1000 1:0.80000001 2:0.74000001 3:0.68000001 4:0.62 5:1 6:0.29899999 7:0 #
1000 1:0.93000001 2:0.87 3:0.81 4:0.75 5:0.75 6:0.20970625 7:0 #
1000 1:0.81 2:0.75 3:0.69 4:0.63 5:1 6:0.13699999 7:0 #
1000 1:0.81 2:0.75 3:0.63 4:0.56999999 5:1 6:0.18150625 7:0 #
1000 1:0.935 2:0.875 3:0.815 4:0.755 5:0.75 6:0 7:0 #
-1000 1:0.90499997 2:0.84500003 3:0.78500003 4:0.66500002 5:1 6:0.36158124 7:0 #
1000 1:0.82999998 2:0.76999998 3:0.70999998 4:0.64999998 5:1 6:0.20073125 7:0 #
-1000 1:0.98500001 2:0.90499997 3:0.84500003 4:0.72500002 5:1 6:0.2025 7:0 #
-1000 1:0.98000002 2:0.92000002 3:0.80000001 4:0.74000001 5:1 6:0.081225 7:0 #
-1000 1:0.87 2:0.81 3:0.75 4:0.69 5:1 6:0.29218751 7:0 #
1000 1:0.79000002 2:0.73000002 3:0.67000002 4:0.61000001 5:1 6:0.18828125 7:0 #
-1000 1:0.98000002 2:0.92000002 3:0.80000001 4:0.74000001 5:1 6:0.2938 7:0 #
1000 1:0.78500003 2:0.72500002 3:0.60500002 4:0.54500002 5:1 6:0.2497125 7:0 #
-1000 1:0.175 2:0.16 3:0 4:0 5:1 6:0.172225 7:0 #
-1000 1:0.63499999 2:0.63499999 3:0.57999998 4:0.46000001 5:1 6:0 7:0 #
-1000 1:0.88999999 2:0.82999998 3:0.76999998 4:0.70999998 5:0.75 6:0 7:0.21219844 #
1000 1:0.79500002 2:0.73500001 3:0.67500001 4:0.61500001 5:1 6:0.289675 7:0 #
1000 1:0.84500003 2:0.78500003 3:0.66500002 4:0.60500002 5:1 6:0.18478125 7:0 #
-1000 1:0.98000002 2:0.92000002 3:0.83999997 4:0.77999997 5:1 6:0.40744999 7:0 #
-1000 1:0.98500001 2:0.92500001 3:0.86500001 4:0.745 5:1 6:0.13505626 7:0 #
-582.26144698390624 1:0.73000002 2:0.67000002 3:0.61000001 4:0.52999997 5:1 6:0 7:0.15052083 #
-1000 1:0.94999999 2:0.88999999 3:0.82999998 4:0.76999998 5:1 6:0 7:0 #
-1000 1:0.97500002 2:0.91500002 3:0.85500002 4:0.79500002 5:0.5 6:0.15015624 7:0 #
1000 1:0.81 2:0.75 3:0.69 4:0.63 5:1 6:0.31326875 7:0 #
-1000 1:0.97000003 2:0.91000003 3:0.85000002 4:0.73000002 5:1 6:0 7:0 #
1000 1:0.94499999 2:0.88499999 3:0.82499999 4:0.76499999 5:0.75 6:0.20965625 7:0 #
-1000 1:0.98500001 2:0.92500001 3:0.86500001 4:0.80500001 5:1 6:0.17015626 7:0 #
1000 1:0.85000002 2:0.79000002 3:0.73000002 4:0.67000002 5:1 6:0.20710625 7:0 #
-1000 1:0.98500001 2:0.92500001 3:0.80500001 4:0.745 5:0.5 6:0.1444 7:0 #
1000 1:0.95999998 2:0.89999998 3:0.83999997 4:0.77999997 5:0.75 6:0.21623126 7:0 #
-646.83516182813582 1:0.235 2:0.235 3:0.235 4:0.235 5:1 6:0.12780625 7:0.02850125 #
-1000 1:0.98000002 2:0.92000002 3:0.86000001 4:0.80000001 5:1 6:0.34689999 7:0 #
1000 1:0.82499999 2:0.76499999 3:0.64499998 4:0.58499998 5:1 6:0.1997 7:0 #
-1000 1:0.87 2:0.81 3:0.75 4:0.69 5:1 6:0.10400625 7:0 #
1000 1:0.83999997 2:0.77999997 3:0.66000003 4:0.60000002 5:1 6:0.18175624 7:0 #
-1000 1:0.98500001 2:0.92500001 3:0.86500001 4:0.80500001 5:1 6:0.09765625 7:0 #
1000 1:0.79000002 2:0.73000002 3:0.61000001 4:0.55000001 5:1 6:0.25843751 7:0 #
1000 1:0.80500001 2:0.745 3:0.685 4:0.625 5:1 6:0.19445625 7:0 #
-1000 1:0.88999999 2:0.82999998 3:0.76999998 4:0.64999998 5:1 6:0.35740626 7:0 #
-1000 1:0.96499997 2:0.90499997 3:0.84500003 4:0.72500002 5:1 6:0 7:0 #
-1000 1:0.76999998 2:0.70999998 3:0.64999998 4:0.58999997 5:1 6:0.19178125 7:0 #
-1000 1:0.96499997 2:0.90499997 3:0.84500003 4:0.78500003 5:1 6:0.42636251 7:0 #
1000 1:0.815 2:0.755 3:0.63499999 4:0.57499999 5:1 6:0.18453126 7:0 #
-1000 1:0.95999998 2:0.89999998 3:0.83999997 4:0.72000003 5:1 6:0 7:0 #
1000 1:0.82499999 2:0.76499999 3:0.64499998 4:0.58499998 5:1 6:0.17875625 7:0 #
1000 1:0.81999999 2:0.75999999 3:0.63999999 4:0.57999998 5:1 6:0.1965625 7:0 #
1000 1:0.79500002 2:0.73500001 3:0.67500001 4:0.61500001 5:1 6:0.29666251 7:0 #
1000 1:0.77999997 2:0.72000003 3:0.66000003 4:0.60000002 5:1 6:0.20115624 7:0 #
-733.77706087898491 1:0.63499999 2:0.63499999 3:0.57999998 4:0.46000001 5:1 6:0 7:0 #
1000 1:0.82999998 2:0.76999998 3:0.64999998 4:0.58999997 5:1 6:0.17875625 7:0 #
-1000 1:0.87 2:0.81 3:0.75 4:0.69 5:1 6:0.10725625 7:0 #
1000 1:0.83999997 2:0.77999997 3:0.72000003 4:0.66000003 5:1 6:0.20390625 7:0 #
-458.13717646442461 1:0.92000002 2:0.86000001 3:0.74000001 4:0.68000001 5:1 6:0.13322499 7:0 #
-1000 1:0.95499998 2:0.83499998 3:0.77499998 4:0.70999998 5:1 6:0 7:0 #
-1000 1:0.94 2:0.88 3:0.75999999 4:0.69999999 5:1 6:0 7:0 #
-1000 1:0.81999999 2:0.75999999 3:0.69999999 4:0.63999999 5:1 6:0.29565626 7:0 #
1000 1:0.79500002 2:0.73500001 3:0.61500001 4:0.55500001 5:1 6:0.26285625 7:0 #
-1000 1:0.97500002 2:0.91500002 3:0.85500002 4:0.79500002 5:1 6:0.37562501 7:0 #
1000 1:0.83999997 2:0.77999997 3:0.66000003 4:0.60000002 5:1 6:0.2028625 7:0 #
-34.572903773780574 1:0.63499999 2:0.63499999 3:0.57999998 4:0.46000001 5:1 6:0.075625002 7:0 #
1000 1:0.81 2:0.75 3:0.63 4:0.56999999 5:1 6:0.18150625 7:0 #
1000 1:0.78500003 2:0.72500002 3:0.66500002 4:0.60500002 5:1 6:0.18828125 7:0 #
1000 1:0.82499999 2:0.76499999 3:0.64499998 4:0.58499998 5:1 6:0.19375625 7:0 #
-1000 1:0.75 2:0.69 3:0.63 4:0.55000001 5:1 6:0 7:0.10884167 #
-1000 1:0.83499998 2:0.77499998 3:0.71499997 4:0.65499997 5:1 6:0.31515625 7:0 #
-1000 1:0.92000002 2:0.86000001 3:0.74000001 4:0.68000001 5:1 6:0.27204999 7:0 #
-1000 1:0.935 2:0.875 3:0.755 4:0.69499999 5:1 6:0 7:0 #
-1000 1:0.38 2:0.38 3:0.14 4:0.38 5:0 6:0.18062501 7:0 #
1000 1:0.81999999 2:0.75999999 3:0.63999999 4:0.57999998 5:1 6:0.18453126 7:0 #
-1000 1:0.88999999 2:0.82999998 3:0.76999998 4:0.70999998 5:1 6:0.050625 7:0 #
1000 1:0.83499998 2:0.77499998 3:0.65499997 4:0.59500003 5:1 6:0.20320626 7:0 #
1000 1:0.82999998 2:0.76999998 3:0.64999998 4:0.58999997 5:1 6:0.1997 7:0 #
1000 1:0.815 2:0.755 3:0.63499999 4:0.57499999 5:1 6:0.18453126 7:0 #
-1000 1:0.93000001 2:0.87 3:0.81 4:0.75 5:1 6:0 7:0 #
1000 1:0.80000001 2:0.74000001 3:0.68000001 4:0.62 5:1 6:0.19135626 7:0 #
-1000 1:0.82499999 2:0.76499999 3:0.70499998 4:0.64499998 5:1 6:0.30338126 7:0 #
-1000 1:0.93000001 2:0.87 3:0.81 4:0.75 5:1 6:0.085556246 7:0 #
1000 1:0.81 2:0.75 3:0.69 4:0.63 5:1 6:0.19445625 7:0 #
1000 1:0.79500002 2:0.73500001 3:0.67500001 4:0.61500001 5:1 6:0.19135626 7:0 #
1000 1:0.815 2:0.755 3:0.69499999 4:0.63499999 5:1 6:0.19758125 7:0 #
-1000 1:0.88499999 2:0.82499999 3:0.76499999 4:0.64499998 5:1 6:0.35325626 7:0 #
-1000 1:0.96499997 2:0.90499997 3:0.78500003 4:0.72500002 5:1 6:0 7:0 #
-1000 1:0.875 2:0.815 3:0.755 4:0.69499999 5:1 6:0.1089 7:0 #
-1000 1:0.83999997 2:0.77999997 3:0.72000003 4:0.66000003 5:1 6:0.31913126 7:0 #
1000 1:0.85500002 2:0.79500002 3:0.73500001 4:0.67500001 5:1 6:0.21033125 7:0 #
-1000 1:0.92000002 2:0.86000001 3:0.74000001 4:0.68000001 5:1 6:0.26769999 7:0 #
1000 1:0.84500003 2:0.78500003 3:0.72500002 4:0.66500002 5:1 6:0.20710625 7:0 #
1000 1:0.96499997 2:0.90499997 3:0.84500003 4:0.78500003 5:0.75 6:0.047306251 7:0 #
-379.5697812723447 1:0.815 2:0.755 3:0.69499999 4:0.63499999 5:1 6:0.29183125 7:0 #
-1000 1:0.88 2:0.81999999 3:0.75999999 4:0.63999999 5:1 6:0.35325626 7:0 #
1000 1:0.83499998 2:0.77499998 3:0.71499997 4:0.65499997 5:1 6:0.20390625 7:0 #
-1000 1:0.98500001 2:0.92500001 3:0.86500001 4:0.80500001 5:1 6:0.3887125 7:0 #
1000 1:0.95499998 2:0.89499998 3:0.83499998 4:0.77499998 5:0.75 6:0.21290626 7:0 #
-1000 1:0.98500001 2:0.92500001 3:0.86500001 4:0.80500001 5:0.75 6:0 7:0 #
-958.16523114342726 1:0.875 2:0.815 3:0.755 4:0.63499999 5:1 6:0.34913126 7:0 #
1000 1:0.82499999 2:0.76499999 3:0.70499998 4:0.64499998 5:1 6:0.20073125 7:0 #
1000 1:0.85000002 2:0.79000002 3:0.67000002 4:0.61000001 5:1 6:0.19375625 7:0 #
1000 1:0.83999997 2:0.77999997 3:0.66000003 4:0.60000002 5:1 6:0.19065624 7:0 #
1000 1:0.83999997 2:0.77999997 3:0.66000003 4:0.60000002 5:1 6:0.20963125 7:0 #
-1000 1:0.82999998 2:0.76999998 3:0.70999998 4:0.64999998 5:1 6:0.30728126 7:0 #
1000 1:0.82999998 2:0.76999998 3:0.64999998 4:0.58999997 5:1 6:0.20003125 7:0 #
-1000 1:0.98500001 2:0.86500001 3:0.80500001 4:0.745 5:1 6:0 7:0 #
1000 1:0.83499998 2:0.77499998 3:0.65499997 4:0.59500003 5:1 6:0.2028625 7:0 #
1000 1:0.96499997 2:0.90499997 3:0.84500003 4:0.78500003 5:0.75 6:0.21618125 7:0 #
1000 1:0.86500001 2:0.80500001 3:0.745 4:0.685 5:1 6:0.21358125 7:0 #
-748.54601899534464 1:0.95499998 2:0.89499998 3:0.77499998 4:0.71499997 5:0.75 6:0.81119376 7:0 #
1000 1:0.94499999 2:0.88499999 3:0.82499999 4:0.76499999 5:0.75 6:0 7:0 #
1000 1:0.96499997 2:0.90499997 3:0.84500003 4:0.78500003 5:0.75 6:0.21953125 7:0 #
-999.52180433865931 1:0.97000003 2:0.91000003 3:0.79000002 4:0.73000002 5:0.75 6:0.82921875 7:0 #
1000 1:0.94499999 2:0.88499999 3:0.82499999 4:0.76499999 5:0.75 6:0.21295625 7:0 #
1000 1:0.97000003 2:0.91000003 3:0.85000002 4:0.79000002 5:0.75 6:0.0484 7:0 #
-88.367625096092524 1:0.875 2:0.815 3:0.755 4:0.69499999 5:1 6:0.23763125 7:0 #
1000 1:0.93000001 2:0.87 3:0.81 4:0.75 5:0.75 6:0.20328125 7:0 #
1000 1:0.87 2:0.81 3:0.75 4:0.69 5:1 6:0.21358125 7:0 #
1000 1:0.94 2:0.88 3:0.81999999 4:0.75999999 5:0.75 6:0.20970625 7:0 #
-443.83466543117538 1:0.94499999 2:0.88499999 3:0.76499999 4:0.70499998 5:0.75 6:0.80225623 7:0 #
1000 1:0.86000001 2:0.80000001 3:0.74000001 4:0.68000001 5:1 6:0.21033125 7:0 #
-1000 1:0.95999998 2:0.89999998 3:0.77999997 4:0.72000003 5:0.75 6:0.82018125 7:0 #
-1000 1:0.97500002 2:0.91500002 3:0.85500002 4:0.73500001 5:1 6:0 7:0 #
-688.7368954129015 1:0.23999999 2:0.079999998 3:0.23999999 4:0.23999999 5:0 6:0 7:0.61435628 #
1000 1:0.93000001 2:0.87 3:0.81 4:0.75 5:0.75 6:0.19695625 7:0 #
1000 1:0.94999999 2:0.88999999 3:0.82999998 4:0.76999998 5:0.75 6:0.20965625 7:0 #
1000 1:0.95999998 2:0.89999998 3:0.83999997 4:0.77999997 5:0.75 6:0.046225 7:0 #
-1000 1:0.86500001 2:0.80500001 3:0.745 4:0.685 5:1 6:0.10400625 7:0 #
1000 1:0.95999998 2:0.89999998 3:0.83999997 4:0.77999997 5:0.75 6:0.21290626 7:0 #
1000 1:0.93000001 2:0.87 3:0.81 4:0.75 5:0.75 6:0.20010625 7:0 #
-1000 1:0.87 2:0.81 3:0.75 4:0.69 5:1 6:0.112225 7:0 #
1000 1:0.935 2:0.875 3:0.815 4:0.755 5:0.75 6:0.20970625 7:0 #
-1000 1:0.89499998 2:0.83499998 3:0.77499998 4:0.71499997 5:1 6:0 7:0 #
-276.88249078893568 1:0.38 2:0.38 3:0.14 4:0.38 5:0 6:0.20025624 7:0 #
-1000 1:0.32499999 2:0.32499999 3:0.285 4:0.32499999 5:0 6:0 7:0 #
-0.88878128450596705 1:0.87 2:0.81 3:0.75 4:0.69 5:1 6:0.20643125 7:0 #
-1000 1:0.86500001 2:0.80500001 3:0.745 4:0.685 5:1 6:0.11055625 7:0 #
1000 1:0.97500002 2:0.91500002 3:0.85500002 4:0.79500002 5:0.75 6:0.049506251 7:0 #
1000 1:0.98500001 2:0.92500001 3:0.86500001 4:0.80500001 5:0.75 6:0 7:0 #
-4.0387925591958576 1:0 2:0 3:0 4:0 5:0 6:0.03515625 7:0.02775125 #
-700.50621373340709 1:0.86000001 2:0.80000001 3:0.74000001 4:0.68000001 5:1 6:0.11055625 7:0 #
-1.6610586966116898 1:0.0049999999 2:0.0049999999 3:0.0049999999 4:0.0049999999 5:1 6:0 7:0.048511252 #
-2.4029214062029496 1:0.47999999 2:0.47999999 3:0.36000001 4:0.23999999 5:0.5 6:0 7:0.61435628 #
-0.39896294905338436 1:0.13 2:0.13 3:0 4:0 5:1 6:0 7:0.048020002 #
-0.15514142242545859 1:0.79500002 2:0.73500001 3:0.55500001 4:0.495 5:0.5 6:0 7:0.61903751 #
-0.095538703939155312 1:0.0049999999 2:0 3:0 4:0 5:1 6:0 7:0.21053125 #
-0.086909829977230402 1:0.36000001 2:0.36000001 3:0.36000001 4:0.36000001 5:0 6:0.21855626 7:0 #
-0.058391114580444992 1:0.19499999 2:0.19499999 3:0 4:0 5:1 6:0 7:0.075208336 #
-0.013120855149736599 1:0.085000001 2:0.085000001 3:0.085000001 4:0.079999998 5:1 6:0 7:0.040951248 #
-0.084758721937746959 1:0 2:0 3:0 4:0 5:0 6:0 7:0.61435628 #
-0.041998116136710451 1:0.0099999998 2:0.0099999998 3:0.0099999998 4:0.0099999998 5:1 6:0 7:0.090801246 #
-0.11007263463335448 1:0.58999997 2:0.58999997 3:0.58999997 4:0.53500003 5:0 6:0 7:0 #
-0.0043504344030225184 1:0.36000001 2:0.36000001 3:0.36000001 4:0.36000001 5:0 6:0.2209 7:0 #
-0.0015417047441133036 1:0.94 2:0.88 3:0.81999999 4:0.75999999 5:0 6:0.69251251 7:0 #
-0.018910573052083334 1:0 2:0 3:0 4:0 5:0 6:0.078400001 7:0.076765001 #
-0.013190948791361734 1:0.41 2:0.41 3:0.28999999 4:0.41 5:1 6:0 7:0 #
-0.0040690598801660371 1:0.33500001 2:0.33500001 3:0.33500001 4:0.33500001 5:1 6:0.16200624 7:0 #
-0.0095257770012722176 1:0.19 2:0.19 3:0.19 4:0.19 5:1 6:0 7:0 #
-0.068396656191907823 1:0.38 2:0.38 3:0.14 4:0.38 5:0 6:0.198025 7:0 #
-0.0023873208265285939 1:0.19 2:0.19 3:0.14 4:0.19 5:0 6:0 7:0 #
-0.00058067326608579606 1:0.41 2:0.41 3:0.28999999 4:0.41 5:1 6:0 7:0 #
-0.0017342152241326403 1:0.105 2:0.105 3:0.029999999 4:0.105 5:0 6:0 7:0.065268748 #
