SVM-light Version V6.02
0 # kernel type
3 # kernel parameter -d 
1 # kernel parameter -g 
1 # kernel parameter -s 
1 # kernel parameter -r 
empty# kernel parameter -u 
7 # highest feature index 
27592 # number of training documents 
1484 # number of support vectors plus 1 
0.9998332 # threshold b, each following line is a SV (starting with alpha*y)
1000 1:0.93000001 2:0.87 3:0.81 4:0.75 5:0.75 6:0.077006251 7:0 #
1000 1:0.11 2:0.11 3:0.0099999998 4:0.11 5:0.75 6:0 7:0.39495626 #
-1000 1:0 2:0 3:0 4:0 5:0 6:0 7:0.83735627 #
1000 1:0.17 2:0.17 3:0.050000001 4:0 5:0.75 6:0 7:0.44895625 #
-1000 1:0.97500002 2:0.91500002 3:0.85500002 4:0.79500002 5:1 6:0.65216249 7:0 #
1000 1:0 2:0 3:0 4:0 5:0 6:0 7:0.83735627 #
1000 1:0.83999997 2:0.77999997 3:0.66000003 4:0.60000002 5:1 6:0.096100003 7:0 #
-1000 1:0.98500001 2:0.92500001 3:0.86500001 4:0.80500001 5:1 6:0.5097875 7:0 #
1000 1:0.97500002 2:0.91500002 3:0.85500002 4:0.79500002 5:1 6:0.65216249 7:0 #
-1000 1:0.0049999999 2:0.0049999999 3:0.0049999999 4:0.0049999999 5:1 6:0 7:0.19443125 #
-1000 1:0.38499999 2:0.33000001 3:0.22499999 4:0.38499999 5:0 6:0.41410625 7:0 #
-1000 1:0.96499997 2:0.90499997 3:0.78500003 4:0.72500002 5:1 6:0.32153124 7:0 #
1000 1:0.155 2:0.155 3:0.155 4:0.155 5:0 6:0 7:0.20843124 #
-1000 1:0.12 2:0.12 3:0.12 4:0.12 5:0.5 6:0 7:0.77739376 #
-1000 1:0.97000003 2:0.91000003 3:0.85000002 4:0.79000002 5:0.75 6:0.75722498 7:0 #
-1000 1:0.98500001 2:0.92500001 3:0.86500001 4:0.80500001 5:1 6:0.5097875 7:0 #
1000 1:0.93000001 2:0.87 3:0.81 4:0.75 5:0 6:0.4767625 7:0 #
1000 1:0.36000001 2:0.36000001 3:0.36000001 4:0.23999999 5:1 6:0.282125 7:0 #
-1000 1:0.175 2:0.175 3:0.175 4:0.175 5:0.5 6:0 7:0.077372499 #
1000 1:0.98000002 2:0.92000002 3:0.86000001 4:0.80000001 5:0.75 6:0.39511874 7:0 #
1000 1:0.07 2:0 3:0 4:0 5:0 6:0 7:0.072681248 #
1000 1:0.97500002 2:0.91500002 3:0.85500002 4:0.79500002 5:0.25 6:0.30094999 7:0 #
1000 1:0.95999998 2:0.89999998 3:0.83999997 4:0.77999997 5:0.25 6:0.19850001 7:0 #
1000 1:0.155 2:0.155 3:0.14 4:0.155 5:0.5 6:0 7:0.3610625 #
-1000 1:0.98500001 2:0.92500001 3:0.86500001 4:0.80500001 5:0 6:0.18062501 7:0 #
-1000 1:0.02 2:0.02 3:0.02 4:0.02 5:1 6:0 7:0.40721563 #
-1000 1:0.98500001 2:0.92500001 3:0.86500001 4:0.80500001 5:0 6:0.392225 7:0 #
-1000 1:0.5 2:0.5 3:0.5 4:0.5 5:0 6:0 7:0.52721876 #
1000 1:0.16500001 2:0.16500001 3:0.16500001 4:0.16500001 5:1 6:0.2244125 7:0.042539064 #
1000 1:0.98500001 2:0.92500001 3:0.86500001 4:0.80500001 5:0.5 6:0.64646876 7:0 #
-1000 1:0.98000002 2:0.92000002 3:0.86000001 4:0.80000001 5:0 6:0.45215625 7:0 #
1000 1:0.07 2:0.07 3:0.07 4:0.07 5:1 6:0 7:0.40080625 #
1000 1:0.755 2:0.69499999 3:0.57499999 4:0.51499999 5:1 6:0.084100001 7:0 #
-1000 1:0.98000002 2:0.92000002 3:0.86000001 4:0.80000001 5:0 6:0.22280625 7:0 #
-1000 1:0.93000001 2:0.87 3:0.81 4:0.75 5:0 6:0.60660625 7:0 #
1000 1:0.98000002 2:0.89999998 3:0.83999997 4:0.77999997 5:0.25 6:0.71272498 7:0 #
1000 1:0.0099999998 2:0.0099999998 3:0.0099999998 4:0.0099999998 5:0.75 6:0 7:0.12468125 #
1000 1:0.93000001 2:0.87 3:0.81 4:0.75 5:0 6:0.46496251 7:0 #
-1000 1:0.98000002 2:0.92000002 3:0.86000001 4:0.77999997 5:0.75 6:0.33212501 7:0 #
-1000 1:0.95999998 2:0.89999998 3:0.83999997 4:0.72000003 5:1 6:0 7:0 #
1000 1:0.98000002 2:0.92000002 3:0.86000001 4:0.74000001 5:1 6:0.61658752 7:0 #
1000 1:0.98500001 2:0.92500001 3:0.86500001 4:0.80500001 5:1 6:0.45155001 7:0 #
-1000 1:0.039999999 2:0.039999999 3:0.039999999 4:0.039999999 5:0.75 6:0 7:0.12921041 #
1000 1:0.94499999 2:0.86500001 3:0.80500001 4:0.685 5:1 6:0.6766125 7:0 #
-768.32403810168262 1:0.32499999 2:0.32499999 3:0.27000001 4:0.32499999 5:0 6:0.42895624 7:0 #
1000 1:0.155 2:0.155 3:0.155 4:0.155 5:0.5 6:0 7:0.3887125 #
-1000 1:0.1 2:0.1 3:0.029999999 4:0.039999999 5:1 6:0 7:0.1917125 #
1000 1:0 2:0 3:0 4:0 5:0 6:0 7:0.61645627 #
1000 1:0.97500002 2:0.89499998 3:0.83499998 4:0.71499997 5:0.5 6:0 7:0 #
1000 1:0.16500001 2:0.16500001 3:0.16500001 4:0.14 5:1 6:0.26185 7:0 #
1000 1:0.36000001 2:0.36000001 3:0.36000001 4:0.23999999 5:1 6:0.26185 7:0 #
-1000 1:0.78500003 2:0.72500002 3:0.54500002 4:0.48500001 5:0 6:0 7:0.52721876 #
1000 1:0.064999998 2:0.064999998 3:0.064999998 4:0.064999998 5:0.5 6:0 7:0.33258438 #
-1000 1:0.07 2:0.07 3:0.07 4:0.07 5:0 6:0 7:0.29842812 #
-1000 1:0.94499999 2:0.86500001 3:0.80500001 4:0.745 5:0.25 6:0.66962498 7:0 #
-1000 1:0.98500001 2:0.92500001 3:0.86500001 4:0.80500001 5:1 6:0.47598749 7:0 #
-1000 1:0.85000002 2:0.79000002 3:0.73000002 4:0.61000001 5:0 6:0.81274372 7:0 #
1000 1:0.39500001 2:0.27500001 3:0.235 4:0.39500001 5:0 6:0.46560624 7:0 #
-1000 1:0.97500002 2:0.91500002 3:0.85500002 4:0.79500002 5:0.75 6:0.38975 7:0 #
-1000 1:0.39500001 2:0.27500001 3:0.235 4:0.39500001 5:0 6:0.4952625 7:0 #
1000 1:0.0049999999 2:0.0049999999 3:0.0049999999 4:0.0049999999 5:1 6:0.21390624 7:0.085078128 #
-1000 1:0.235 2:0.235 3:0.235 4:0.235 5:0.25 6:0 7:0.047045 #
-1000 1:0.80000001 2:0.74000001 3:0.62 4:0.56 5:1 6:0 7:0.1346 #
1000 1:0 2:0 3:0 4:0 5:0 6:0 7:0.4082 #
-1000 1:0.07 2:0.07 3:0.07 4:0.07 5:1 6:0 7:0.40080625 #
1000 1:0.80500001 2:0.745 3:0.625 4:0.565 5:1 6:0.09150625 7:0 #
-1000 1:0.07 2:0.015 3:0.07 4:0.07 5:1 6:0 7:0.26720417 #
-1000 1:0.064999998 2:0.064999998 3:0.064999998 4:0.064999998 5:1 6:0 7:0.40721563 #
1000 1:0.094999999 2:0.075000003 3:0 4:0 5:0 6:0 7:0.38931251 #
-1000 1:0.055 2:0.055 3:0.055 4:0.055 5:0 6:0 7:0.081122503 #
-1000 1:0.49000001 2:0.435 3:0.49000001 4:0.49000001 5:0 6:0.15015624 7:0 #
-1000 1:0 2:0 3:0 4:0 5:0 6:0 7:0.48406875 #
-946.80470836999893 1:0.17 2:0.02 3:0.17 4:0.17 5:0 6:0 7:0.03362 #
1000 1:0.23999999 2:0.23999999 3:0.23999999 4:0.23999999 5:0.75 6:0 7:0 #
-1000 1:0.0099999998 2:0.0099999998 3:0.0099999998 4:0.0099999998 5:1 6:0 7:0.071560003 #
-1000 1:0.0099999998 2:0.0099999998 3:0.0099999998 4:0.0099999998 5:1 6:0 7:0.076521248 #
1000 1:0.98000002 2:0.92000002 3:0.86000001 4:0.80000001 5:1 6:0.446675 7:0 #
1000 1:0.23999999 2:0.215 3:0.094999999 4:0.094999999 5:1 6:0 7:0.089462496 #
-1000 1:0.0099999998 2:0.0099999998 3:0.0099999998 4:0.0099999998 5:1 6:0 7:0.12941563 #
1000 1:0.97000003 2:0.88999999 3:0.82999998 4:0.70999998 5:0.5 6:0.36936876 7:0 #
1000 1:0.97000003 2:0.91000003 3:0.85000002 4:0.79000002 5:0.25 6:0.29621875 7:0 #
-1000 1:0.5 2:0.38 3:0.5 4:0.5 5:0 6:0 7:0.52721876 #
-1000 1:0.98000002 2:0.89999998 3:0.83999997 4:0.77999997 5:0.25 6:0.71272498 7:0 #
-1000 1:0.13500001 2:0.13500001 3:0.13500001 4:0.13500001 5:0.75 6:0 7:0.08457125 #
-1000 1:0.98000002 2:0.92000002 3:0.86000001 4:0.74000001 5:1 6:0.61658752 7:0 #
1000 1:0.79000002 2:0.73000002 3:0.61000001 4:0.55000001 5:1 6:0.088506252 7:0 #
-1000 1:0.0099999998 2:0.0099999998 3:0.0099999998 4:0.0099999998 5:0.75 6:0 7:0.045125 #
1000 1:0 2:0 3:0 4:0 5:0 6:0 7:0.62340623 #
-1000 1:0.96499997 2:0.90499997 3:0.84500003 4:0.78500003 5:1 6:0.28953126 7:0 #
-1000 1:0.91000003 2:0.85000002 3:0.79000002 4:0.73000002 5:0.75 6:0.087025002 7:0 #
1000 1:0.98500001 2:0.92500001 3:0.80500001 4:0.745 5:0.5 6:0.65806252 7:0 #
-1000 1:0.0099999998 2:0 3:0 4:0 5:1 6:0 7:0.082361251 #
1000 1:0.935 2:0.875 3:0.815 4:0.69499999 5:1 6:0.48706251 7:0 #
-1000 1:0.55000001 2:0.495 3:0.43000001 4:0.43000001 5:0.75 6:0.12075625 7:0 #
1000 1:0.95499998 2:0.89499998 3:0.83499998 4:0.77499998 5:0.5 6:0.43306249 7:0 #
1000 1:0.12 2:0 3:0 4:0 5:0 6:0 7:0.66516876 #
1000 1:0.98500001 2:0.84500003 3:0.78500003 4:0.72500002 5:0.75 6:0 7:0 #
-1000 1:0.93000001 2:0.87 3:0.81 4:0.75 5:1 6:0.33921874 7:0 #
1000 1:0.97000003 2:0.91000003 3:0.85000002 4:0.79000002 5:0.75 6:0.75722498 7:0 #
1000 1:0.75999999 2:0.69999999 3:0.57999998 4:0.51999998 5:1 6:0.084100001 7:0 #
-1000 1:0.98500001 2:0.92500001 3:0.86500001 4:0.80500001 5:0.5 6:0.64646876 7:0 #
-999.95771979510027 1:0.16 2:0.039999999 3:0.039999999 4:0.039999999 5:0.75 6:0 7:0.032805 #
1000 1:0.30500001 2:0.30500001 3:0.30500001 4:0.30500001 5:0 6:0 7:0 #
-1000 1:0.23999999 2:0.23999999 3:0.23999999 4:0.23999999 5:0.5 6:0 7:0 #
-996.02908855154237 1:0.70999998 2:0.55000001 3:0.50999999 4:0.50999999 5:1 6:0 7:0 #
-592.65893535563373 1:0.064999998 2:0.064999998 3:0.02 4:0.02 5:0 6:0 7:0.092591248 #
1000 1:0.84500003 2:0.78500003 3:0.66500002 4:0.60500002 5:1 6:0.09765625 7:0 #
1000 1:0.13500001 2:0.13500001 3:0.13500001 4:0.13500001 5:1 6:0 7:0.26365939 #
1000 1:0.26499999 2:0.105 3:0 4:0 5:0.75 6:0 7:0.26361251 #
1000 1:0.98000002 2:0.89999998 3:0.83999997 4:0.72000003 5:0.5 6:0.38532501 7:0 #
1000 1:0.97500002 2:0.91500002 3:0.85500002 4:0.73500001 5:1 6:0.60980624 7:0 #
1000 1:0.98000002 2:0.92000002 3:0.86000001 4:0.80000001 5:0.25 6:0.30094999 7:0 #
-1000 1:0 2:0 3:0 4:0 5:0 6:0 7:0.83735627 #
1000 1:0.29499999 2:0.29499999 3:0.29499999 4:0.29499999 5:0 6:0 7:0 #
-1000 1:0.39500001 2:0.27500001 3:0.235 4:0.39500001 5:0 6:0.48925626 7:0 #
1000 1:0 2:0 3:0 4:0 5:0 6:0 7:0.83735627 #
1000 1:0.97500002 2:0.89499998 3:0.83499998 4:0.71499997 5:0.5 6:0.37465 7:0 #
-1000 1:0.12 2:0 3:0 4:0 5:0 6:0 7:0.66516876 #
1000 1:0.93000001 2:0.87 3:0.81 4:0.75 5:0 6:0.6044625 7:0 #
-1000 1:0.105 2:0.105 3:0.105 4:0.105 5:0 6:0 7:0.089957811 #
1000 1:0.97000003 2:0.91000003 3:0.85000002 4:0.79000002 5:0.5 6:0.42531249 7:0 #
-1000 1:0 2:0 3:0 4:0 5:0 6:0 7:0.40023124 #
1000 1:0.94 2:0.88 3:0.81999999 4:0.69999999 5:1 6:0.49305624 7:0 #
-1000 1:0.0049999999 2:0.0049999999 3:0.0049999999 4:0.0049999999 5:1 6:0 7:0.097215623 #
1000 1:0.98000002 2:0.92000002 3:0.80000001 4:0.74000001 5:0.75 6:0.62575001 7:0 #
1000 1:0 2:0 3:0 4:0 5:0 6:0 7:0.83735627 #
-1000 1:0.97500002 2:0.91500002 3:0.85500002 4:0.73500001 5:0.75 6:0.2025 7:0 #
-1000 1:0.97500002 2:0.89499998 3:0.83499998 4:0.77499998 5:0.25 6:0.70434999 7:0 #
-1000 1:0.95499998 2:0.89499998 3:0.83499998 4:0.77499998 5:1 6:0 7:0 #
1000 1:0.315 2:0.315 3:0.315 4:0.315 5:0 6:0 7:0 #
-999.99907403593534 1:0.98500001 2:0.90499997 3:0.84500003 4:0.78500003 5:0.25 6:0.71622503 7:0 #
1000 1:0.86000001 2:0.80000001 3:0.74000001 4:0.68000001 5:1 6:0.1655125 7:0 #
-1000 1:0.22 2:0.16 3:0.16 4:0.039999999 5:0.25 6:0 7:0.029645 #
-1000 1:0.93000001 2:0.87 3:0.81 4:0.75 5:0.75 6:0.19140625 7:0 #
1000 1:0.98500001 2:0.92500001 3:0.86500001 4:0.80500001 5:0.25 6:0.30571875 7:0 #
1000 1:0 2:0 3:0 4:0 5:0 6:0 7:0.42558125 #
1000 1:0.78500003 2:0.72500002 3:0.60500002 4:0.54500002 5:1 6:0.088506252 7:0 #
1000 1:0.93000001 2:0.87 3:0.81 4:0.75 5:1 6:0.1433125 7:0 #
-1000 1:0.98500001 2:0.90499997 3:0.84500003 4:0.72500002 5:0 6:0.43538749 7:0 #
1000 1:0.0049999999 2:0.0049999999 3:0.0049999999 4:0.0049999999 5:1 6:0.2209 7:0.085078128 #
-1000 1:0.35499999 2:0.35499999 3:0.30000001 4:0.35499999 5:0 6:0.42136249 7:0 #
1000 1:0.5 2:0.5 3:0.5 4:0.5 5:0 6:0 7:0.52721876 #
1000 1:0.0049999999 2:0.0049999999 3:0.0049999999 4:0.0049999999 5:1 6:0.216225 7:0.085078128 #
1000 1:0.93000001 2:0.87 3:0.81 4:0.75 5:0 6:0.60660625 7:0 #
-1000 1:0.090000004 2:0.090000004 3:0.090000004 4:0.090000004 5:0 6:0 7:0.066046253 #
-1000 1:0.95999998 2:0.89999998 3:0.72000003 4:0.66000003 5:1 6:0.12780625 7:0 #
-1000 1:0.94 2:0.86000001 3:0.80000001 4:0.68000001 5:1 6:0.6766125 7:0 #
1000 1:0.145 2:0.145 3:0.145 4:0.145 5:1 6:0 7:0.10294375 #
-1000 1:0.95499998 2:0.89499998 3:0.83499998 4:0.71499997 5:1 6:0 7:0 #
-1000 1:0 2:0 3:0 4:0 5:0 6:0 7:0.83735627 #
1000 1:0.98000002 2:0.92000002 3:0.86000001 4:0.80000001 5:0.5 6:0.44712499 7:0 #
-1000 1:0.285 2:0.285 3:0.285 4:0.285 5:0 6:0.16605625 7:0 #
-1000 1:0.94 2:0.88 3:0.81999999 4:0.75999999 5:1 6:0.2836 7:0 #
-1000 1:0.97000003 2:0.91000003 3:0.85000002 4:0.79000002 5:1 6:0 7:0 #
1000 1:0.92000002 2:0.86000001 3:0.80000001 4:0.68000001 5:1 6:0.46375626 7:0 #
-1000 1:0.97000003 2:0.91000003 3:0.85000002 4:0.79000002 5:1 6:0.65216249 7:0 #
-1000 1:0.94 2:0.88 3:0.75999999 4:0.69999999 5:0.75 6:0.79667503 7:0 #
-1000 1:0.76499999 2:0.70499998 3:0.52499998 4:0.465 5:1 6:0 7:0.13326125 #
1000 1:0.89499998 2:0.83499998 3:0.71499997 4:0.65499997 5:0.75 6:0.47778124 7:0 #
-1000 1:0.77499998 2:0.71499997 3:0.53500003 4:0.47499999 5:0 6:0 7:0.53136873 #
1000 1:0.96499997 2:0.88499999 3:0.82499999 4:0.70499998 5:0.5 6:0.35891876 7:0 #
1000 1:0.97500002 2:0.91500002 3:0.85500002 4:0.79500002 5:0.25 6:0.49166876 7:0 #
1000 1:0.97000003 2:0.91000003 3:0.85000002 4:0.79000002 5:0.75 6:0.44652501 7:0 #
-1000 1:0.025 2:0.025 3:0.025 4:0.025 5:0.5 6:0 7:0.27645937 #
-1000 1:0.094999999 2:0.075000003 3:0 4:0 5:0 6:0 7:0.38931251 #
-1000 1:0.98500001 2:0.92500001 3:0.80500001 4:0.745 5:0.5 6:0.65806252 7:0 #
1000 1:0.94999999 2:0.87 3:0.81 4:0.69 5:1 6:0.68486249 7:0 #
-1000 1:0.5 2:0.5 3:0.5 4:0.5 5:0 6:0 7:0.52721876 #
1000 1:0.93000001 2:0.87 3:0.81 4:0.75 5:1 6:0.37496251 7:0 #
1000 1:0.75999999 2:0.69999999 3:0.57999998 4:0.51999998 5:1 6:0.18265 7:0 #
1000 1:0.93000001 2:0.85000002 3:0.79000002 4:0.67000002 5:1 6:0.66841251 7:0 #
-1000 1:0.079999998 2:0.079999998 3:0.079999998 4:0.079999998 5:0.25 6:0 7:0.26855314 #
-1000 1:0.97500002 2:0.91500002 3:0.85500002 4:0.79500002 5:0.75 6:0.76147503 7:0 #
-1000 1:0.98000002 2:0.92000002 3:0.86000001 4:0.80000001 5:0.5 6:0.36702499 7:0 #
1000 1:0.98500001 2:0.92500001 3:0.86500001 4:0.80500001 5:0.75 6:0.20010625 7:0 #
-1000 1:0.96499997 2:0.90499997 3:0.72500002 4:0.66500002 5:1 6:0.12780625 7:0 #
-1000 1:0.98500001 2:0.92500001 3:0.86500001 4:0.80500001 5:0 6:0.45918125 7:0 #
1000 1:0 2:0 3:0 4:0 5:0 6:0 7:0.83735627 #
1000 1:0 2:0 3:0 4:0 5:0 6:0 7:0.4082 #
-1000 1:0.96499997 2:0.90499997 3:0.84500003 4:0.72500002 5:1 6:0 7:0 #
1000 1:0.97500002 2:0.91500002 3:0.85500002 4:0.79500002 5:1 6:0.44101876 7:0 #
1000 1:0.25999999 2:0.235 3:0.115 4:0.115 5:1 6:0 7:0.085722499 #
-999.99716769088991 1:0.95499998 2:0.815 3:0.755 4:0.69499999 5:1 6:0 7:0 #
1000 1:0.29499999 2:0.29499999 3:0.23 4:0.29499999 5:1 6:0.18705624 7:0 #
1000 1:0.064999998 2:0.064999998 3:0.064999998 4:0.064999998 5:1 6:0 7:0.29679376 #
-1000 1:0.98500001 2:0.92500001 3:0.86500001 4:0.745 5:1 6:0.61658752 7:0 #
-1000 1:0.07 2:0.07 3:0.07 4:0.07 5:0 6:0 7:0.29842812 #
-1000 1:0.98000002 2:0.92000002 3:0.86000001 4:0.80000001 5:1 6:0.66026253 7:0 #
-1000 1:0.90499997 2:0.84500003 3:0.72500002 4:0.66500002 5:1 6:0.112225 7:0 #
1000 1:0.345 2:0.28999999 3:0.28999999 4:0.28999999 5:0 6:0.42946249 7:0 #
-1000 1:0 2:0 3:0 4:0 5:0 6:0 7:0.83735627 #
-1000 1:0.39500001 2:0.27500001 3:0.235 4:0.39500001 5:0 6:0.4952625 7:0 #
-1000 1:0.97500002 2:0.91500002 3:0.85500002 4:0.73500001 5:1 6:0.60980624 7:0 #
-1000 1:0 2:0 3:0 4:0 5:0 6:0 7:0.83735627 #
1000 1:0.0099999998 2:0.0099999998 3:0.0099999998 4:0.0099999998 5:0.75 6:0 7:0.20682916 #
-1000 1:0.36500001 2:0.31 3:0.205 4:0.36500001 5:0 6:0.41890624 7:0 #
-1000 1:0.98500001 2:0.92500001 3:0.86500001 4:0.745 5:1 6:0.14630625 7:0 #
1000 1:0 2:0 3:0 4:0 5:0 6:0 7:0.83735627 #
1000 1:0.93000001 2:0.87 3:0.81 4:0.75 5:0 6:0.47205624 7:0 #
-999.9993012033907 1:0.98500001 2:0.90499997 3:0.84500003 4:0.72500002 5:0 6:0.46435624 7:0 #
1000 1:0.07 2:0.07 3:0.07 4:0.07 5:1 6:0 7:0.12287125 #
-1000 1:0.94499999 2:0.86500001 3:0.80500001 4:0.685 5:1 6:0.6766125 7:0 #
1000 1:0.69 2:0.63 3:0.56999999 4:0.49000001 5:1 6:0 7:0.1603225 #
1000 1:0.075000003 2:0.075000003 3:0.075000003 4:0.075000003 5:1 6:0 7:0.1160725 #
1000 1:0.98000002 2:0.92000002 3:0.86000001 4:0.80000001 5:0.5 6:0.15405625 7:0 #
1000 1:0.96499997 2:0.90499997 3:0.84500003 4:0.78500003 5:0.75 6:0.74855 7:0 #
1000 1:0.94 2:0.80000001 3:0.74000001 4:0.68000001 5:0.75 6:0 7:0 #
-1000 1:0 2:0 3:0 4:0 5:0 6:0 7:0.83735627 #
-1000 1:0.07 2:0.07 3:0.07 4:0.07 5:0 6:0 7:0.29842812 #
-1000 1:0.38499999 2:0.33000001 3:0.22499999 4:0.38499999 5:0 6:0.41410625 7:0 #
1000 1:0 2:0 3:0 4:0 5:0 6:0 7:0.83735627 #
-1000 1:0.98500001 2:0.92500001 3:0.86500001 4:0.80500001 5:0.75 6:0.16402499 7:0 #
1000 1:0.98500001 2:0.92500001 3:0.80500001 4:0.745 5:0.75 6:0.4165 7:0 #
-1000 1:0.91000003 2:0.85000002 3:0.79000002 4:0.67000002 5:1 6:0.63436252 7:0 #
1000 1:0.94 2:0.88 3:0.81999999 4:0.75999999 5:0.5 6:0.75767499 7:0 #
1000 1:0.98500001 2:0.92500001 3:0.84500003 4:0.78500003 5:0.75 6:0 7:0 #
1000 1:0.935 2:0.875 3:0.815 4:0.755 5:0.75 6:0.45186251 7:0 #
1000 1:0.27500001 2:0.27500001 3:0.27500001 4:0.27500001 5:1 6:0.15602501 7:0 #
1000 1:0.94499999 2:0.88499999 3:0.82499999 4:0.76499999 5:0.5 6:0.75767499 7:0 #
-1000 1:0.0099999998 2:0.0099999998 3:0.0099999998 4:0.0099999998 5:0.75 6:0 7:0.048020002 #
1000 1:0.93000001 2:0.81 3:0.75 4:0.69 5:1 6:0.074256249 7:0 #
1000 1:0.97000003 2:0.91000003 3:0.79000002 4:0.73000002 5:0.75 6:0.61891878 7:0 #
-1000 1:0.039999999 2:0 3:0 4:0 5:0 6:0 7:0.1035125 #
-1000 1:0.94499999 2:0.88499999 3:0.82499999 4:0.76499999 5:0.5 6:0.42842501 7:0 #
-1000 1:0.97500002 2:0.91500002 3:0.85500002 4:0.77499998 5:0.75 6:0.3280625 7:0 #
1000 1:0.93000001 2:0.87 3:0.81 4:0.75 5:0.75 6:0.082656249 7:0 #
1000 1:0.155 2:0.155 3:0.155 4:0.155 5:0.5 6:0 7:0.3887125 #
-1000 1:0.98500001 2:0.92500001 3:0.86500001 4:0.80500001 5:0.5 6:0.44292501 7:0 #
1000 1:0 2:0 3:0 4:0 5:0 6:0 7:0.62048751 #
1000 1:0.88499999 2:0.82499999 3:0.70499998 4:0.64499998 5:0.75 6:0.71546251 7:0 #
1000 1:0.93000001 2:0.87 3:0.81 4:0.75 5:1 6:0.36915001 7:0 #
1000 1:0.175 2:0.175 3:0.175 4:0.175 5:1 6:0 7:0.095643751 #
-1000 1:0.45500001 2:0.45500001 3:0.45500001 4:0.38999999 5:1 6:0 7:0.14687656 #
-1000 1:0.96499997 2:0.90499997 3:0.84500003 4:0.78500003 5:0.25 6:0.48302501 7:0 #
-1000 1:0.82999998 2:0.76999998 3:0.70999998 4:0.64999998 5:1 6:0.53436249 7:0 #
1000 1:0.98000002 2:0.92000002 3:0.86000001 4:0.80000001 5:0.75 6:0.057599999 7:0 #
-995.50996776856482 1:0.94 2:0.86000001 3:0.80000001 4:0.68000001 5:1 6:0.6766125 7:0 #
1000 1:0.015 2:0.015 3:0.015 4:0.015 5:0.75 6:0 7:0.10544375 #
-1000 1:0.98500001 2:0.92500001 3:0.86500001 4:0.80500001 5:1 6:0.47598749 7:0 #
-1000 1:0.98500001 2:0.92500001 3:0.86500001 4:0.80500001 5:0.5 6:0 7:0 #
1000 1:0.98500001 2:0.90499997 3:0.84500003 4:0.78500003 5:0.25 6:0.71622503 7:0 #
1000 1:0.98500001 2:0.92500001 3:0.86500001 4:0.80500001 5:0.75 6:0 7:0 #
1000 1:0 2:0 3:0 4:0 5:0 6:0 7:0.83735627 #
-1000 1:0.98000002 2:0.92000002 3:0.86000001 4:0.80000001 5:0.75 6:0.77022499 7:0 #
-1000 1:0.97000003 2:0.91000003 3:0.85000002 4:0.73000002 5:1 6:0.60980624 7:0 #
1000 1:0.85000002 2:0.79000002 3:0.73000002 4:0.61000001 5:0 6:0.81274372 7:0 #
1000 1:0.92000002 2:0.86000001 3:0.80000001 4:0.74000001 5:0.75 6:0.067599997 7:0 #
1000 1:0.28 2:0.255 3:0.13500001 4:0.13500001 5:1 6:0 7:0.082062498 #
1000 1:0.97500002 2:0.91500002 3:0.85500002 4:0.79500002 5:0.75 6:0.76147503 7:0 #
1000 1:0.98000002 2:0.92000002 3:0.86000001 4:0.80000001 5:1 6:0.66026253 7:0 #
-1000 1:0.98000002 2:0.92000002 3:0.86000001 4:0.80000001 5:0.5 6:0.64646876 7:0 #
1000 1:0.96499997 2:0.90499997 3:0.84500003 4:0.78500003 5:0.5 6:0.63261873 7:0 #
1000 1:0.19499999 2:0.075000003 3:0.19499999 4:0.19499999 5:0 6:0 7:0.38931251 #
1000 1:0.98500001 2:0.92500001 3:0.86500001 4:0.80500001 5:0.5 6:0.15602501 7:0 #
-1000 1:0.81 2:0.75 3:0.69 4:0.61000001 5:1 6:0 7:0.19976875 #
-1000 1:0.075000003 2:0.075000003 3:0.075000003 4:0.075000003 5:0.75 6:0 7:0.041861251 #
1000 1:0.5 2:0.5 3:0.5 4:0.495 5:0 6:0 7:0.52721876 #
1000 1:0.33500001 2:0.28 3:0.28 4:0.33500001 5:0 6:0.43200624 7:0 #
1000 1:0.98500001 2:0.92500001 3:0.86500001 4:0.80500001 5:0.75 6:0.585325 7:0 #
1000 1:0.285 2:0.285 3:0.285 4:0.285 5:1 6:0.26138124 7:0 #
1000 1:0 2:0 3:0 4:0 5:0 6:0 7:0.83735627 #
-1000 1:0.98500001 2:0.90499997 3:0.84500003 4:0.72500002 5:0 6:0.46435624 7:0 #
-1000 1:0.5 2:0.5 3:0.5 4:0.5 5:0 6:0 7:0.52721876 #
1000 1:0.97500002 2:0.83499998 3:0.77499998 4:0.71499997 5:0.75 6:0 7:0 #
-1000 1:0.97000003 2:0.91000003 3:0.85000002 4:0.79000002 5:1 6:0.65216249 7:0 #
1000 1:0 2:0 3:0 4:0 5:0 6:0 7:0.083882503 #
-1000 1:0 2:0 3:0 4:0 5:0 6:0 7:0.83735627 #
1000 1:0.26499999 2:0.105 3:0 4:0 5:0.75 6:0 7:0.2709125 #
-1000 1:0.97000003 2:0.91000003 3:0.85000002 4:0.79000002 5:0.25 6:0.48891875 7:0 #
-1000 1:0.93000001 2:0.87 3:0.81 4:0.75 5:0.25 6:0.45546874 7:0 #
1000 1:0.11 2:0.11 3:0.0099999998 4:0.11 5:0.75 6:0 7:0.39495626 #
1000 1:0.76499999 2:0.70499998 3:0.58499998 4:0.52499998 5:1 6:0.085556246 7:0 #
-1000 1:0.0099999998 2:0.0099999998 3:0.0099999998 4:0.0099999998 5:0.75 6:0 7:0.047045 #
-1000 1:0.20999999 2:0.20999999 3:0.20999999 4:0.20999999 5:0.25 6:0 7:0.106 #
-1000 1:0.94 2:0.88 3:0.81999999 4:0.75999999 5:1 6:0.38506249 7:0 #
-1000 1:0.98500001 2:0.90499997 3:0.84500003 4:0.72500002 5:0.5 6:0.55234373 7:0 #
1000 1:0.93000001 2:0.87 3:0.81 4:0.75 5:0 6:0.47056249 7:0 #
-965.16501041095398 1:0.62 2:0.5 3:0.38 4:0.25999999 5:0.75 6:0 7:0 #
1000 1:0.98500001 2:0.92500001 3:0.86500001 4:0.80500001 5:0.5 6:0.44712499 7:0 #
-1000 1:0.89499998 2:0.83499998 3:0.71499997 4:0.65499997 5:0.75 6:0.47778124 7:0 #
1000 1:0.98500001 2:0.92500001 3:0.86500001 4:0.80500001 5:0.25 6:0.50045002 7:0 #
1000 1:0.85000002 2:0.79000002 3:0.67000002 4:0.61000001 5:1 6:0.09765625 7:0 #
-1000 1:0.935 2:0.875 3:0.815 4:0.755 5:0.25 6:0.45791876 7:0 #
-1000 1:0.98500001 2:0.92500001 3:0.86500001 4:0.80500001 5:0.5 6:0.47415 7:0 #
1000 1:0.98500001 2:0.92500001 3:0.86500001 4:0.80500001 5:0.75 6:0.39946875 7:0 #
1000 1:0.93000001 2:0.87 3:0.81 4:0.75 5:0 6:0.46910626 7:0 #
-1000 1:0.059999999 2:0.059999999 3:0.059999999 4:0.035 5:0.75 6:0 7:0.070649996 #
-1000 1:0.98500001 2:0.92500001 3:0.86500001 4:0.745 5:0.75 6:0.20475625 7:0 #
-1000 1:0.98500001 2:0.92500001 3:0.86500001 4:0.745 5:0.75 6:0.20475625 7:0 #
-1000 1:0.87 2:0.81 3:0.75 4:0.69 5:1 6:0.2395625 7:0 #
-1000 1:0.98500001 2:0.90499997 3:0.84500003 4:0.72500002 5:0.5 6:0.55234373 7:0 #
-1000 1:0.33500001 2:0.33500001 3:0.28 4:0.33500001 5:0 6:0.42638749 7:0 #
1000 1:0.175 2:0.175 3:0.155 4:0.175 5:0.5 6:0 7:0.077862501 #
-1000 1:0.98500001 2:0.92500001 3:0.86500001 4:0.80500001 5:0.75 6:0.60863751 7:0 #
1000 1:0.93000001 2:0.87 3:0.81 4:0.75 5:0 6:0.46768749 7:0 #
1000 1:0.93000001 2:0.87 3:0.81 4:0.75 5:0 6:0.46630624 7:0 #
-723.73143573829793 1:0.98500001 2:0.92500001 3:0.84500003 4:0.78500003 5:1 6:0 7:0 #
-1000 1:0.94499999 2:0.88499999 3:0.82499999 4:0.76499999 5:1 6:0.198025 7:0 #
1000 1:0.98500001 2:0.92500001 3:0.86500001 4:0.80500001 5:0.75 6:0.058806252 7:0 #
1000 1:0.97500002 2:0.91500002 3:0.85500002 4:0.79500002 5:0.75 6:0.057599999 7:0 #
1000 1:0.98500001 2:0.90499997 3:0.84500003 4:0.72500002 5:0.5 6:0.39071876 7:0 #
-1000 1:0.89499998 2:0.83499998 3:0.65499997 4:0.59500003 5:1 6:0.22131249 7:0 #
-1000 1:0.97500002 2:0.91500002 3:0.85500002 4:0.79500002 5:0.5 6:0.42531249 7:0 #
-1000 1:0.19499999 2:0.075000003 3:0.19499999 4:0.19499999 5:0 6:0 7:0.38931251 #
1000 1:0.88 2:0.81999999 3:0.75999999 4:0.69999999 5:0.5 6:0.10080625 7:0 #
-1000 1:0.57499999 2:0.57499999 3:0.51999998 4:0.40000001 5:0.5 6:0.18062501 7:0 #
-1000 1:0.98500001 2:0.92500001 3:0.80500001 4:0.745 5:0.75 6:0.4165 7:0 #
1000 1:0.94499999 2:0.88499999 3:0.82499999 4:0.76499999 5:0.25 6:0.19536249 7:0 #
-1000 1:0.094999999 2:0.075000003 3:0 4:0 5:0 6:0 7:0.38931251 #
-1000 1:0.115 2:0.115 3:0 4:0 5:1 6:0 7:0.063802086 #
1000 1:0.94999999 2:0.88999999 3:0.82999998 4:0.76999998 5:0.25 6:0.19536249 7:0 #
-1000 1:0.98500001 2:0.92500001 3:0.86500001 4:0.80500001 5:0.75 6:0.26108125 7:0 #
-1000 1:0.5 2:0.5 3:0.5 4:0.495 5:0 6:0 7:0.52721876 #
-1000 1:0.0049999999 2:0.0049999999 3:0.0049999999 4:0.0049999999 5:0.75 6:0 7:0.048511252 #
-1000 1:0.12 2:0 3:0 4:0 5:0 6:0 7:0.66516876 #
-1000 1:0.15000001 2:0.15000001 3:0.15000001 4:0.15000001 5:0.75 6:0 7:0.056641251 #
-1000 1:0.96499997 2:0.90499997 3:0.78500003 4:0.72500002 5:1 6:0.21390624 7:0 #
-1000 1:0.98500001 2:0.86500001 3:0.80500001 4:0.745 5:1 6:0.10080625 7:0 #
-1000 1:0.98000002 2:0.92000002 3:0.80000001 4:0.74000001 5:0.75 6:0.62575001 7:0 #
-1000 1:0.94 2:0.88 3:0.69999999 4:0.63999999 5:1 6:0.23825 7:0 #
-1000 1:0.94 2:0.88 3:0.69999999 4:0.63999999 5:1 6:0.23825 7:0 #
1000 1:0.98000002 2:0.83999997 3:0.77999997 4:0.72000003 5:0.75 6:0 7:0 #
1000 1:0.27500001 2:0.235 3:0.27500001 4:0.27500001 5:0 6:0.23280625 7:0 #
-1000 1:0 2:0 3:0 4:0 5:0 6:0 7:0.34088126 #
-1000 1:0.97000003 2:0.91000003 3:0.85000002 4:0.79000002 5:0.75 6:0 7:0 #
1000 1:0.97500002 2:0.91500002 3:0.85500002 4:0.79500002 5:0.5 6:0.15015624 7:0 #
1000 1:0.85000002 2:0.79000002 3:0.73000002 4:0.67000002 5:1 6:0 7:0 #
-1000 1:0 2:0 3:0 4:0 5:0 6:0 7:0.4473125 #
-1000 1:0.96499997 2:0.90499997 3:0.84500003 4:0.78500003 5:1 6:0.43398124 7:0 #
-1000 1:0.95999998 2:0.89999998 3:0.83999997 4:0.77999997 5:0.25 6:0.48034999 7:0 #
-1000 1:0.95999998 2:0.89999998 3:0.83999997 4:0.77999997 5:1 6:0 7:0 #
1000 1:0.094999999 2:0.075000003 3:0 4:0 5:0 6:0 7:0.38931251 #
-1000 1:0.98500001 2:0.92500001 3:0.86500001 4:0.80500001 5:0.75 6:0.1156 7:0 #
-1000 1:0.96499997 2:0.90499997 3:0.84500003 4:0.78500003 5:1 6:0.18062501 7:0 #
-1000 1:0.93000001 2:0.87 3:0.81 4:0.75 5:0.75 6:0.21390624 7:0 #
1000 1:0.29499999 2:0.29499999 3:0.23 4:0.29499999 5:1 6:0.189225 7:0 #
-1000 1:0.93000001 2:0.87 3:0.81 4:0.75 5:0 6:0.59626251 7:0 #
1000 1:0.85500002 2:0.79500002 3:0.73500001 4:0.61500001 5:1 6:0.52836251 7:0 #
-1000 1:0.94999999 2:0.88999999 3:0.76999998 4:0.70999998 5:0.5 6:0.63715625 7:0 #
-1000 1:0.93000001 2:0.87 3:0.81 4:0.75 5:0.25 6:0.63261873 7:0 #
1000 1:0 2:0 3:0 4:0 5:0 6:0 7:0.15547875 #
-1000 1:0.92000002 2:0.86000001 3:0.80000001 4:0.68000001 5:1 6:0.36345625 7:0 #
-1000 1:0.96499997 2:0.90499997 3:0.78500003 4:0.72500002 5:1 6:0.21390624 7:0 #
-1000 1:0.17 2:0.17 3:0.050000001 4:0 5:0.75 6:0 7:0.44895625 #
1000 1:0.32499999 2:0.27000001 3:0.27000001 4:0.32499999 5:0 6:0.43458751 7:0 #
1000 1:0.815 2:0.755 3:0.63499999 4:0.57499999 5:1 6:0.093024999 7:0 #
-1000 1:0.12 2:0 3:0 4:0 5:0 6:0 7:0.66516876 #
-1000 1:0.98000002 2:0.92000002 3:0.86000001 4:0.74000001 5:1 6:0.14250626 7:0 #
-1000 1:0.96499997 2:0.90499997 3:0.84500003 4:0.72500002 5:1 6:0 7:0 #
1000 1:0.26499999 2:0.22499999 3:0.26499999 4:0.26499999 5:0 6:0.2304 7:0 #
1000 1:0 2:0 3:0 4:0 5:0 6:0 7:0.42558125 #
-1000 1:0.93000001 2:0.87 3:0.81 4:0.75 5:0 6:0.6044625 7:0 #
1000 1:0 2:0 3:0 4:0 5:0 6:0 7:0.089791253 #
-677.94998526852578 1:0.13 2:0.13 3:0.02 4:0 5:1 6:0 7:0.061633334 #
-1000 1:0.95499998 2:0.89499998 3:0.83499998 4:0.77499998 5:0.25 6:0.47451875 7:0 #
1000 1:0.31999999 2:0.31999999 3:0.31999999 4:0.31999999 5:0.75 6:0 7:0.62340623 #
-1000 1:0.96499997 2:0.90499997 3:0.84500003 4:0.78500003 5:1 6:0.18062501 7:0 #
1000 1:0 2:0 3:0 4:0 5:0 6:0 7:0.12468125 #
-1000 1:0.70999998 2:0.70999998 3:0.70999998 4:0.58999997 5:0.75 6:0 7:0 #
1000 1:0.96499997 2:0.90499997 3:0.84500003 4:0.78500003 5:0.25 6:0.29621875 7:0 #
-1000 1:0.815 2:0.755 3:0.69499999 4:0.61500001 5:1 6:0 7:0.19976875 #
-1000 1:0.20999999 2:0.20999999 3:0.20999999 4:0.20999999 5:0 6:0.140625 7:0.038024999 #
1000 1:0.094999999 2:0.075000003 3:0 4:0 5:0 6:0 7:0.38931251 #
1000 1:0.875 2:0.815 3:0.755 4:0.69499999 5:0.5 6:0.09765625 7:0 #
1000 1:0 2:0 3:0 4:0 5:0 6:0 7:0.1134575 #
1000 1:0.77499998 2:0.71499997 3:0.53500003 4:0.47499999 5:0 6:0 7:0.53136873 #
-1000 1:0.93000001 2:0.87 3:0.81 4:0.75 5:0 6:0.6002875 7:0 #
-1000 1:0.79500002 2:0.73500001 3:0.61500001 4:0.55500001 5:1 6:0 7:0.1346 #
1000 1:0.93000001 2:0.87 3:0.81 4:0.75 5:0 6:0.47840625 7:0 #
-1000 1:0.98000002 2:0.92000002 3:0.86000001 4:0.80000001 5:0.25 6:0.49762499 7:0 #
-1000 1:0.98500001 2:0.92500001 3:0.86500001 4:0.80500001 5:0 6:0.45918125 7:0 #
-1000 1:0.35499999 2:0.35499999 3:0.35499999 4:0.35499999 5:1 6:0.061256249 7:0 #
-1000 1:0.98500001 2:0.92500001 3:0.86500001 4:0.80500001 5:0.75 6:0.11390625 7:0 #
-1000 1:0.115 2:0.115 3:0 4:0 5:1 6:0 7:0.063802086 #
1000 1:0.93000001 2:0.87 3:0.81 4:0.75 5:0 6:0.47358751 7:0 #
-1000 1:0.97500002 2:0.91500002 3:0.85500002 4:0.79500002 5:0.25 6:0.49166876 7:0 #
-1000 1:0.93000001 2:0.87 3:0.81 4:0.75 5:0 6:0.59825623 7:0 #
-1000 1:0.57499999 2:0.57499999 3:0.45500001 4:0.33500001 5:0.5 6:0 7:0.36338124 #
1000 1:0.93000001 2:0.87 3:0.81 4:0.75 5:0.25 6:0.63261873 7:0 #
1000 1:0.93000001 2:0.87 3:0.81 4:0.75 5:0 6:0.47515625 7:0 #
1000 1:0 2:0 3:0 4:0 5:0 6:0 7:0.15547875 #
1000 1:0.094999999 2:0.075000003 3:0 4:0 5:0 6:0 7:0.38931251 #
-1000 1:0.93000001 2:0.87 3:0.81 4:0.75 5:0 6:0.60235626 7:0 #
-1000 1:0.98000002 2:0.92000002 3:0.86000001 4:0.80000001 5:0.75 6:0.39511874 7:0 #
-1000 1:0.090000004 2:0.090000004 3:0.090000004 4:0.090000004 5:0 6:0 7:0.12150209 #
1000 1:0.16 2:0.16 3:0.16 4:0.16 5:0 6:0 7:0.16747124 #
1000 1:0 2:0 3:0 4:0 5:0 6:0 7:0.83735627 #
1000 1:0.96499997 2:0.90499997 3:0.84500003 4:0.72500002 5:1 6:0.60306251 7:0 #
1000 1:0.93000001 2:0.87 3:0.81 4:0.75 5:0 6:0.59825623 7:0 #
-1000 1:0.98500001 2:0.92500001 3:0.86500001 4:0.80500001 5:0.25 6:0.50045002 7:0 #
1000 1:0.91000003 2:0.85000002 3:0.79000002 4:0.73000002 5:0.75 6:0.68237501 7:0 #
-1000 1:0.98500001 2:0.92500001 3:0.86500001 4:0.80500001 5:0.5 6:0.33721876 7:0 #
-1000 1:0.98500001 2:0.92500001 3:0.86500001 4:0.80500001 5:0 6:0.18062501 7:0 #
1000 1:0 2:0 3:0 4:0 5:0 6:0 7:0.42558125 #
-1000 1:0.035 2:0.035 3:0.035 4:0.035 5:0.25 6:0 7:0.32555938 #
-1000 1:0.0049999999 2:0.0049999999 3:0.0049999999 4:0.0049999999 5:0.75 6:0 7:0.048511252 #
-1000 1:0.94499999 2:0.88499999 3:0.82499999 4:0.76499999 5:0.5 6:0.75767499 7:0 #
-1000 1:0.93000001 2:0.87 3:0.81 4:0.75 5:0.25 6:0.59196877 7:0 #
-1000 1:0.12 2:0.12 3:0.12 4:0.12 5:0.5 6:0 7:0.77739376 #
1000 1:0.98500001 2:0.92500001 3:0.80500001 4:0.745 5:0.75 6:0.62575001 7:0 #
-1000 1:0.98500001 2:0.92500001 3:0.86500001 4:0.80500001 5:0.5 6:0.55912501 7:0 #
1000 1:0.145 2:0.145 3:0.145 4:0.145 5:1 6:0 7:0.10296375 #
-1000 1:0.96499997 2:0.90499997 3:0.84500003 4:0.72500002 5:1 6:0.60306251 7:0 #
1000 1:0.02 2:0.02 3:0.02 4:0.02 5:0.75 6:0 7:0.1647325 #
1000 1:0.98500001 2:0.92500001 3:0.86500001 4:0.745 5:1 6:0.61658752 7:0 #
1000 1:0.12 2:0 3:0 4:0 5:0 6:0 7:0.66516876 #
-1000 1:0.94499999 2:0.88499999 3:0.82499999 4:0.76499999 5:1 6:0.38336876 7:0 #
1000 1:0.93000001 2:0.87 3:0.81 4:0.75 5:1 6:0.55412501 7:0 #
1000 1:0.93000001 2:0.87 3:0.81 4:0.75 5:1 6:0.12135625 7:0 #
-1000 1:0.97500002 2:0.91500002 3:0.85500002 4:0.79500002 5:0 6:0.44646251 7:0 #
-1000 1:0.17 2:0.050000001 3:0 4:0 5:0.75 6:0 7:0.44895625 #
1000 1:0.93000001 2:0.87 3:0.81 4:0.73000002 5:1 6:0.36026251 7:0 #
1000 1:0.81999999 2:0.75999999 3:0.63999999 4:0.57999998 5:1 6:0.093024999 7:0 #
1000 1:0.91500002 2:0.85500002 3:0.79500002 4:0.73500001 5:0.5 6:0.72825003 7:0 #
1000 1:0.96499997 2:0.90499997 3:0.84500003 4:0.78500003 5:1 6:0.383425 7:0 #
1000 1:0.97000003 2:0.91000003 3:0.85000002 4:0.79000002 5:0.75 6:0.18765625 7:0 #
-1000 1:0.935 2:0.875 3:0.815 4:0.755 5:0 6:0.48603126 7:0 #
-1000 1:0.11 2:0.11 3:0 4:0 5:1 6:0 7:0.09133333 #
-1000 1:0.97500002 2:0.91500002 3:0.85500002 4:0.79500002 5:0 6:0.44646251 7:0 #
1000 1:0.17 2:0.050000001 3:0 4:0 5:0.75 6:0 7:0.44895625 #
1000 1:0.25 2:0.22499999 3:0.105 4:0.105 5:1 6:0 7:0.087582499 #
-1000 1:0.98500001 2:0.92500001 3:0.86500001 4:0.80500001 5:1 6:0.13875625 7:0 #
1000 1:0.93000001 2:0.87 3:0.81 4:0.75 5:0 6:0.59626251 7:0 #
1000 1:0.059999999 2:0.059999999 3:0.059999999 4:0.059999999 5:0.75 6:0 7:0.1647325 #
1000 1:0.97000003 2:0.91000003 3:0.85000002 4:0.79000002 5:0.25 6:0.48891875 7:0 #
-1000 1:0.80000001 2:0.74000001 3:0.62 4:0.56 5:1 6:0 7:0.1346 #
-1000 1:0.0049999999 2:0.0049999999 3:0.0049999999 4:0.0049999999 5:1 6:0 7:0.048511252 #
1000 1:0.98000002 2:0.92000002 3:0.86000001 4:0.80000001 5:0.75 6:0.19695625 7:0 #
-1000 1:0.98500001 2:0.90499997 3:0.84500003 4:0.72500002 5:0 6:0.46216249 7:0 #
1000 1:0.95499998 2:0.89499998 3:0.83499998 4:0.77499998 5:1 6:0.3790625 7:0 #
1000 1:0.98000002 2:0.92000002 3:0.86000001 4:0.80000001 5:0.75 6:0.4512625 7:0 #
-1000 1:0.98000002 2:0.92000002 3:0.86000001 4:0.80000001 5:0.75 6:0.60478753 7:0 #
1000 1:0.94999999 2:0.88999999 3:0.82999998 4:0.76999998 5:0.5 6:0.5530625 7:0 #
1000 1:0.029999999 2:0.029999999 3:0.029999999 4:0.029999999 5:0.75 6:0 7:0.1647325 #
-1000 1:0.77499998 2:0.72000003 3:0.60000002 4:0.41499999 5:1 6:0.18275625 7:0 #
1000 1:0.97500002 2:0.91500002 3:0.85500002 4:0.79500002 5:0.75 6:0.19073126 7:0 #
1000 1:0.90499997 2:0.84500003 3:0.78500003 4:0.72500002 5:0.75 6:0.67414999 7:0 #
1000 1:0 2:0 3:0 4:0 5:0 6:0 7:0.48406875 #
1000 1:0.77499998 2:0.71499997 3:0.59500003 4:0.53500003 5:1 6:0.087025002 7:0 #
-1000 1:0.17 2:0.050000001 3:0 4:0 5:0.75 6:0 7:0.44895625 #
1000 1:0.91000003 2:0.85000002 3:0.73000002 4:0.67000002 5:0.75 6:0.15406249 7:0 #
-1000 1:0.91500002 2:0.85500002 3:0.79500002 4:0.67500001 5:1 6:0.35920626 7:0 #
1000 1:0.17 2:0.050000001 3:0 4:0 5:0.75 6:0 7:0.44895625 #
-1000 1:0.95499998 2:0.89499998 3:0.83499998 4:0.77499998 5:1 6:0.48123124 7:0 #
1000 1:0.050000001 2:0.050000001 3:0.050000001 4:0.050000001 5:0.75 6:0 7:0.1647325 #
1000 1:0.93000001 2:0.87 3:0.81 4:0.75 5:0 6:0.6002875 7:0 #
1000 1:0.255 2:0.215 3:0.255 4:0.255 5:0 6:0.22800624 7:0 #
1000 1:0.935 2:0.875 3:0.815 4:0.755 5:0.5 6:0.74902499 7:0 #
-1000 1:0.95999998 2:0.89999998 3:0.83999997 4:0.77999997 5:1 6:0.26103124 7:0 #
1000 1:0.935 2:0.85500002 3:0.79500002 4:0.67500001 5:0.5 6:0.31375 7:0 #
-1000 1:0.81999999 2:0.75999999 3:0.63999999 4:0.57999998 5:0.75 6:0.67218751 7:0 #
1000 1:0.039999999 2:0.039999999 3:0.039999999 4:0.039999999 5:0.75 6:0 7:0.1647325 #
1000 1:0.12 2:0 3:0 4:0 5:0 6:0 7:0.66516876 #
-1000 1:0.98500001 2:0.92500001 3:0.86500001 4:0.80500001 5:0.75 6:0.39946875 7:0 #
1000 1:0.0049999999 2:0.0049999999 3:0.0049999999 4:0.0049999999 5:0.25 6:0 7:0.22172292 #
1000 1:0.26499999 2:0.26499999 3:0.26499999 4:0.26499999 5:1 6:0.15405625 7:0 #
1000 1:0.025 2:0.025 3:0.025 4:0.025 5:0.25 6:0 7:0.22172292 #
1000 1:0.95499998 2:0.89499998 3:0.83499998 4:0.77499998 5:0.25 6:0.19850001 7:0 #
-975.17619323774989 1:0.185 2:0.064999998 3:0.025 4:0.025 5:1 6:0 7:0.12127812 #
1000 1:0.95999998 2:0.89999998 3:0.83999997 4:0.77999997 5:0.5 6:0.63261873 7:0 #
-1000 1:0.98500001 2:0.92500001 3:0.86500001 4:0.80500001 5:1 6:0.09150625 7:0 #
-1000 1:0 2:0 3:0 4:0 5:0 6:0 7:0.83735627 #
-1000 1:0.36500001 2:0.31 3:0.205 4:0.36500001 5:0 6:0.41890624 7:0 #
1000 1:0.0049999999 2:0.0049999999 3:0.0049999999 4:0.0049999999 5:1 6:0.2209 7:0.085078128 #
-1000 1:0.079999998 2:0.079999998 3:0.079999998 4:0.079999998 5:0.5 6:0 7:0.177625 #
-1000 1:0.97000003 2:0.88999999 3:0.82999998 4:0.76999998 5:0.25 6:0.70092499 7:0 #
1000 1:0.93000001 2:0.87 3:0.81 4:0.75 5:1 6:0.2667625 7:0 #
1000 1:0.91000003 2:0.85000002 3:0.73000002 4:0.67000002 5:0.75 6:0.11730625 7:0 #
1000 1:0.95499998 2:0.875 3:0.815 4:0.755 5:0.25 6:0.68105 7:0 #
-1000 1:0.935 2:0.85500002 3:0.79500002 4:0.67500001 5:1 6:0.66841251 7:0 #
-1000 1:0.094999999 2:0.094999999 3:0.094999999 4:0.094999999 5:1 6:0.039006252 7:0 #
1000 1:0.97500002 2:0.91500002 3:0.79500002 4:0.73500001 5:0.75 6:0.61891878 7:0 #
1000 1:0.93000001 2:0.87 3:0.81 4:0.75 5:1 6:0.4404625 7:0 #
1000 1:0.95999998 2:0.88 3:0.81999999 4:0.75999999 5:0.25 6:0.68927503 7:0 #
1000 1:0.83499998 2:0.77499998 3:0.65499997 4:0.59500003 5:1 6:0.096100003 7:0 #
-1000 1:0.97000003 2:0.91000003 3:0.85000002 4:0.79000002 5:0 6:0.4395875 7:0 #
1000 1:0.97500002 2:0.91500002 3:0.85500002 4:0.79500002 5:0.5 6:0.42531249 7:0 #
-1000 1:0.935 2:0.85500002 3:0.79500002 4:0.73500001 5:0.25 6:0.65834999 7:0 #
1000 1:0.97000003 2:0.91000003 3:0.79000002 4:0.73000002 5:0.75 6:0.41196251 7:0 #
-1000 1:0.025 2:0.025 3:0.025 4:0.025 5:0.75 6:0 7:0.099715628 #
-1000 1:0.0049999999 2:0.0049999999 3:0.0049999999 4:0 5:0.75 6:0 7:0.068252087 #
1000 1:0.88 2:0.81999999 3:0.69999999 4:0.63999999 5:0.75 6:0.71546251 7:0 #
1000 1:0.77999997 2:0.72000003 3:0.60000002 4:0.54000002 5:1 6:0.087025002 7:0 #
1000 1:0.82999998 2:0.76999998 3:0.64999998 4:0.58999997 5:1 6:0.09455625 7:0 #
1000 1:0.98500001 2:0.92500001 3:0.86500001 4:0.80500001 5:0.75 6:0.4512625 7:0 #
1000 1:0.57499999 2:0.57499999 3:0.45500001 4:0.33500001 5:0.5 6:0 7:0.36338124 #
1000 1:0.95999998 2:0.89999998 3:0.83999997 4:0.72000003 5:1 6:0.60306251 7:0 #
1000 1:0.95499998 2:0.875 3:0.815 4:0.69499999 5:0.5 6:0.34352499 7:0 #
-1000 1:0.285 2:0.285 3:0.285 4:0.285 5:1 6:0.28803125 7:0.04141875 #
-1000 1:0.935 2:0.85500002 3:0.79500002 4:0.73500001 5:0.25 6:0.65834999 7:0 #
1000 1:0.96499997 2:0.90499997 3:0.84500003 4:0.78500003 5:0.25 6:0.48302501 7:0 #
1000 1:0.90499997 2:0.84500003 3:0.78500003 4:0.66500002 5:1 6:0.62648749 7:0 #
1000 1:0.19499999 2:0.075000003 3:0.19499999 4:0.19499999 5:0 6:0 7:0.38931251 #
-1000 1:0.17 2:0.115 3:0.059999999 4:0 5:1 6:0 7:0.046764061 #
-1000 1:0.39500001 2:0.27500001 3:0.235 4:0.39500001 5:0 6:0.4952625 7:0 #
-1000 1:0.98500001 2:0.90499997 3:0.84500003 4:0.78500003 5:1 6:0 7:0 #
-1000 1:0.0099999998 2:0.0099999998 3:0.0099999998 4:0.0099999998 5:0.75 6:0 7:0.046080001 #
1000 1:0.82499999 2:0.76499999 3:0.64499998 4:0.58499998 5:1 6:0.09455625 7:0 #
-1000 1:0.11 2:0 3:0 4:0 5:1 6:0 7:0.029645 #
-1000 1:0.935 2:0.875 3:0.815 4:0.755 5:0 6:0.48603126 7:0 #
1000 1:0.95999998 2:0.88 3:0.81999999 4:0.69999999 5:0.5 6:0.35374999 7:0 #
-1000 1:0.13500001 2:0.13500001 3:0.13500001 4:0.0099999998 5:0.75 6:0 7:0.045689061 #
1000 1:0.98000002 2:0.92000002 3:0.86000001 4:0.80000001 5:0.5 6:0.64646876 7:0 #
1000 1:0 2:0 3:0 4:0 5:0 6:0 7:0.4082 #
1000 1:0.98000002 2:0.92000002 3:0.86000001 4:0.80000001 5:0.25 6:0.49762499 7:0 #
-1000 1:0.96499997 2:0.90499997 3:0.78500003 4:0.72500002 5:1 6:0.32153124 7:0 #
1000 1:0.91000003 2:0.85000002 3:0.79000002 4:0.67000002 5:1 6:0.63436252 7:0 #
1000 1:0.81 2:0.75 3:0.63 4:0.56999999 5:1 6:0.09150625 7:0 #
1000 1:0.80000001 2:0.74000001 3:0.62 4:0.56 5:1 6:0.090000004 7:0 #
1000 1:0.86500001 2:0.80500001 3:0.745 4:0.685 5:1 6:0.1684 7:0 #
1000 1:0.87 2:0.81 3:0.75 4:0.69 5:1 6:0.17425001 7:0 #
-1000 1:0.93000001 2:0.85000002 3:0.79000002 4:0.73000002 5:1 6:0 7:0 #
-1000 1:0.935 2:0.875 3:0.815 4:0.755 5:0.25 6:0.54938751 7:0 #
1000 1:0.95499998 2:0.89499998 3:0.83499998 4:0.77499998 5:0.5 6:0.62575001 7:0 #
1000 1:0.84500003 2:0.78500003 3:0.66500002 4:0.60500002 5:0.75 6:0.68646252 7:0 #
-1000 1:0.935 2:0.875 3:0.815 4:0.755 5:0.25 6:0.54938751 7:0 #
-1000 1:0.12 2:0.12 3:0.12 4:0.12 5:0.5 6:0 7:0.77739376 #
1000 1:0.35499999 2:0.30000001 3:0.30000001 4:0.30000001 5:0 6:0.42695624 7:0 #
1000 1:0.95999998 2:0.89999998 3:0.83999997 4:0.77999997 5:0.25 6:0.48034999 7:0 #
1000 1:0.085000001 2:0.085000001 3:0.085000001 4:0.085000001 5:0.75 6:0 7:0.031064063 #
-1000 1:0 2:0 3:0 4:0 5:0 6:0 7:0.83735627 #
-1000 1:0.95499998 2:0.89499998 3:0.83499998 4:0.77499998 5:0.75 6:0.73577499 7:0 #
-1000 1:0.98500001 2:0.90499997 3:0.84500003 4:0.72500002 5:0 6:0.46216249 7:0 #
1000 1:0.12 2:0 3:0 4:0 5:0 6:0 7:0.66516876 #
-1000 1:0.96499997 2:0.90499997 3:0.84500003 4:0.78500003 5:1 6:0.65216249 7:0 #
1000 1:0.96499997 2:0.90499997 3:0.84500003 4:0.78500003 5:0.5 6:0.1444 7:0 #
-1000 1:0.96499997 2:0.90499997 3:0.84500003 4:0.78500003 5:1 6:0.37114999 7:0 #
-1000 1:0.98500001 2:0.92500001 3:0.80500001 4:0.745 5:0.75 6:0.62575001 7:0 #
1000 1:0.97500002 2:0.91500002 3:0.85500002 4:0.79500002 5:0.5 6:0.639525 7:0 #
-1000 1:0.12 2:0 3:0 4:0 5:0 6:0 7:0.66516876 #
-1000 1:0.97500002 2:0.89499998 3:0.83499998 4:0.77499998 5:0.25 6:0.70434999 7:0 #
-1000 1:0.075000003 2:0.075000003 3:0.075000003 4:0.075000003 5:0.25 6:0 7:0.52721876 #
1000 1:0 2:0 3:0 4:0 5:0 6:0 7:0.4082 #
-1000 1:0 2:0 3:0 4:0 5:0 6:0 7:0.34088126 #
-1000 1:0.075000003 2:0.075000003 3:0.039999999 4:0 5:0.75 6:0 7:0.1732125 #
-1000 1:0.98500001 2:0.92500001 3:0.86500001 4:0.80500001 5:1 6:0.45155001 7:0 #
1000 1:0.97000003 2:0.91000003 3:0.85000002 4:0.79000002 5:1 6:0.43621874 7:0 #
1000 1:0.11 2:0.11 3:0.0099999998 4:0.11 5:0.75 6:0 7:0.39495626 #
1000 1:0.93000001 2:0.87 3:0.81 4:0.75 5:0 6:0.60235626 7:0 #
1000 1:0.16500001 2:0.16500001 3:0.16500001 4:0.14 5:1 6:0.25831249 7:0 #
-1000 1:0.95499998 2:0.89499998 3:0.83499998 4:0.77499998 5:1 6:0.66429377 7:0 #
-1000 1:0.98000002 2:0.92000002 3:0.86000001 4:0.77999997 5:0.75 6:0.33212501 7:0 #
-1000 1:0.055 2:0.055 3:0.055 4:0.055 5:0.5 6:0 7:0.19747813 #
-1000 1:0.97500002 2:0.91500002 3:0.85500002 4:0.79500002 5:0.5 6:0.639525 7:0 #
1000 1:0.11 2:0.11 3:0.0099999998 4:0.11 5:0.75 6:0 7:0.39495626 #
1000 1:0.88499999 2:0.82499999 3:0.76499999 4:0.70499998 5:0.5 6:0.1024 7:0 #
1000 1:0.95499998 2:0.89499998 3:0.83499998 4:0.77499998 5:0.25 6:0.47451875 7:0 #
-1000 1:0 2:0 3:0 4:0 5:0 6:0 7:0.40023124 #
-1000 1:0.93000001 2:0.85000002 3:0.79000002 4:0.67000002 5:1 6:0.66841251 7:0 #
-1000 1:0.97000003 2:0.91000003 3:0.85000002 4:0.79000002 5:0 6:0.4395875 7:0 #
1000 1:0.094999999 2:0.075000003 3:0.094999999 4:0.094999999 5:0 6:0 7:0.38931251 #
1000 1:0.92500001 2:0.86500001 3:0.80500001 4:0.745 5:0.5 6:0.74042499 7:0 #
1000 1:0.98500001 2:0.92500001 3:0.86500001 4:0.80500001 5:0.75 6:0.60863751 7:0 #
-1000 1:0.98500001 2:0.92500001 3:0.86500001 4:0.80500001 5:1 6:0.15602501 7:0 #
-1000 1:0.94499999 2:0.88499999 3:0.82499999 4:0.76499999 5:0.25 6:0.46614999 7:0 #
1000 1:0.97500002 2:0.91500002 3:0.85500002 4:0.79500002 5:0.5 6:0.4424125 7:0 #
-1000 1:0.13 2:0.13 3:0.075000003 4:0.13 5:0.75 6:0 7:0.289 #
-1000 1:0.155 2:0.155 3:0.14 4:0 5:0.5 6:0 7:0.3610625 #
1000 1:0.94999999 2:0.87 3:0.81 4:0.69 5:0.5 6:0.33846876 7:0 #
1000 1:0.93000001 2:0.79000002 3:0.73000002 4:0.67000002 5:0.75 6:0 7:0 #
1000 1:0.5 2:0.38 3:0.5 4:0.5 5:0 6:0 7:0.52721876 #
-1000 1:0.95499998 2:0.89499998 3:0.83499998 4:0.71499997 5:1 6:0.59635627 7:0 #
-1000 1:0.98000002 2:0.92000002 3:0.86000001 4:0.80000001 5:1 6:0.15602501 7:0 #
1000 1:0 2:0 3:0 4:0 5:0 6:0 7:0.83735627 #
1000 1:0.93000001 2:0.87 3:0.81 4:0.75 5:0.25 6:0.59196877 7:0 #
-1000 1:0.44 2:0.31999999 3:0.255 4:0.44 5:1 6:0.1089 7:0 #
1000 1:0.78500003 2:0.72500002 3:0.54500002 4:0.48500001 5:0 6:0 7:0.52721876 #
-1000 1:0.98500001 2:0.90499997 3:0.84500003 4:0.72500002 5:0 6:0.43538749 7:0 #
1000 1:0.94999999 2:0.88999999 3:0.82999998 4:0.76999998 5:0.5 6:0.76637501 7:0 #
1000 1:0.17 2:0.050000001 3:0 4:0 5:0.75 6:0 7:0.44895625 #
-1000 1:0.079999998 2:0.079999998 3:0.079999998 4:0.079999998 5:0.5 6:0 7:0.26855314 #
1000 1:0.93000001 2:0.87 3:0.81 4:0.75 5:0.75 6:0.45186251 7:0 #
1000 1:0.95999998 2:0.81999999 3:0.75999999 4:0.69999999 5:0.75 6:0 7:0 #
1000 1:0.87 2:0.81 3:0.69 4:0.63 5:0.5 6:0.47022501 7:0 #
-1000 1:0.45500001 2:0.45500001 3:0.45500001 4:0.38999999 5:1 6:0 7:0.14687656 #
-1000 1:0.98000002 2:0.92000002 3:0.86000001 4:0.80000001 5:1 6:0.49856251 7:0 #
-1000 1:0.98500001 2:0.92500001 3:0.86500001 4:0.80500001 5:1 6:0.43483126 7:0 #
1000 1:0.97000003 2:0.91000003 3:0.85000002 4:0.73000002 5:1 6:0.60980624 7:0 #
-1000 1:0.094999999 2:0.075000003 3:0 4:0 5:0 6:0 7:0.38931251 #
1000 1:0.97000003 2:0.91000003 3:0.85000002 4:0.79000002 5:0.5 6:0.639525 7:0 #
-1000 1:0.95999998 2:0.89999998 3:0.83999997 4:0.72000003 5:1 6:0.60306251 7:0 #
1000 1:0.96499997 2:0.90499997 3:0.84500003 4:0.78500003 5:0.75 6:0.44181249 7:0 #
-1000 1:0.90499997 2:0.84500003 3:0.78500003 4:0.66500002 5:1 6:0.62648749 7:0 #
-1000 1:0.96499997 2:0.90499997 3:0.84500003 4:0.78500003 5:1 6:0.65216249 7:0 #
-1000 1:0.050000001 2:0.050000001 3:0.050000001 4:0.050000001 5:0.75 6:0 7:0.20360781 #
-1000 1:0.95999998 2:0.89999998 3:0.83999997 4:0.77999997 5:1 6:0.15800625 7:0 #
-1000 1:0.77999997 2:0.72000003 3:0.54000002 4:0.47999999 5:0 6:0 7:0.35706249 #
-1000 1:0 2:0 3:0 4:0 5:0 6:0 7:0.3526625 #
-1000 1:0 2:0 3:0 4:0 5:0 6:0 7:0.83735627 #
-1000 1:0.97500002 2:0.91500002 3:0.85500002 4:0.79500002 5:1 6:0.13322499 7:0 #
1000 1:0.92000002 2:0.86000001 3:0.80000001 4:0.74000001 5:0.5 6:0.73677498 7:0 #
-1000 1:0.85500002 2:0.79500002 3:0.73500001 4:0.61500001 5:1 6:0.49400625 7:0 #
-1000 1:0.97500002 2:0.91500002 3:0.79500002 4:0.73500001 5:0.75 6:0.61891878 7:0 #
-1000 1:0.96499997 2:0.90499997 3:0.84500003 4:0.78500003 5:1 6:0.64411253 7:0 #
-1000 1:0.94 2:0.88 3:0.81999999 4:0.75999999 5:0.5 6:0.75767499 7:0 #
-1000 1:0.98000002 2:0.92000002 3:0.86000001 4:0.80000001 5:1 6:0.088506252 7:0 #
-1000 1:0.97000003 2:0.88999999 3:0.82999998 4:0.76999998 5:0.25 6:0.70092499 7:0 #
1000 1:0 2:0 3:0 4:0 5:0 6:0 7:0.4082 #
-1000 1:0.13500001 2:0.13500001 3:0.13500001 4:0.13500001 5:0.75 6:0 7:0.48406875 #
-1000 1:0.94999999 2:0.88999999 3:0.82999998 4:0.76999998 5:0.5 6:0.76637501 7:0 #
-1000 1:0.12 2:0.12 3:0.12 4:0.12 5:0.5 6:0 7:0.77739376 #
-1000 1:0.94499999 2:0.88499999 3:0.82499999 4:0.76499999 5:0.75 6:0.56733751 7:0 #
-1000 1:0.88499999 2:0.82499999 3:0.70499998 4:0.64499998 5:0.75 6:0.71546251 7:0 #
-1000 1:0.89999998 2:0.83999997 3:0.77999997 4:0.66000003 5:1 6:0.61391252 7:0 #
-1000 1:0.85000002 2:0.79000002 3:0.73000002 4:0.61000001 5:1 6:0 7:0.12047125 #
1000 1:0.91000003 2:0.85000002 3:0.79000002 4:0.73000002 5:0.5 6:0.724675 7:0 #
1000 1:0.94499999 2:0.88499999 3:0.82499999 4:0.76499999 5:0.25 6:0.46614999 7:0 #
1000 1:0.94999999 2:0.88999999 3:0.82999998 4:0.76999998 5:0.25 6:0.47191876 7:0 #
1000 1:0.96499997 2:0.90499997 3:0.84500003 4:0.78500003 5:0.75 6:0.23220626 7:0 #
-1000 1:0.98500001 2:0.90499997 3:0.84500003 4:0.72500002 5:0.5 6:0.54503125 7:0 #
1000 1:0.94499999 2:0.80500001 3:0.745 4:0.685 5:0.75 6:0 7:0 #
-1000 1:0.96499997 2:0.90499997 3:0.84500003 4:0.78500003 5:0.75 6:0.74855 7:0 #
1000 1:0.075000003 2:0.075000003 3:0.075000003 4:0.075000003 5:0.25 6:0 7:0.52721876 #
-1000 1:0.98500001 2:0.92500001 3:0.86500001 4:0.80500001 5:0.5 6:0.48577499 7:0 #
-1000 1:0.98500001 2:0.92500001 3:0.80500001 4:0.745 5:1 6:0.11390625 7:0 #
1000 1:0.96499997 2:0.90499997 3:0.84500003 4:0.78500003 5:0.75 6:0.056406248 7:0 #
-1000 1:0.98500001 2:0.92500001 3:0.86500001 4:0.80500001 5:0.5 6:0.55912501 7:0 #
1000 1:0.95499998 2:0.89499998 3:0.83499998 4:0.77499998 5:0.75 6:0.73577499 7:0 #
-1000 1:0.98000002 2:0.89999998 3:0.83999997 4:0.72000003 5:0 6:0.44596249 7:0 #
1000 1:0.94999999 2:0.88999999 3:0.76999998 4:0.70999998 5:0.5 6:0.63715625 7:0 #
1000 1:0 2:0 3:0 4:0 5:0 6:0 7:0.4082 #
1000 1:0.5 2:0.5 3:0.5 4:0.5 5:0 6:0 7:0.52721876 #
1000 1:0.95499998 2:0.815 3:0.755 4:0.69499999 5:0.75 6:0 7:0 #
1000 1:0.36500001 2:0.31 3:0.31 4:0.31 5:0 6:0.4244875 7:0 #
-1000 1:0.055 2:0.055 3:0.055 4:0.055 5:0.5 6:0 7:0.19747813 #
-1000 1:0.92000002 2:0.86000001 3:0.80000001 4:0.74000001 5:0.5 6:0.73677498 7:0 #
-1000 1:0.95499998 2:0.89499998 3:0.83499998 4:0.77499998 5:1 6:0.66429377 7:0 #
-1000 1:0.91000003 2:0.85000002 3:0.79000002 4:0.73000002 5:0.5 6:0.724675 7:0 #
1000 1:0.95499998 2:0.89499998 3:0.83499998 4:0.77499998 5:0.75 6:0.437125 7:0 #
1000 1:0.17 2:0.17 3:0.050000001 4:0 5:0.75 6:0 7:0.44895625 #
1000 1:0.97500002 2:0.91500002 3:0.85500002 4:0.79500002 5:0.75 6:0.59810627 7:0 #
1000 1:0.96499997 2:0.90499997 3:0.84500003 4:0.78500003 5:1 6:0.43062499 7:0 #
1000 1:0.0049999999 2:0.0049999999 3:0.0049999999 4:0.0049999999 5:1 6:0.21855626 7:0.085078128 #
1000 1:0.97000003 2:0.91000003 3:0.85000002 4:0.79000002 5:0.75 6:0.056406248 7:0 #
-1000 1:0.935 2:0.875 3:0.815 4:0.755 5:0.5 6:0.74902499 7:0 #
-1000 1:0.96499997 2:0.88499999 3:0.82499999 4:0.76499999 5:0.25 6:0.69262499 7:0 #
1000 1:0.155 2:0.155 3:0.155 4:0.155 5:0.5 6:0 7:0.3887125 #
1000 1:0.285 2:0.285 3:0.285 4:0.285 5:0.75 6:0.29975626 7:0.02485125 #
-1000 1:0.17 2:0.050000001 3:0 4:0 5:0.75 6:0 7:0.44895625 #
-1000 1:0 2:0 3:0 4:0 5:0 6:0 7:0.83735627 #
-1000 1:0.035 2:0.035 3:0.035 4:0.035 5:0.25 6:0 7:0.32555938 #
-1000 1:0.97500002 2:0.91500002 3:0.85500002 4:0.77499998 5:0.75 6:0.3280625 7:0 #
1000 1:0.285 2:0.285 3:0.285 4:0.285 5:1 6:0.25778124 7:0 #
1000 1:0.96499997 2:0.90499997 3:0.78500003 4:0.72500002 5:0.75 6:0.61212498 7:0 #
1000 1:0.36000001 2:0.36000001 3:0.36000001 4:0.23999999 5:1 6:0.27406251 7:0 #
-1000 1:0.125 2:0.125 3:0.125 4:0.125 5:0 6:0 7:0.12319219 #
-1000 1:0.12 2:0.12 3:0.12 4:0.12 5:0.5 6:0 7:0.77739376 #
-1000 1:0.1 2:0.1 3:0.1 4:0.039999999 5:1 6:0 7:0.265825 #
1000 1:0.95999998 2:0.89999998 3:0.83999997 4:0.77999997 5:0.5 6:0.14250626 7:0 #
-1000 1:0.98500001 2:0.92500001 3:0.86500001 4:0.80500001 5:0.25 6:0 7:0 #
-1000 1:0.07 2:0.07 3:0.07 4:0.07 5:1 6:0 7:0.40080625 #
-1000 1:0.815 2:0.755 3:0.63499999 4:0.57499999 5:0.75 6:0.66510624 7:0 #
-1000 1:0.98000002 2:0.92000002 3:0.86000001 4:0.80000001 5:1 6:0.088506252 7:0 #
1000 1:0.12 2:0 3:0 4:0 5:0 6:0 7:0.66516876 #
-1000 1:0 2:0 3:0 4:0 5:0 6:0 7:0.084186248 #
1000 1:0.95999998 2:0.89999998 3:0.83999997 4:0.77999997 5:0.75 6:0.055225 7:0 #
1000 1:0.95999998 2:0.89999998 3:0.83999997 4:0.77999997 5:0.75 6:0.58401251 7:0 #
-1000 1:0.98500001 2:0.92500001 3:0.86500001 4:0.80500001 5:0.75 6:0.585325 7:0 #
-1000 1:0.96499997 2:0.88499999 3:0.82499999 4:0.76499999 5:0.25 6:0.69262499 7:0 #
-1000 1:0.94999999 2:0.88999999 3:0.82999998 4:0.70999998 5:1 6:0.59635627 7:0 #
1000 1:0.155 2:0.155 3:0.155 4:0.155 5:1 6:0 7:0.10047375 #
1000 1:0.93000001 2:0.87 3:0.81 4:0.75 5:1 6:0.20155625 7:0 #
1000 1:0.94499999 2:0.86500001 3:0.80500001 4:0.745 5:0.25 6:0.66962498 7:0 #
-1000 1:0.94499999 2:0.88499999 3:0.76499999 4:0.70499998 5:1 6:0.119025 7:0 #
-1000 1:0.12 2:0.12 3:0.12 4:0.12 5:0.5 6:0 7:0.77739376 #
1000 1:0.13500001 2:0.13500001 3:0.13500001 4:0.13500001 5:0.75 6:0 7:0.48406875 #
-1000 1:0.79500002 2:0.73500001 3:0.61500001 4:0.55500001 5:1 6:0 7:0.1346 #
1000 1:0.12 2:0 3:0 4:0 5:0 6:0 7:0.66516876 #
-1000 1:0.094999999 2:0 3:0 4:0 5:1 6:0 7:0.17044063 #
1000 1:0.935 2:0.875 3:0.815 4:0.755 5:0.75 6:0.65345001 7:0 #
-1000 1:0.035 2:0.035 3:0.035 4:0.035 5:0.25 6:0 7:0.31173438 #
-1000 1:0.92500001 2:0.86500001 3:0.80500001 4:0.745 5:0.5 6:0.74042499 7:0 #
1000 1:0.93000001 2:0.87 3:0.81 4:0.75 5:0.5 6:0.74902499 7:0 #
1000 1:0.13 2:0.13 3:0.075000003 4:0.13 5:0.75 6:0 7:0.289 #
-1000 1:0.875 2:0.815 3:0.73500001 4:0.67500001 5:1 6:0.14373125 7:0 #
1000 1:0.155 2:0.155 3:0.155 4:0.155 5:0.5 6:0 7:0.3887125 #
1000 1:0.13 2:0.13 3:0.13 4:0.13 5:0.75 6:0 7:0.289 #
1000 1:0.86000001 2:0.80000001 3:0.68000001 4:0.62 5:0.75 6:0.7008875 7:0 #
-1000 1:0.98500001 2:0.92500001 3:0.86500001 4:0.80500001 5:1 6:0.09150625 7:0 #
-1000 1:0.93000001 2:0.87 3:0.81 4:0.75 5:0.5 6:0.74902499 7:0 #
1000 1:0.88999999 2:0.82999998 3:0.70999998 4:0.64999998 5:0.75 6:0.47778124 7:0 #
1000 1:0.155 2:0.155 3:0.155 4:0.155 5:0.5 6:0 7:0.3887125 #
-1000 1:0.98000002 2:0.92000002 3:0.86000001 4:0.80000001 5:0 6:0.392225 7:0 #
1000 1:0.185 2:0.185 3:0.185 4:0.12 5:1 6:0 7:0.31024376 #
1000 1:0.97000003 2:0.91000003 3:0.85000002 4:0.79000002 5:0.5 6:0.4424125 7:0 #
1000 1:0.155 2:0.155 3:0.155 4:0.155 5:0.5 6:0 7:0.3887125 #
1000 1:0.93000001 2:0.87 3:0.81 4:0.75 5:0.75 6:0.65345001 7:0 #
1000 1:0.89999998 2:0.83999997 3:0.77999997 4:0.72000003 5:0.75 6:0.670425 7:0 #
1000 1:0.94999999 2:0.88999999 3:0.82999998 4:0.76999998 5:0.75 6:0.73167503 7:0 #
1000 1:0.86500001 2:0.80500001 3:0.685 4:0.625 5:0.75 6:0.7008875 7:0 #
-1000 1:0.94999999 2:0.87 3:0.81 4:0.69 5:1 6:0.68486249 7:0 #
-1000 1:0.035 2:0.035 3:0.035 4:0.035 5:0.25 6:0 7:0.31860939 #
-1000 1:0.17 2:0.050000001 3:0 4:0 5:0.75 6:0 7:0.44895625 #
-1000 1:0 2:0 3:0 4:0 5:0 6:0 7:0.12047125 #
1000 1:0.875 2:0.815 3:0.69499999 4:0.63499999 5:0.75 6:0.70815623 7:0 #
1000 1:0.98000002 2:0.92000002 3:0.86000001 4:0.80000001 5:0.75 6:0.60478753 7:0 #
-1000 1:0 2:0 3:0 4:0 5:0 6:0 7:0.83735627 #
1000 1:0.96499997 2:0.90499997 3:0.84500003 4:0.78500003 5:0.75 6:0.58771253 7:0 #
-1000 1:0.035 2:0.035 3:0.035 4:0.035 5:0.25 6:0 7:0.31173438 #
-1000 1:0.96499997 2:0.88499999 3:0.82499999 4:0.70499998 5:1 6:0.5250625 7:0 #
1000 1:0.155 2:0.155 3:0.155 4:0.155 5:0.5 6:0 7:0.3887125 #
-1000 1:0.12 2:0.12 3:0.12 4:0.12 5:0.5 6:0 7:0.77739376 #
1000 1:0.13 2:0.13 3:0.13 4:0.13 5:0.75 6:0 7:0.4826 #
1000 1:0.91500002 2:0.85500002 3:0.79500002 4:0.67500001 5:1 6:0.45793751 7:0 #
1000 1:0.89999998 2:0.83999997 3:0.77999997 4:0.66000003 5:1 6:0.61391252 7:0 #
-1000 1:0.17 2:0.050000001 3:0 4:0 5:0.75 6:0 7:0.44895625 #
-1000 1:0.91500002 2:0.85500002 3:0.79500002 4:0.73500001 5:0.5 6:0.72825003 7:0 #
1000 1:0.155 2:0.155 3:0.155 4:0.155 5:0.5 6:0 7:0.3887125 #
1000 1:0.13 2:0.13 3:0.13 4:0.13 5:0.75 6:0 7:0.289 #
-1000 1:0.1 2:0.1 3:0.1 4:0.1 5:1 6:0 7:0.12621666 #
1000 1:0.87 2:0.81 3:0.69 4:0.63 5:0.75 6:0.70815623 7:0 #
1000 1:0.11 2:0.11 3:0.0099999998 4:0.11 5:0.75 6:0 7:0.39495626 #
1000 1:0.94 2:0.88 3:0.75999999 4:0.69999999 5:0.75 6:0.79667503 7:0 #
1000 1:0.96499997 2:0.82499999 3:0.76499999 4:0.70499998 5:0.75 6:0 7:0 #
1000 1:0.94999999 2:0.88999999 3:0.82999998 4:0.70999998 5:1 6:0.59635627 7:0 #
1000 1:0.155 2:0.155 3:0.155 4:0.155 5:0.5 6:0 7:0.3887125 #
-1000 1:0.875 2:0.815 3:0.73500001 4:0.67500001 5:1 6:0.14373125 7:0 #
1000 1:0.5 2:0.5 3:0.5 4:0.5 5:0 6:0 7:0.52721876 #
-1000 1:0.035 2:0.035 3:0.035 4:0.035 5:0.25 6:0 7:0.31860939 #
-1000 1:0.98000002 2:0.92000002 3:0.86000001 4:0.80000001 5:0.5 6:0.44712499 7:0 #
-1000 1:0.96499997 2:0.90499997 3:0.78500003 4:0.72500002 5:1 6:0.1225 7:0 #
-1000 1:0.13500001 2:0.039999999 3:0.039999999 4:0.13500001 5:0.25 6:0 7:0.036125001 #
-1000 1:0.49000001 2:0.49000001 3:0.435 4:0.49000001 5:0 6:0.14822499 7:0 #
1000 1:0.94499999 2:0.86500001 3:0.80500001 4:0.685 5:0.5 6:0.32846874 7:0 #
1000 1:0.94 2:0.86000001 3:0.80000001 4:0.68000001 5:0.5 6:0.32352501 7:0 #
1000 1:0.36000001 2:0.36000001 3:0.36000001 4:0.23999999 5:1 6:0.26612499 7:0 #
-1000 1:0.97000003 2:0.91000003 3:0.85000002 4:0.79000002 5:0.5 6:0.639525 7:0 #
1000 1:0.93000001 2:0.87 3:0.81 4:0.75 5:1 6:0.4120625 7:0 #
1000 1:0.94999999 2:0.81 3:0.75 4:0.69 5:0.75 6:0 7:0 #
1000 1:0.155 2:0.155 3:0.155 4:0.155 5:1 6:0 7:0.10049375 #
-1000 1:0 2:0 3:0 4:0 5:0 6:0 7:0.62340623 #
1000 1:0.0049999999 2:0.0049999999 3:0.0049999999 4:0.0049999999 5:1 6:0.21855626 7:0.085078128 #
-1000 1:0.93000001 2:0.87 3:0.81 4:0.75 5:0 6:0.47840625 7:0 #
1000 1:0.17 2:0.17 3:0.17 4:0.17 5:1 6:0 7:0.081639998 #
1000 1:0.94 2:0.88 3:0.81999999 4:0.75999999 5:0.75 6:0.66046876 7:0 #
-1000 1:0 2:0 3:0 4:0 5:0 6:0 7:0.12571751 #
-1000 1:0.935 2:0.875 3:0.69499999 4:0.63499999 5:1 6:0.2348125 7:0 #
-1000 1:0.98500001 2:0.92500001 3:0.86500001 4:0.80500001 5:1 6:0.43483126 7:0 #
1000 1:0.83499998 2:0.77499998 3:0.65499997 4:0.59500003 5:0.75 6:0.67930627 7:0 #
-1000 1:0.98500001 2:0.90499997 3:0.84500003 4:0.72500002 5:0.5 6:0.39614999 7:0 #
-1000 1:0.12 2:0.12 3:0.12 4:0.12 5:0.5 6:0 7:0.77739376 #
1000 1:0.93000001 2:0.87 3:0.81 4:0.75 5:0.75 6:0.052900001 7:0 #
-1000 1:0.98000002 2:0.92000002 3:0.86000001 4:0.80000001 5:0 6:0.22280625 7:0 #
1000 1:0.17 2:0.050000001 3:0 4:0 5:0.75 6:0 7:0.44895625 #
-1000 1:0.02 2:0.02 3:0.02 4:0.02 5:1 6:0 7:0.40721563 #
1000 1:0.94 2:0.86000001 3:0.80000001 4:0.74000001 5:0.25 6:0.66642499 7:0 #
1000 1:0.92500001 2:0.86500001 3:0.80500001 4:0.745 5:0.5 6:0.53403127 7:0 #
-1000 1:0.11 2:0.11 3:0.0099999998 4:0.11 5:0.75 6:0 7:0.39495626 #
-1000 1:0.94999999 2:0.88999999 3:0.82999998 4:0.76999998 5:0.75 6:0.73167503 7:0 #
1000 1:0.82499999 2:0.76499999 3:0.64499998 4:0.58499998 5:1 6:0.25971875 7:0 #
-1000 1:0.045000002 2:0.045000002 3:0.045000002 4:0.045000002 5:0.75 6:0 7:0.14683437 #
-1000 1:0.435 2:0.435 3:0.435 4:0.435 5:0.75 6:0 7:0 #
-1000 1:0.94499999 2:0.88499999 3:0.82499999 4:0.76499999 5:0.75 6:0.72315001 7:0 #
1000 1:0.94999999 2:0.88999999 3:0.82999998 4:0.76999998 5:0.75 6:0.05405625 7:0 #
1000 1:0.91000003 2:0.85000002 3:0.73000002 4:0.67000002 5:0.75 6:0.11390625 7:0 #
-1000 1:0.935 2:0.875 3:0.69499999 4:0.63499999 5:1 6:0.2348125 7:0 #
-1000 1:0.98000002 2:0.92000002 3:0.86000001 4:0.80000001 5:0 6:0.45215625 7:0 #
1000 1:0.82499999 2:0.76499999 3:0.64499998 4:0.58499998 5:0.75 6:0.67218751 7:0 #
-1000 1:0.41 2:0.41 3:0.28999999 4:0.41 5:1 6:0 7:0 #
1000 1:0.95999998 2:0.89999998 3:0.83999997 4:0.77999997 5:0.5 6:0.43772501 7:0 #
1000 1:0.95999998 2:0.89999998 3:0.83999997 4:0.77999997 5:1 6:0.383425 7:0 #
1000 1:0.81999999 2:0.75999999 3:0.63999999 4:0.57999998 5:0.75 6:0.67218751 7:0 #
1000 1:0 2:0 3:0 4:0 5:0 6:0 7:0.4082 #
-1000 1:0.98500001 2:0.92500001 3:0.86500001 4:0.80500001 5:0.75 6:0.52688748 7:0 #
-1000 1:0.86500001 2:0.80500001 3:0.745 4:0.685 5:1 6:0.5704875 7:0 #
1000 1:0.815 2:0.755 3:0.63499999 4:0.57499999 5:0.75 6:0.66510624 7:0 #
1000 1:0 2:0 3:0 4:0 5:0 6:0 7:0.83735627 #
1000 1:0 2:0 3:0 4:0 5:0 6:0 7:0.83735627 #
1000 1:0.93000001 2:0.87 3:0.81 4:0.75 5:0.75 6:0.055225 7:0 #
-1000 1:0.41 2:0.41 3:0.28999999 4:0.41 5:1 6:0 7:0 #
-445.93907141809177 1:0.94 2:0.88 3:0.69999999 4:0.63999999 5:1 6:0.12425625 7:0 #
-1000 1:0.02 2:0.02 3:0.02 4:0.02 5:1 6:0 7:0.40721563 #
-1000 1:0.935 2:0.85500002 3:0.79500002 4:0.67500001 5:1 6:0.66841251 7:0 #
1000 1:0.23 2:0.23 3:0.23 4:0.23 5:1 6:0 7:0.40721563 #
-1000 1:0.0099999998 2:0.0099999998 3:0.0099999998 4:0.0099999998 5:0.75 6:0 7:0.11566125 #
-1000 1:0.94499999 2:0.88499999 3:0.82499999 4:0.70499998 5:1 6:0.58968753 7:0 #
-1000 1:0.96499997 2:0.90499997 3:0.84500003 4:0.72500002 5:1 6:0.42558125 7:0 #
-1000 1:0.41 2:0.41 3:0.28999999 4:0.41 5:1 6:0 7:0 #
1000 1:0.93000001 2:0.87 3:0.81 4:0.75 5:0.75 6:0.051756252 7:0 #
1000 1:0 2:0 3:0 4:0 5:0 6:0 7:0.4082 #
1000 1:0.17 2:0.050000001 3:0 4:0 5:0.75 6:0 7:0.44895625 #
-1000 1:0.97500002 2:0.91500002 3:0.85500002 4:0.79500002 5:0.75 6:0.59810627 7:0 #
1000 1:0.93000001 2:0.87 3:0.81 4:0.75 5:0.75 6:0.05405625 7:0 #
1000 1:0.94499999 2:0.88499999 3:0.82499999 4:0.76499999 5:0.75 6:0.72315001 7:0 #
-1000 1:0.12 2:0 3:0 4:0 5:0 6:0 7:0.66516876 #
1000 1:0.95999998 2:0.89999998 3:0.83999997 4:0.77999997 5:1 6:0.42590001 7:0 #
-1000 1:0.98000002 2:0.92000002 3:0.86000001 4:0.80000001 5:1 6:0.49856251 7:0 #
-1000 1:0.98000002 2:0.92000002 3:0.86000001 4:0.80000001 5:1 6:0.446675 7:0 #
1000 1:0.91000003 2:0.85000002 3:0.73000002 4:0.67000002 5:0.75 6:0.112225 7:0 #
1000 1:0.96499997 2:0.90499997 3:0.78500003 4:0.72500002 5:0.75 6:0.40744999 7:0 #
1000 1:0.95499998 2:0.89499998 3:0.77499998 4:0.71499997 5:0.75 6:0.60536873 7:0 #
1000 1:0.84500003 2:0.78500003 3:0.66500002 4:0.60500002 5:1 6:0.28686875 7:0 #
1000 1:0.094999999 2:0.075000003 3:0.094999999 4:0.094999999 5:0 6:0 7:0.38931251 #
-1000 1:0.025 2:0.025 3:0.025 4:0.025 5:0 6:0 7:0.079772502 #
-1000 1:0.0049999999 2:0.0049999999 3:0.0049999999 4:0.0049999999 5:1 6:0 7:0.19443125 #
1000 1:0.094999999 2:0.075000003 3:0.094999999 4:0.094999999 5:0 6:0 7:0.38931251 #
-1000 1:0.41 2:0.41 3:0.28999999 4:0.41 5:1 6:0 7:0 #
1000 1:0 2:0 3:0 4:0 5:0 6:0 7:0.4082 #
1000 1:0.93000001 2:0.87 3:0.81 4:0.75 5:0.75 6:0.082656249 7:0 #
-1000 1:0.285 2:0.285 3:0.285 4:0.285 5:1 6:0.29590625 7:0.04141875 #
-1000 1:0.93000001 2:0.87 3:0.69 4:0.63 5:1 6:0.2348125 7:0 #
1000 1:0.88999999 2:0.82999998 3:0.76999998 4:0.70999998 5:0.5 6:0.105625 7:0 #
1000 1:0.83999997 2:0.77999997 3:0.66000003 4:0.60000002 5:1 6:0.28224999 7:0 #
1000 1:0.89499998 2:0.83499998 3:0.77499998 4:0.71499997 5:0.5 6:0.10725625 7:0 #
-1000 1:0 2:0 3:0 4:0 5:0 6:0 7:0.084186248 #
-1000 1:0.23 2:0.23 3:0.23 4:0.23 5:1 6:0 7:0.33501562 #
-1000 1:0.88999999 2:0.82999998 3:0.70999998 4:0.64999998 5:0.75 6:0.47778124 7:0 #
1000 1:0.19499999 2:0.075000003 3:0.19499999 4:0.19499999 5:0 6:0 7:0.38931251 #
1000 1:0.95999998 2:0.89999998 3:0.83999997 4:0.77999997 5:0.75 6:0.084100001 7:0 #
-1000 1:0.81 2:0.75 3:0.69 4:0.63 5:1 6:0.51341248 7:0 #
-1000 1:0.17 2:0.050000001 3:0 4:0 5:0.75 6:0 7:0.44895625 #
-1000 1:0.98000002 2:0.92000002 3:0.86000001 4:0.80000001 5:0.5 6:0.54624999 7:0 #
-1000 1:0.0049999999 2:0.0049999999 3:0.0049999999 4:0.0049999999 5:0.75 6:0 7:0.14597084 #
-1000 1:0.95499998 2:0.875 3:0.815 4:0.755 5:0.25 6:0.68105 7:0 #
1000 1:0.91000003 2:0.85000002 3:0.79000002 4:0.73000002 5:0.5 6:0.1156 7:0 #
-1000 1:0.95999998 2:0.89999998 3:0.72000003 4:0.66000003 5:1 6:0.12780625 7:0 #
1000 1:0.16500001 2:0.16500001 3:0.16500001 4:0.16500001 5:1 6:0 7:0.098053753 #
1000 1:0.94499999 2:0.88499999 3:0.76499999 4:0.70499998 5:0.75 6:0.3985 7:0 #
-1000 1:0.98500001 2:0.92500001 3:0.86500001 4:0.80500001 5:0.75 6:0.52688748 7:0 #
-1000 1:0.96499997 2:0.90499997 3:0.84500003 4:0.78500003 5:1 6:0.64411253 7:0 #
-1000 1:0.11 2:0.11 3:0.0099999998 4:0.11 5:0.75 6:0 7:0.39495626 #
-1000 1:0.95999998 2:0.89999998 3:0.83999997 4:0.77999997 5:1 6:0.65216249 7:0 #
-1000 1:0.96499997 2:0.90499997 3:0.84500003 4:0.78500003 5:0.5 6:0.63261873 7:0 #
-1000 1:0.11 2:0.11 3:0.0099999998 4:0.11 5:0.75 6:0 7:0.39495626 #
1000 1:0.94 2:0.88 3:0.81999999 4:0.75999999 5:0.5 6:0.51545 7:0 #
-1000 1:0.98500001 2:0.92500001 3:0.86500001 4:0.80500001 5:0.75 6:0 7:0 #
1000 1:0.85500002 2:0.79500002 3:0.67500001 4:0.61500001 5:0.75 6:0.69365627 7:0 #
-1000 1:0.155 2:0.155 3:0.155 4:0.155 5:0.5 6:0 7:0.3887125 #
-1000 1:0.12 2:0 3:0 4:0 5:0 6:0 7:0.66516876 #
1000 1:0.95999998 2:0.89999998 3:0.77999997 4:0.72000003 5:0.75 6:0.61212498 7:0 #
1000 1:0.75 2:0.69 3:0.63 4:0.56999999 5:1 6:0.28143126 7:0 #
1000 1:0.95499998 2:0.89499998 3:0.83499998 4:0.77499998 5:0.5 6:0.13875625 7:0 #
1000 1:0.13 2:0.13 3:0.13 4:0.13 5:0.75 6:0 7:0.289 #
-1000 1:0.175 2:0.175 3:0.079999998 4:0.175 5:1 6:0 7:0.19943126 #
-1000 1:0.155 2:0.085000001 3:0.085000001 4:0 5:0.5 6:0 7:0.3610625 #
1000 1:0.97500002 2:0.91500002 3:0.79500002 4:0.73500001 5:0.75 6:0.41196251 7:0 #
1000 1:0.27500001 2:0.27500001 3:0.27500001 4:0.27500001 5:0.75 6:0.30003124 7:0.025561251 #
1000 1:0.17 2:0.050000001 3:0 4:0 5:0.75 6:0 7:0.44895625 #
-1000 1:0.98500001 2:0.92500001 3:0.86500001 4:0.80500001 5:0.75 6:0 7:0 #
-1000 1:0.17 2:0.050000001 3:0 4:0 5:0.75 6:0 7:0.44895625 #
1000 1:0 2:0 3:0 4:0 5:0 6:0 7:0.4473125 #
1000 1:0.91500002 2:0.85500002 3:0.79500002 4:0.73500001 5:0.5 6:0.11730625 7:0 #
-1000 1:0.95999998 2:0.88 3:0.81999999 4:0.69999999 5:1 6:0.5250625 7:0 #
1000 1:0.91000003 2:0.85000002 3:0.73000002 4:0.67000002 5:0.75 6:0.13322499 7:0 #
-1000 1:0.98000002 2:0.92000002 3:0.86000001 4:0.80000001 5:0.25 6:0 7:0 #
1000 1:0.92500001 2:0.86500001 3:0.80500001 4:0.745 5:0.5 6:0.1225 7:0 #
-999.99776679705246 1:0.98500001 2:0.86500001 3:0.80500001 4:0.74000001 5:0.5 6:0.13140625 7:0 #
-1000 1:0.12 2:0 3:0 4:0 5:0 6:0 7:0.66516876 #
-1000 1:0.98000002 2:0.92000002 3:0.86000001 4:0.80000001 5:0.25 6:0 7:0 #
1000 1:0.16500001 2:0.16500001 3:0.16500001 4:0.16500001 5:1 6:0.2025 7:0.056718752 #
-1000 1:0.175 2:0.175 3:0.079999998 4:0.175 5:1 6:0 7:0.19943126 #
-1000 1:0.07 2:0.07 3:0.07 4:0.07 5:1 6:0 7:0.40080625 #
-1000 1:0.86000001 2:0.80000001 3:0.74000001 4:0.68000001 5:1 6:0.56691247 7:0 #
-1000 1:0.98500001 2:0.90499997 3:0.84500003 4:0.72500002 5:0 6:0.46000624 7:0 #
-1000 1:0.94499999 2:0.88499999 3:0.82499999 4:0.76499999 5:1 6:0.36141875 7:0 #
-1000 1:0.98000002 2:0.92000002 3:0.86000001 4:0.80000001 5:1 6:0.13505626 7:0 #
1000 1:0.17 2:0.050000001 3:0 4:0 5:0.75 6:0 7:0.44895625 #
1000 1:0.94499999 2:0.88499999 3:0.82499999 4:0.76499999 5:0.5 6:0.13322499 7:0 #
1000 1:0.17 2:0.050000001 3:0 4:0 5:0.75 6:0 7:0.44895625 #
1000 1:0.94 2:0.88 3:0.81999999 4:0.75999999 5:0.75 6:0.71912497 7:0 #
1000 1:0.285 2:0.285 3:0.285 4:0.285 5:1 6:0.29183125 7:0.04141875 #
-1000 1:0.88999999 2:0.82999998 3:0.76999998 4:0.64999998 5:1 6:0.59381253 7:0 #
-1000 1:0.87 2:0.81 3:0.69 4:0.63 5:0.75 6:0.70815623 7:0 #
-1000 1:0.85500002 2:0.79500002 3:0.73500001 4:0.67500001 5:1 6:0.55941248 7:0 #
1000 1:0.13 2:0.13 3:0.13 4:0.13 5:0.75 6:0 7:0.289 #
-1000 1:0.95999998 2:0.89999998 3:0.83999997 4:0.77999997 5:1 6:0.65216249 7:0 #
1000 1:0.17 2:0.050000001 3:0 4:0 5:0.75 6:0 7:0.44895625 #
1000 1:0.17 2:0.050000001 3:0 4:0 5:0.75 6:0 7:0.44895625 #
-1000 1:0.17 2:0.050000001 3:0 4:0 5:0.75 6:0 7:0.44895625 #
-1000 1:0.98500001 2:0.90499997 3:0.84500003 4:0.72500002 5:0 6:0.46000624 7:0 #
-1000 1:0.98500001 2:0.92500001 3:0.86500001 4:0.80500001 5:1 6:0.390425 7:0 #
-1000 1:0.155 2:0.155 3:0.155 4:0.155 5:0.5 6:0 7:0.3887125 #
-1000 1:0.079999998 2:0.079999998 3:0.079999998 4:0.079999998 5:0.25 6:0 7:0.26855314 #
1000 1:0.97500002 2:0.91500002 3:0.85500002 4:0.79500002 5:0.75 6:0.44652501 7:0 #
1000 1:0.36000001 2:0.36000001 3:0.36000001 4:0.23999999 5:1 6:0.26971251 7:0 #
-1000 1:0.97000003 2:0.91000003 3:0.85000002 4:0.79000002 5:0 6:0.3878125 7:0 #
1000 1:0.255 2:0.255 3:0.255 4:0.255 5:1 6:0.1521 7:0 #
1000 1:0.91500002 2:0.85500002 3:0.79500002 4:0.73500001 5:0.75 6:0.68617499 7:0 #
-1000 1:0.75 2:0.69 3:0.50999999 4:0.44999999 5:1 6:0 7:0.13326125 #
-1000 1:0.935 2:0.875 3:0.815 4:0.755 5:0.75 6:0.710675 7:0 #
1000 1:0.91000003 2:0.85000002 3:0.73000002 4:0.67000002 5:0.75 6:0.12780625 7:0 #
1000 1:0.935 2:0.875 3:0.815 4:0.755 5:0.5 6:0.50936878 7:0 #
-1000 1:0.81 2:0.75 3:0.69 4:0.63 5:1 6:0.51341248 7:0 #
1000 1:0.245 2:0.245 3:0.245 4:0.245 5:1 6:0.15015624 7:0.034689061 #
1000 1:0.17 2:0.050000001 3:0 4:0 5:0.75 6:0 7:0.44895625 #
-1000 1:0.41 2:0.41 3:0.28999999 4:0.41 5:1 6:0 7:0 #
-1000 1:0 2:0 3:0 4:0 5:0 6:0 7:0.2783125 #
1000 1:0.11 2:0.11 3:0.0099999998 4:0.11 5:0.75 6:0 7:0.39495626 #
1000 1:0.92500001 2:0.86500001 3:0.80500001 4:0.745 5:0.75 6:0.54751247 7:0 #
-1000 1:0.98000002 2:0.92000002 3:0.86000001 4:0.80000001 5:0.5 6:0.54624999 7:0 #
1000 1:0.155 2:0.155 3:0.155 4:0.155 5:0.5 6:0 7:0.3887125 #
-1000 1:0.98000002 2:0.92000002 3:0.86000001 4:0.80000001 5:1 6:0.4641625 7:0 #
1000 1:0.11 2:0.11 3:0.0099999998 4:0.11 5:0.75 6:0 7:0.39495626 #
1000 1:0.94999999 2:0.88999999 3:0.76999998 4:0.70999998 5:0.75 6:0.60536873 7:0 #
1000 1:0.94999999 2:0.87 3:0.81 4:0.75 5:0.25 6:0.67777503 7:0 #
1000 1:0.155 2:0.155 3:0.155 4:0.155 5:0.5 6:0 7:0.3887125 #
1000 1:0.98500001 2:0.92500001 3:0.86500001 4:0.80500001 5:1 6:0.66026253 7:0 #
1000 1:0.83499998 2:0.77499998 3:0.65499997 4:0.59500003 5:1 6:0.27312499 7:0 #
1000 1:0.91000003 2:0.85000002 3:0.73000002 4:0.67000002 5:0.75 6:0.13689999 7:0 #
-1000 1:0.175 2:0.175 3:0.079999998 4:0.175 5:1 6:0 7:0.27645937 #
1000 1:0.155 2:0.155 3:0.155 4:0.155 5:0.5 6:0 7:0.3887125 #
-999.99844793634304 1:0.95999998 2:0.83999997 3:0.77999997 4:0.72000003 5:0.25 6:0.1024 7:0 #
1000 1:0.94999999 2:0.88999999 3:0.82999998 4:0.76999998 5:0.5 6:0.13689999 7:0 #
1000 1:0.92000002 2:0.86000001 3:0.80000001 4:0.74000001 5:0.75 6:0.5441125 7:0 #
1000 1:0.11 2:0.11 3:0.0099999998 4:0.11 5:0.75 6:0 7:0.39495626 #
-1000 1:0.98500001 2:0.92500001 3:0.86500001 4:0.80500001 5:0.5 6:0.48335001 7:0 #
1000 1:0.91000003 2:0.85000002 3:0.73000002 4:0.67000002 5:0.75 6:0.1156 7:0 #
1000 1:0.93000001 2:0.87 3:0.81 4:0.75 5:1 6:0.25938126 7:0 #
-1000 1:0.98500001 2:0.92500001 3:0.86500001 4:0.80500001 5:0.5 6:0 7:0 #
1000 1:0.935 2:0.875 3:0.815 4:0.755 5:0.5 6:0.12780625 7:0 #
-1000 1:0.85500002 2:0.79500002 3:0.73500001 4:0.67500001 5:1 6:0.55941248 7:0 #
1000 1:0.89499998 2:0.83499998 3:0.77499998 4:0.65499997 5:1 6:0.60616249 7:0 #
-1000 1:0.98500001 2:0.92500001 3:0.86500001 4:0.80500001 5:0.75 6:0 7:0 #
-1000 1:0.84500003 2:0.78500003 3:0.72500002 4:0.66500002 5:1 6:0.42578125 7:0 #
-1000 1:0.84500003 2:0.78500003 3:0.72500002 4:0.66500002 5:1 6:0.54848748 7:0 #
-1000 1:0.94999999 2:0.88999999 3:0.82999998 4:0.76999998 5:0 6:0.13689999 7:0 #
1000 1:0.935 2:0.875 3:0.815 4:0.755 5:0.75 6:0.710675 7:0 #
1000 1:0.16500001 2:0.16500001 3:0.16500001 4:0.16500001 5:1 6:0.20025624 7:0.056718752 #
1000 1:0.94499999 2:0.88499999 3:0.82499999 4:0.70499998 5:1 6:0.58968753 7:0 #
1000 1:0.82999998 2:0.76999998 3:0.64999998 4:0.58999997 5:0.75 6:0.67930627 7:0 #
1000 1:0.13 2:0.13 3:0.075000003 4:0.13 5:0.75 6:0 7:0.289 #
1000 1:0.11 2:0.11 3:0.0099999998 4:0.11 5:0.75 6:0 7:0.39495626 #
1000 1:0.94999999 2:0.88999999 3:0.82999998 4:0.76999998 5:0.75 6:0.66752499 7:0 #
1000 1:0.94999999 2:0.88999999 3:0.82999998 4:0.76999998 5:0.5 6:0.43306249 7:0 #
-1000 1:0 2:0 3:0 4:0 5:0 6:0 7:0.18705624 #
1000 1:0.16500001 2:0.16500001 3:0.16500001 4:0.16500001 5:1 6:0.24255624 7:0.085078128 #
1000 1:0.93000001 2:0.87 3:0.81 4:0.75 5:0.5 6:0.50646877 7:0 #
1000 1:0.16500001 2:0.16500001 3:0.16500001 4:0.16500001 5:1 6:0.21160001 7:0.056718752 #
1000 1:0.93000001 2:0.87 3:0.81 4:0.75 5:0.75 6:0.55388123 7:0 #
1000 1:0.97000003 2:0.91000003 3:0.85000002 4:0.79000002 5:0.5 6:0.14822499 7:0 #
-1000 1:0.98500001 2:0.92500001 3:0.80500001 4:0.745 5:0.25 6:0.21390624 7:0 #
-1000 1:0.02 2:0.02 3:0.02 4:0.02 5:1 6:0 7:0.33501562 #
1000 1:0.94499999 2:0.88499999 3:0.82499999 4:0.76499999 5:0.5 6:0.42842501 7:0 #
-1000 1:0.83999997 2:0.77999997 3:0.72000003 4:0.66000003 5:1 6:0.54506248 7:0 #
1000 1:0.16500001 2:0.16500001 3:0.16500001 4:0.16500001 5:1 6:0.24255624 7:0.085078128 #
1000 1:0.94499999 2:0.88499999 3:0.76499999 4:0.70499998 5:0.75 6:0.59864998 7:0 #
1000 1:0.89999998 2:0.83999997 3:0.77999997 4:0.72000003 5:0.5 6:0.11055625 7:0 #
-1000 1:0.94 2:0.88 3:0.81999999 4:0.75999999 5:0.75 6:0.71912497 7:0 #
-1000 1:0.86500001 2:0.80500001 3:0.745 4:0.685 5:1 6:0.5704875 7:0 #
-1000 1:0.85000002 2:0.79000002 3:0.73000002 4:0.67000002 5:1 6:0.55591249 7:0 #
1000 1:0.935 2:0.875 3:0.815 4:0.755 5:0.75 6:0.052900001 7:0 #
-1000 1:0.97500002 2:0.91500002 3:0.85500002 4:0.79500002 5:0.75 6:0.119025 7:0 #
-1000 1:0.115 2:0.115 3:0.115 4:0.115 5:0.5 6:0 7:0.24203438 #
-1000 1:0.41999999 2:0.41999999 3:0.41999999 4:0.33500001 5:0.5 6:0 7:0.18275625 #
1000 1:0.94 2:0.88 3:0.81999999 4:0.75999999 5:0.5 6:0.13140625 7:0 #
-1000 1:0.86000001 2:0.80000001 3:0.74000001 4:0.68000001 5:1 6:0.56691247 7:0 #
-1000 1:0 2:0 3:0 4:0 5:0 6:0 7:0.19140625 #
1000 1:0.93000001 2:0.87 3:0.81 4:0.75 5:0.75 6:0.056406248 7:0 #
1000 1:0.85000002 2:0.79000002 3:0.67000002 4:0.61000001 5:0.75 6:0.69365627 7:0 #
1000 1:0.96499997 2:0.90499997 3:0.84500003 4:0.78500003 5:0.5 6:0.43772501 7:0 #
-1000 1:0.98500001 2:0.92500001 3:0.80500001 4:0.745 5:0.75 6:0 7:0 #
-1000 1:0.86000001 2:0.80000001 3:0.74000001 4:0.68000001 5:1 6:0.44135624 7:0 #
1000 1:0.93000001 2:0.87 3:0.81 4:0.75 5:0.75 6:0.057599999 7:0 #
-1000 1:0.96499997 2:0.90499997 3:0.78500003 4:0.72500002 5:0.75 6:0.61212498 7:0 #
1000 1:0.95499998 2:0.89499998 3:0.83499998 4:0.77499998 5:0.75 6:0.055225 7:0 #
1000 1:0.83999997 2:0.77999997 3:0.66000003 4:0.60000002 5:0.75 6:0.68646252 7:0 #
1000 1:0.93000001 2:0.87 3:0.81 4:0.75 5:0.5 6:0.12602501 7:0 #
-1000 1:0.86500001 2:0.80500001 3:0.745 4:0.685 5:1 6:0.44568124 7:0 #
-1000 1:0 2:0 3:0 4:0 5:0 6:0 7:0.19140625 #
1000 1:0.155 2:0.155 3:0.155 4:0.155 5:0.5 6:0 7:0.3887125 #
1000 1:0.90499997 2:0.84500003 3:0.78500003 4:0.72500002 5:0.5 6:0.112225 7:0 #
1000 1:0.91000003 2:0.85000002 3:0.73000002 4:0.67000002 5:0.75 6:0.12425625 7:0 #
1000 1:0.93000001 2:0.87 3:0.81 4:0.75 5:1 6:0.35930625 7:0 #
-1000 1:0.83999997 2:0.77999997 3:0.72000003 4:0.66000003 5:1 6:0.42160624 7:0 #
-1000 1:0.85500002 2:0.79500002 3:0.73500001 4:0.67500001 5:1 6:0.43566251 7:0 #
1000 1:0.91000003 2:0.85000002 3:0.73000002 4:0.67000002 5:0.75 6:0.12075625 7:0 #
-1000 1:0.96499997 2:0.90499997 3:0.72500002 4:0.66500002 5:1 6:0.12780625 7:0 #
1000 1:0.92000002 2:0.86000001 3:0.80000001 4:0.74000001 5:0.5 6:0.12075625 7:0 #
-1000 1:0.85000002 2:0.79000002 3:0.73000002 4:0.67000002 5:1 6:0.55591249 7:0 #
1000 1:0.93000001 2:0.87 3:0.81 4:0.75 5:0.75 6:0.706725 7:0 #
-1000 1:0.98500001 2:0.90499997 3:0.84500003 4:0.72500002 5:0.5 6:0.53776872 7:0 #
1000 1:0.91000003 2:0.85000002 3:0.73000002 4:0.67000002 5:0.75 6:0.1225 7:0 #
1000 1:0.94499999 2:0.88499999 3:0.82499999 4:0.76499999 5:1 6:0.41025001 7:0 #
-1000 1:0.84500003 2:0.78500003 3:0.72500002 4:0.66500002 5:1 6:0.54848748 7:0 #
1000 1:0.92500001 2:0.86500001 3:0.80500001 4:0.685 5:1 6:0.47238126 7:0 #
1000 1:0.87 2:0.81 3:0.75 4:0.69 5:1 6:0.203025 7:0 #
-1000 1:0.83999997 2:0.77999997 3:0.72000003 4:0.66000003 5:1 6:0.54506248 7:0 #
1000 1:0.92000002 2:0.86000001 3:0.80000001 4:0.74000001 5:0.75 6:0.694475 7:0 #
-1000 1:0.98000002 2:0.92000002 3:0.86000001 4:0.80000001 5:0.75 6:0 7:0 #
1000 1:0.91000003 2:0.85000002 3:0.73000002 4:0.67000002 5:0.75 6:0.13505626 7:0 #
1000 1:0.91000003 2:0.85000002 3:0.73000002 4:0.67000002 5:0.75 6:0.13140625 7:0 #
1000 1:0.91000003 2:0.85000002 3:0.73000002 4:0.67000002 5:0.75 6:0.12602501 7:0 #
1000 1:0.94499999 2:0.88499999 3:0.82499999 4:0.76499999 5:0.75 6:0.05405625 7:0 #
-1000 1:0.98000002 2:0.92000002 3:0.83999997 4:0.77999997 5:0.75 6:0 7:0 #
-1000 1:0.95999998 2:0.88 3:0.81999999 4:0.69999999 5:1 6:0.5250625 7:0 #
-1000 1:0.98000002 2:0.92000002 3:0.86000001 4:0.80000001 5:0.75 6:0 7:0 #
-1000 1:0.95999998 2:0.83999997 3:0.77999997 4:0.72000003 5:0.25 6:0.1024 7:0 #
-1000 1:0.97000003 2:0.91000003 3:0.85000002 4:0.79000002 5:0.75 6:0 7:0 #
1000 1:0.92500001 2:0.86500001 3:0.80500001 4:0.745 5:0.75 6:0.69835001 7:0 #
1000 1:0.93000001 2:0.87 3:0.81 4:0.75 5:1 6:0.36970624 7:0 #
-1000 1:0.85000002 2:0.79000002 3:0.73000002 4:0.67000002 5:1 6:0.43141249 7:0 #
-1000 1:0.89499998 2:0.83499998 3:0.77499998 4:0.71499997 5:0.5 6:0.112225 7:0 #
1000 1:0.815 2:0.755 3:0.69499999 4:0.63499999 5:1 6:0.2062625 7:0 #
-1000 1:0.83499998 2:0.77499998 3:0.71499997 4:0.65499997 5:1 6:0.53771251 7:0 #
-1000 1:0.83499998 2:0.77499998 3:0.71499997 4:0.65499997 5:1 6:0.4160375 7:0 #
-1000 1:0.95499998 2:0.89499998 3:0.83499998 4:0.77499998 5:1 6:0.65216249 7:0 #
-1000 1:0.31999999 2:0.31999999 3:0.31999999 4:0.31999999 5:0.75 6:0 7:0.62340623 #
-1000 1:0 2:0 3:0 4:0 5:0 6:0 7:0.1849 #
1000 1:0.94999999 2:0.88999999 3:0.82999998 4:0.76999998 5:1 6:0.41571876 7:0 #
1000 1:0.93000001 2:0.87 3:0.81 4:0.75 5:0.75 6:0.078400001 7:0 #
-1000 1:0.495 2:0.495 3:0.495 4:0.495 5:0 6:0.17015626 7:0 #
-1000 1:0.13 2:0.13 3:0.13 4:0.13 5:0.75 6:0 7:0.4826 #
-1000 1:0.505 2:0.505 3:0.505 4:0.30500001 5:0.5 6:0 7:0 #
-1000 1:0 2:0 3:0 4:0 5:0 6:0 7:0.62048751 #
-1000 1:0.17 2:0.17 3:0.050000001 4:0 5:0.75 6:0 7:0.44895625 #
-1000 1:0 2:0 3:0 4:0 5:0 6:0 7:0.62048751 #
1000 1:0.95999998 2:0.89999998 3:0.77999997 4:0.72000003 5:0.75 6:0.40744999 7:0 #
-1000 1:0.42500001 2:0.42500001 3:0.42500001 4:0.42500001 5:0 6:0 7:0 #
1000 1:0.82999998 2:0.76999998 3:0.64999998 4:0.58999997 5:1 6:0.26861876 7:0 #
-1000 1:0.48500001 2:0.48500001 3:0.48500001 4:0.48500001 5:0 6:0 7:0 #
1000 1:0.80500001 2:0.745 3:0.685 4:0.625 5:1 6:0.19939999 7:0 #
1000 1:0.31999999 2:0.31999999 3:0.22499999 4:0.31999999 5:0.75 6:0 7:0.36340624 #
1000 1:0 2:0 3:0 4:0 5:0 6:0 7:0.62048751 #
1000 1:0.36000001 2:0.36000001 3:0.36000001 4:0.23999999 5:1 6:0.27770001 7:0 #
-1000 1:0.98000002 2:0.92000002 3:0.86000001 4:0.80000001 5:1 6:0.23280625 7:0 #
-1000 1:0 2:0 3:0 4:0 5:0 6:0 7:0.66516876 #
1000 1:0.95999998 2:0.89999998 3:0.83999997 4:0.77999997 5:0.75 6:0.44181249 7:0 #
1000 1:0.285 2:0.285 3:0.285 4:0.285 5:1 6:0.27635625 7:0.04141875 #
-1000 1:0 2:0 3:0 4:0 5:0 6:0 7:0.62048751 #
1000 1:0.285 2:0.285 3:0.285 4:0.285 5:1 6:0.27265626 7:0.04141875 #
1000 1:0.285 2:0.285 3:0.285 4:0.285 5:1 6:0.29590625 7:0.04141875 #
-1000 1:0.83499998 2:0.77499998 3:0.71499997 4:0.65499997 5:1 6:0.53771251 7:0 #
1000 1:0 2:0 3:0 4:0 5:0 6:0 7:0.62048751 #
1000 1:0 2:0 3:0 4:0 5:0 6:0 7:0.4082 #
1000 1:0.12 2:0 3:0 4:0 5:0 6:0 7:0.66516876 #
-1000 1:0.13500001 2:0.13500001 3:0.13500001 4:0.13500001 5:0.75 6:0 7:0.48406875 #
1000 1:0 2:0 3:0 4:0 5:0 6:0 7:0.61645627 #
-943.19465383380157 1:0.13500001 2:0.13500001 3:0.11 4:0 5:1 6:0 7:0.034861252 #
-1000 1:0.95999998 2:0.89999998 3:0.83999997 4:0.72000003 5:1 6:0.41640624 7:0 #
-1000 1:0 2:0 3:0 4:0 5:0 6:0 7:0.61645627 #
1000 1:0 2:0 3:0 4:0 5:0 6:0 7:0.62048751 #
1000 1:0.95499998 2:0.89499998 3:0.77499998 4:0.71499997 5:0.75 6:0.40296251 7:0 #
1000 1:0.93000001 2:0.87 3:0.81 4:0.75 5:0.75 6:0.084100001 7:0 #
-1000 1:0.98000002 2:0.92000002 3:0.86000001 4:0.80000001 5:1 6:0.4641625 7:0 #
1000 1:0.93000001 2:0.87 3:0.81 4:0.75 5:0.75 6:0.067599997 7:0 #
-1000 1:0.12 2:0 3:0 4:0 5:0 6:0 7:0.66516876 #
-1000 1:0.87 2:0.81 3:0.75 4:0.69 5:1 6:0.32185 7:0 #
1000 1:0.93000001 2:0.87 3:0.81 4:0.75 5:1 6:0.3644875 7:0 #
1000 1:0 2:0 3:0 4:0 5:0 6:0 7:0.66516876 #
1000 1:0.285 2:0.285 3:0.285 4:0.285 5:1 6:0.26515624 7:0.04141875 #
-1000 1:0 2:0 3:0 4:0 5:0 6:0 7:0.62048751 #
1000 1:0.98000002 2:0.92000002 3:0.86000001 4:0.80000001 5:0.75 6:0.77022499 7:0 #
-1000 1:0.94999999 2:0.88999999 3:0.82999998 4:0.76999998 5:1 6:0.20025624 7:0 #
-1000 1:0.94 2:0.88 3:0.81999999 4:0.75999999 5:1 6:0.39095625 7:0 #
-1000 1:0 2:0 3:0 4:0 5:0 6:0 7:0.62048751 #
-1000 1:0 2:0 3:0 4:0 5:0 6:0 7:0.62048751 #
1000 1:0 2:0 3:0 4:0 5:0 6:0 7:0.62048751 #
-889.82548787360508 1:0.13 2:0.055 3:0.094999999 4:0.13 5:1 6:0 7:0.061633334 #
1000 1:0.285 2:0.285 3:0.285 4:0.285 5:1 6:0.25053126 7:0 #
1000 1:0 2:0 3:0 4:0 5:0 6:0 7:0.62048751 #
1000 1:0.094999999 2:0.075000003 3:0.094999999 4:0.094999999 5:0 6:0 7:0.38931251 #
1000 1:0 2:0 3:0 4:0 5:0 6:0 7:0.62048751 #
1000 1:0.155 2:0.155 3:0.155 4:0.155 5:0.5 6:0 7:0.3887125 #
-1000 1:0.97000003 2:0.91000003 3:0.79000002 4:0.73000002 5:0.75 6:0.41196251 7:0 #
-1000 1:0 2:0 3:0 4:0 5:0 6:0 7:0.62048751 #
-1000 1:0.95999998 2:0.89999998 3:0.77999997 4:0.72000003 5:1 6:0.21390624 7:0 #
1000 1:0.93000001 2:0.87 3:0.81 4:0.75 5:1 6:0.21456251 7:0 #
1000 1:0 2:0 3:0 4:0 5:0 6:0 7:0.62048751 #
1000 1:0.93000001 2:0.87 3:0.81 4:0.75 5:0.75 6:0.081225 7:0 #
-1000 1:0.95499998 2:0.89499998 3:0.77499998 4:0.71499997 5:1 6:0.21160001 7:0 #
1000 1:0 2:0 3:0 4:0 5:0 6:0 7:0.4082 #
1000 1:0.95499998 2:0.89499998 3:0.83499998 4:0.77499998 5:1 6:0.42036876 7:0 #
1000 1:0.93000001 2:0.87 3:0.81 4:0.75 5:0.75 6:0.060024999 7:0 #
1000 1:0 2:0 3:0 4:0 5:0 6:0 7:0.62048751 #
1000 1:0.86000001 2:0.80000001 3:0.74000001 4:0.62 5:1 6:0.53561252 7:0 #
-1000 1:0.98000002 2:0.92000002 3:0.86000001 4:0.80000001 5:1 6:0.24255624 7:0 #
-1000 1:0.495 2:0.495 3:0.495 4:0.495 5:0 6:0.17015626 7:0 #
1000 1:0 2:0 3:0 4:0 5:0 6:0 7:0.4473125 #
-1000 1:0 2:0 3:0 4:0 5:0 6:0 7:0.1849 #
-1000 1:0 2:0 3:0 4:0 5:0 6:0 7:0.62048751 #
1000 1:0.31999999 2:0.31999999 3:0.31999999 4:0.31999999 5:0.75 6:0 7:0.62340623 #
1000 1:0.93000001 2:0.87 3:0.81 4:0.75 5:0.75 6:0.075625002 7:0 #
1000 1:0.93000001 2:0.87 3:0.81 4:0.75 5:0.75 6:0.068906248 7:0 #
-1000 1:0 2:0 3:0 4:0 5:0 6:0 7:0.4473125 #
1000 1:0.13 2:0.13 3:0.13 4:0.13 5:0.75 6:0 7:0.289 #
1000 1:0.13500001 2:0.13500001 3:0.13500001 4:0.13500001 5:0.75 6:0 7:0.48406875 #
1000 1:0 2:0 3:0 4:0 5:0 6:0 7:0.62048751 #
-1000 1:0.98500001 2:0.92500001 3:0.86500001 4:0.80500001 5:1 6:0.23765625 7:0 #
-1000 1:0.98500001 2:0.92500001 3:0.86500001 4:0.80500001 5:0.75 6:0.32881251 7:0 #
1000 1:0.13 2:0.13 3:0.13 4:0.13 5:0.75 6:0 7:0.4826 #
-1000 1:0.98500001 2:0.92500001 3:0.86500001 4:0.80500001 5:1 6:0.390425 7:0 #
-1000 1:0 2:0 3:0 4:0 5:0 6:0 7:0.62048751 #
-1000 1:0 2:0 3:0 4:0 5:0 6:0 7:0.62048751 #
1000 1:0 2:0 3:0 4:0 5:0 6:0 7:0.62048751 #
1000 1:0.12 2:0.12 3:0.12 4:0.12 5:0.5 6:0 7:0.77739376 #
1000 1:0.95499998 2:0.89499998 3:0.83499998 4:0.71499997 5:1 6:0.59635627 7:0 #
-1000 1:0.13500001 2:0.13500001 3:0.13500001 4:0.13500001 5:0.75 6:0 7:0.48406875 #
1000 1:0.13500001 2:0.13500001 3:0.13500001 4:0.13500001 5:0.75 6:0 7:0.48406875 #
1000 1:0.285 2:0.285 3:0.285 4:0.285 5:1 6:0.25408125 7:0 #
1000 1:0.13 2:0.13 3:0.13 4:0.13 5:0.75 6:0 7:0.4826 #
-1000 1:0.89999998 2:0.83999997 3:0.77999997 4:0.72000003 5:1 6:0.17850626 7:0 #
-1000 1:0.98500001 2:0.92500001 3:0.86500001 4:0.80500001 5:0.5 6:0.37402499 7:0 #
1000 1:0 2:0 3:0 4:0 5:0 6:0 7:0.62048751 #
1000 1:0.12 2:0.12 3:0.12 4:0.12 5:0.5 6:0 7:0.77739376 #
-1000 1:0 2:0 3:0 4:0 5:0 6:0 7:0.62048751 #
-1000 1:0 2:0 3:0 4:0 5:0 6:0 7:0.62048751 #
1000 1:0 2:0 3:0 4:0 5:0 6:0 7:0.62048751 #
-1000 1:0 2:0 3:0 4:0 5:0 6:0 7:0.62048751 #
-1000 1:0.13500001 2:0.13500001 3:0.13500001 4:0.13500001 5:0.75 6:0 7:0.48406875 #
-1000 1:0 2:0 3:0 4:0 5:0 6:0 7:0.62048751 #
1000 1:0.93000001 2:0.87 3:0.81 4:0.69 5:1 6:0.47828749 7:0 #
1000 1:0.12 2:0 3:0 4:0 5:0 6:0 7:0.66516876 #
1000 1:0 2:0 3:0 4:0 5:0 6:0 7:0.62048751 #
-1000 1:0 2:0 3:0 4:0 5:0 6:0 7:0.62048751 #
-1000 1:0 2:0 3:0 4:0 5:0 6:0 7:0.41102499 #
1000 1:0.93000001 2:0.87 3:0.81 4:0.75 5:0.75 6:0.071556248 7:0 #
1000 1:0.96499997 2:0.90499997 3:0.84500003 4:0.78500003 5:0.75 6:0.085556246 7:0 #
-1000 1:0 2:0 3:0 4:0 5:0 6:0 7:0.62048751 #
-1000 1:0.13 2:0.13 3:0.13 4:0.13 5:0.75 6:0 7:0.4826 #
1000 1:0.93000001 2:0.87 3:0.81 4:0.75 5:0.75 6:0.078400001 7:0 #
1000 1:0 2:0 3:0 4:0 5:0 6:0 7:0.62048751 #
-1000 1:0.98500001 2:0.92500001 3:0.86500001 4:0.80500001 5:1 6:0.23765625 7:0 #
-1000 1:0.98000002 2:0.92000002 3:0.86000001 4:0.80000001 5:1 6:0.23280625 7:0 #
-1000 1:0.95999998 2:0.89999998 3:0.77999997 4:0.72000003 5:1 6:0.21390624 7:0 #
1000 1:0 2:0 3:0 4:0 5:0 6:0 7:0.62048751 #
-1000 1:0 2:0 3:0 4:0 5:0 6:0 7:0.62048751 #
1000 1:0 2:0 3:0 4:0 5:0 6:0 7:0.62048751 #
1000 1:0.93000001 2:0.87 3:0.81 4:0.75 5:0.75 6:0.0625 7:0 #
1000 1:0.31999999 2:0.31999999 3:0.31999999 4:0.31999999 5:0.75 6:0 7:0.62340623 #
-1000 1:0 2:0 3:0 4:0 5:0 6:0 7:0.62048751 #
-1000 1:0.97000003 2:0.91000003 3:0.85000002 4:0.76999998 5:0.75 6:0.3280625 7:0 #
-1000 1:0.97500002 2:0.91500002 3:0.79500002 4:0.73500001 5:0.75 6:0.41196251 7:0 #
1000 1:0.13 2:0.13 3:0.13 4:0.13 5:0.75 6:0 7:0.289 #
-1000 1:0 2:0 3:0 4:0 5:0 6:0 7:0.62048751 #
1000 1:0.94999999 2:0.88999999 3:0.76999998 4:0.70999998 5:0.75 6:0.40296251 7:0 #
1000 1:0.81999999 2:0.75999999 3:0.69999999 4:0.63999999 5:1 6:0.2100625 7:0 #
1000 1:0 2:0 3:0 4:0 5:0 6:0 7:0.62048751 #
-1000 1:0.90499997 2:0.84500003 3:0.78500003 4:0.72500002 5:1 6:0.26725626 7:0 #
-1000 1:0.13500001 2:0.13500001 3:0.13500001 4:0.13500001 5:0.75 6:0 7:0.48406875 #
-1000 1:0 2:0 3:0 4:0 5:0 6:0 7:0.62048751 #
1000 1:0 2:0 3:0 4:0 5:0 6:0 7:0.62048751 #
-1000 1:0.95499998 2:0.89499998 3:0.77499998 4:0.71499997 5:1 6:0.21160001 7:0 #
-1000 1:0.98500001 2:0.92500001 3:0.86500001 4:0.80500001 5:0.5 6:0.37562501 7:0 #
1000 1:0.12 2:0.12 3:0.12 4:0.12 5:0.5 6:0 7:0.77739376 #
1000 1:0.93000001 2:0.87 3:0.81 4:0.75 5:0.75 6:0.061256249 7:0 #
1000 1:0 2:0 3:0 4:0 5:0 6:0 7:0.62048751 #
1000 1:0 2:0 3:0 4:0 5:0 6:0 7:0.62048751 #
-1000 1:0.98500001 2:0.92500001 3:0.86500001 4:0.80500001 5:1 6:0.24255624 7:0 #
1000 1:0.81 2:0.75 3:0.69 4:0.63 5:1 6:0.203125 7:0 #
-1000 1:0.98500001 2:0.92500001 3:0.86500001 4:0.80500001 5:1 6:0.29715624 7:0 #
1000 1:0 2:0 3:0 4:0 5:0 6:0 7:0.62048751 #
-1000 1:0.13500001 2:0.13500001 3:0.13500001 4:0.13500001 5:0.75 6:0 7:0.48406875 #
-1000 1:0 2:0 3:0 4:0 5:0 6:0 7:0.62048751 #
1000 1:0.285 2:0.285 3:0.285 4:0.285 5:1 6:0.28403124 7:0.04141875 #
1000 1:0.93000001 2:0.87 3:0.81 4:0.75 5:0.75 6:0.079806253 7:0 #
-1000 1:0 2:0 3:0 4:0 5:0 6:0 7:0.62048751 #
-1000 1:0.97500002 2:0.91500002 3:0.85500002 4:0.79500002 5:1 6:0.2304 7:0 #
1000 1:0 2:0 3:0 4:0 5:0 6:0 7:0.62048751 #
-1000 1:0.935 2:0.875 3:0.815 4:0.755 5:1 6:0.2705625 7:0 #
1000 1:0 2:0 3:0 4:0 5:0 6:0 7:0.4473125 #
1000 1:0 2:0 3:0 4:0 5:0 6:0 7:0.62048751 #
-1000 1:0.98000002 2:0.92000002 3:0.86000001 4:0.80000001 5:1 6:0.24255624 7:0 #
1000 1:0 2:0 3:0 4:0 5:0 6:0 7:0.62048751 #
-1000 1:0 2:0 3:0 4:0 5:0 6:0 7:0.62048751 #
-1000 1:0 2:0 3:0 4:0 5:0 6:0 7:0.62048751 #
1000 1:0.13500001 2:0.13500001 3:0.13500001 4:0.13500001 5:0.75 6:0 7:0.48406875 #
-1000 1:0.13500001 2:0.13500001 3:0.13500001 4:0.13500001 5:0.75 6:0 7:0.48406875 #
1000 1:0 2:0 3:0 4:0 5:0 6:0 7:0.62048751 #
-1000 1:0 2:0 3:0 4:0 5:0 6:0 7:0.62048751 #
-1000 1:0.97500002 2:0.91500002 3:0.85500002 4:0.79500002 5:1 6:0.2304 7:0 #
-1000 1:0.89499998 2:0.83499998 3:0.77499998 4:0.71499997 5:1 6:0.17640001 7:0 #
1000 1:0.93000001 2:0.87 3:0.81 4:0.75 5:0.75 6:0.081225 7:0 #
1000 1:0 2:0 3:0 4:0 5:0 6:0 7:0.62048751 #
1000 1:0.93000001 2:0.87 3:0.81 4:0.75 5:0.75 6:0.079806253 7:0 #
1000 1:0.285 2:0.285 3:0.285 4:0.285 5:1 6:0.28803125 7:0.04141875 #
-1000 1:0 2:0 3:0 4:0 5:0 6:0 7:0.4473125 #
1000 1:0.085000001 2:0.085000001 3:0.085000001 4:0.085000001 5:0 6:0 7:0.52721876 #
-1000 1:0 2:0 3:0 4:0 5:0 6:0 7:0.62048751 #
-1000 1:0.13500001 2:0.13500001 3:0.13500001 4:0.13500001 5:0.75 6:0 7:0.48406875 #
1000 1:0 2:0 3:0 4:0 5:0 6:0 7:0.62048751 #
-1000 1:0.92000002 2:0.86000001 3:0.80000001 4:0.74000001 5:1 6:0.20200001 7:0 #
1000 1:0 2:0 3:0 4:0 5:0 6:0 7:0.6069625 #
-1000 1:0.13 2:0.13 3:0.13 4:0.13 5:0.75 6:0 7:0.4826 #
-1000 1:0.13500001 2:0.13500001 3:0.13500001 4:0.13500001 5:0.75 6:0 7:0.48406875 #
-1000 1:0 2:0 3:0 4:0 5:0 6:0 7:0.6069625 #
1000 1:0.93000001 2:0.87 3:0.81 4:0.75 5:0.75 6:0.074256249 7:0 #
-1000 1:0 2:0 3:0 4:0 5:0 6:0 7:0.62048751 #
1000 1:0.285 2:0.285 3:0.285 4:0.285 5:1 6:0.28028125 7:0.04141875 #
1000 1:0 2:0 3:0 4:0 5:0 6:0 7:0.62048751 #
1000 1:0.93000001 2:0.87 3:0.81 4:0.75 5:0.75 6:0.072899997 7:0 #
-1000 1:0 2:0 3:0 4:0 5:0 6:0 7:0.61645627 #
1000 1:0 2:0 3:0 4:0 5:0 6:0 7:0.62048751 #
1000 1:0.93000001 2:0.87 3:0.81 4:0.75 5:0.75 6:0.070225 7:0 #
1000 1:0.12 2:0.12 3:0.12 4:0.12 5:0.5 6:0 7:0.77739376 #
1000 1:0 2:0 3:0 4:0 5:0 6:0 7:0.62048751 #
-1000 1:0 2:0 3:0 4:0 5:0 6:0 7:0.62048751 #
1000 1:0 2:0 3:0 4:0 5:0 6:0 7:0.62048751 #
-1000 1:0.94 2:0.88 3:0.81999999 4:0.75999999 5:1 6:0.27425 7:0 #
-1000 1:0.13500001 2:0.13500001 3:0.13500001 4:0.13500001 5:0.75 6:0 7:0.48406875 #
1000 1:0.12 2:0.12 3:0.12 4:0.12 5:0.5 6:0 7:0.77739376 #
1000 1:0.93000001 2:0.87 3:0.81 4:0.75 5:0.75 6:0.066306248 7:0 #
-1000 1:0 2:0 3:0 4:0 5:0 6:0 7:0.62048751 #
-1000 1:0.13500001 2:0.13500001 3:0.13500001 4:0.13500001 5:0.75 6:0 7:0.48406875 #
1000 1:0 2:0 3:0 4:0 5:0 6:0 7:0.62048751 #
-1000 1:0 2:0 3:0 4:0 5:0 6:0 7:0.62048751 #
1000 1:0.93000001 2:0.87 3:0.81 4:0.75 5:0.75 6:0.065025002 7:0 #
-1000 1:0.13500001 2:0.13500001 3:0.13500001 4:0.13500001 5:0.75 6:0 7:0.48406875 #
-1000 1:0 2:0 3:0 4:0 5:0 6:0 7:0.62048751 #
1000 1:0.12 2:0.12 3:0.12 4:0.12 5:0.5 6:0 7:0.77739376 #
1000 1:0.075000003 2:0.075000003 3:0.075000003 4:0.075000003 5:0 6:0 7:0.52721876 #
-1000 1:0.13500001 2:0.13500001 3:0.13500001 4:0.13500001 5:0.75 6:0 7:0.48406875 #
-1000 1:0 2:0 3:0 4:0 5:0 6:0 7:0.62048751 #
1000 1:0.93000001 2:0.87 3:0.81 4:0.75 5:0.75 6:0.06375625 7:0 #
-1000 1:0 2:0 3:0 4:0 5:0 6:0 7:0.62048751 #
-1000 1:0.13500001 2:0.13500001 3:0.13500001 4:0.13500001 5:0.75 6:0 7:0.48406875 #
1000 1:0.12 2:0.12 3:0.12 4:0.12 5:0.5 6:0 7:0.77739376 #
1000 1:0 2:0 3:0 4:0 5:0 6:0 7:0.62048751 #
-1000 1:0 2:0 3:0 4:0 5:0 6:0 7:0.62048751 #
-1000 1:0.13500001 2:0.13500001 3:0.13500001 4:0.13500001 5:0.75 6:0 7:0.48406875 #
-1000 1:0.13500001 2:0.13500001 3:0.13500001 4:0.13500001 5:0.75 6:0 7:0.48406875 #
1000 1:0 2:0 3:0 4:0 5:0 6:0 7:0.4082 #
-1000 1:0.13500001 2:0.13500001 3:0.13500001 4:0.13500001 5:0.75 6:0 7:0.48406875 #
1000 1:0.12 2:0.12 3:0.12 4:0.12 5:0.5 6:0 7:0.77739376 #
-1000 1:0.13500001 2:0.13500001 3:0.13500001 4:0.13500001 5:0.75 6:0 7:0.48406875 #
-1000 1:0.155 2:0.155 3:0.155 4:0.155 5:0.5 6:0 7:0.3887125 #
-1000 1:0.155 2:0.155 3:0.155 4:0.155 5:0.5 6:0 7:0.3887125 #
-1000 1:0.31999999 2:0.31999999 3:0.31999999 4:0.31999999 5:0.75 6:0 7:0.62340623 #
1000 1:0.88499999 2:0.82499999 3:0.76499999 4:0.64499998 5:1 6:0.58618748 7:0 #
-1000 1:0.31999999 2:0.31999999 3:0.31999999 4:0.31999999 5:0.75 6:0 7:0.62340623 #
1000 1:0.13 2:0.13 3:0.13 4:0.13 5:0.75 6:0 7:0.289 #
-1000 1:0.12 2:0 3:0 4:0 5:0 6:0 7:0.66516876 #
1000 1:0.075000003 2:0.075000003 3:0.075000003 4:0.075000003 5:0 6:0 7:0.52721876 #
1000 1:0.93000001 2:0.87 3:0.81 4:0.75 5:0.75 6:0.058806252 7:0 #
-1000 1:0.95499998 2:0.89499998 3:0.83499998 4:0.77499998 5:1 6:0.65216249 7:0 #
1000 1:0.16500001 2:0.16500001 3:0.16500001 4:0.16500001 5:1 6:0.2304 7:0.085078128 #
-1000 1:0.96499997 2:0.90499997 3:0.84500003 4:0.78500003 5:0.75 6:0.58771253 7:0 #
-1000 1:0.155 2:0.155 3:0.155 4:0.155 5:0.5 6:0 7:0.3887125 #
1000 1:0.13 2:0.13 3:0.13 4:0.13 5:0.75 6:0 7:0.289 #
-1000 1:0.07 2:0.07 3:0.07 4:0.07 5:1 6:0 7:0.40080625 #
-999.27162225058419 1:0.15000001 2:0.029999999 3:0.15000001 4:0.15000001 5:1 6:0 7:0.19747813 #
1000 1:0.13500001 2:0.13500001 3:0.13500001 4:0.13500001 5:0.75 6:0 7:0.48406875 #
1000 1:0.85000002 2:0.79000002 3:0.67000002 4:0.61000001 5:1 6:0.29621875 7:0 #
-1000 1:0.11 2:0.11 3:0.11 4:0.11 5:0.5 6:0 7:0.32333437 #
-390.07639533161546 1:0.025 2:0.025 3:0.025 4:0.025 5:0.5 6:0 7:0.27645937 #
-1000 1:0.31999999 2:0.31999999 3:0.31999999 4:0.31999999 5:0.75 6:0 7:0.62340623 #
-1000 1:0 2:0 3:0 4:0 5:0 6:0 7:0.42558125 #
-1000 1:0.15000001 2:0.029999999 3:0.15000001 4:0.15000001 5:1 6:0 7:0.19747813 #
-1000 1:0.075000003 2:0.075000003 3:0.075000003 4:0.075000003 5:0 6:0 7:0.52721876 #
1000 1:0.13500001 2:0.13500001 3:0.13500001 4:0.13500001 5:0.75 6:0 7:0.48406875 #
1000 1:0.16500001 2:0.16500001 3:0.16500001 4:0.16500001 5:1 6:0.20930625 7:0.056718752 #
1000 1:0.13 2:0.13 3:0.13 4:0.13 5:0.75 6:0 7:0.289 #
-1000 1:0.094999999 2:0.075000003 3:0 4:0 5:0 6:0 7:0.38931251 #
-1000 1:0.95999998 2:0.89999998 3:0.83999997 4:0.77999997 5:1 6:0.42725626 7:0 #
1000 1:0.82499999 2:0.76499999 3:0.70499998 4:0.64499998 5:1 6:0.21325 7:0 #
-1000 1:0.085000001 2:0.085000001 3:0.085000001 4:0.085000001 5:0 6:0 7:0.52721876 #
-1000 1:0.95999998 2:0.89999998 3:0.83999997 4:0.72000003 5:1 6:0.41640624 7:0 #
-1000 1:0.11 2:0.11 3:0.0099999998 4:0.11 5:0.75 6:0 7:0.39495626 #
-1000 1:0.96499997 2:0.88499999 3:0.82499999 4:0.70499998 5:1 6:0.5250625 7:0 #
-1000 1:0.02 2:0.02 3:0.02 4:0.02 5:1 6:0 7:0.40721563 #
-283.02565981057569 1:0.13 2:0.055 3:0.094999999 4:0.13 5:1 6:0 7:0.061633334 #
1000 1:0.12 2:0 3:0 4:0 5:0 6:0 7:0.66516876 #
-1000 1:0.075000003 2:0.075000003 3:0.075000003 4:0.075000003 5:0 6:0 7:0.52721876 #
-1000 1:0.89499998 2:0.83499998 3:0.77499998 4:0.71499997 5:1 6:0.60461253 7:0 #
1000 1:0.31999999 2:0.31999999 3:0.22499999 4:0.31999999 5:0.75 6:0 7:0.36340624 #
1000 1:0.085000001 2:0.085000001 3:0.085000001 4:0.085000001 5:0 6:0 7:0.52721876 #
-59.832500506599899 1:0.0049999999 2:0.0049999999 3:0.0049999999 4:0.0049999999 5:1 6:0.21390624 7:0.085078128 #
1000 1:0.12 2:0 3:0 4:0 5:0 6:0 7:0.66516876 #
-1000 1:0.19499999 2:0.075000003 3:0.19499999 4:0.19499999 5:0 6:0 7:0.38931251 #
1000 1:0.075000003 2:0.075000003 3:0.075000003 4:0.075000003 5:0 6:0 7:0.52721876 #
-1000 1:0.13 2:0.13 3:0.13 4:0.13 5:0.75 6:0 7:0.4826 #
-1000 1:0.085000001 2:0.085000001 3:0.085000001 4:0.085000001 5:0 6:0 7:0.52721876 #
-1000 1:0.155 2:0.155 3:0.155 4:0.155 5:0.5 6:0 7:0.3887125 #
1000 1:0.13 2:0.13 3:0.13 4:0.13 5:0.75 6:0 7:0.4826 #
-1000 1:0.35499999 2:0.35499999 3:0.235 4:0.35499999 5:1 6:0.045156252 7:0 #
-1000 1:0.94999999 2:0.88999999 3:0.82999998 4:0.76999998 5:1 6:0.65771878 7:0 #
1000 1:0.12 2:0 3:0 4:0 5:0 6:0 7:0.66516876 #
-1000 1:0.155 2:0.155 3:0.155 4:0.155 5:0.5 6:0 7:0.3887125 #
1000 1:0 2:0 3:0 4:0 5:0 6:0 7:0.4082 #
-1000 1:0 2:0 3:0 4:0 5:0 6:0 7:0.10962375 #
1000 1:0.13 2:0.13 3:0.13 4:0.13 5:0.75 6:0 7:0.289 #
-1000 1:0.89499998 2:0.83499998 3:0.77499998 4:0.65499997 5:1 6:0.60616249 7:0 #
1000 1:0.88 2:0.81999999 3:0.75999999 4:0.63999999 5:1 6:0.57406253 7:0 #
-1000 1:0.19499999 2:0.075000003 3:0.19499999 4:0.19499999 5:0 6:0 7:0.38931251 #
-1000 1:0.92500001 2:0.86500001 3:0.80500001 4:0.745 5:0.75 6:0.69835001 7:0 #
-1000 1:0.95499998 2:0.875 3:0.815 4:0.69499999 5:1 6:0.51880628 7:0 #
-1000 1:0.12 2:0 3:0 4:0 5:0 6:0 7:0.66516876 #
-1000 1:0.31999999 2:0.31999999 3:0.22499999 4:0.31999999 5:0.75 6:0 7:0.36340624 #
1000 1:0.13500001 2:0.13500001 3:0.13500001 4:0.13500001 5:0.75 6:0 7:0.48406875 #
1000 1:0.31999999 2:0.31999999 3:0.22499999 4:0.31999999 5:0.75 6:0 7:0.36340624 #
-1000 1:0.11 2:0.11 3:0.0099999998 4:0.11 5:0.75 6:0 7:0.39495626 #
-1000 1:0.13500001 2:0.13500001 3:0.13500001 4:0.13500001 5:0.75 6:0 7:0.48406875 #
-1000 1:0 2:0 3:0 4:0 5:0 6:0 7:0.42558125 #
1000 1:0 2:0 3:0 4:0 5:0 6:0 7:0.4082 #
1000 1:0.13 2:0.13 3:0.13 4:0.13 5:0.75 6:0 7:0.289 #
1000 1:0 2:0 3:0 4:0 5:0 6:0 7:0.4082 #
1000 1:0.87 2:0.81 3:0.75 4:0.69 5:1 6:0.2447125 7:0 #
-1000 1:0.94499999 2:0.88499999 3:0.82499999 4:0.76499999 5:1 6:0.38038126 7:0 #
1000 1:0 2:0 3:0 4:0 5:0 6:0 7:0.4082 #
1000 1:0.16500001 2:0.16500001 3:0.16500001 4:0.16500001 5:1 6:0.22800624 7:0.085078128 #
-1000 1:0.025 2:0.025 3:0.025 4:0.025 5:0.5 6:0 7:0.27645937 #
1000 1:0.875 2:0.815 3:0.755 4:0.63499999 5:1 6:0.56656247 7:0 #
-367.68174695018388 1:0.0049999999 2:0.0049999999 3:0.0049999999 4:0.0049999999 5:1 6:0.216225 7:0.085078128 #
-1000 1:0 2:0 3:0 4:0 5:0 6:0 7:0.42558125 #
1000 1:0 2:0 3:0 4:0 5:0 6:0 7:0.4082 #
-1000 1:0.94499999 2:0.88499999 3:0.82499999 4:0.76499999 5:1 6:0.38886249 7:0 #
-1000 1:0 2:0 3:0 4:0 5:0 6:0 7:0.42012501 #
-1000 1:0.77499998 2:0.72000003 3:0.60000002 4:0.41499999 5:1 6:0.18275625 7:0 #
1000 1:0.94 2:0.88 3:0.81999999 4:0.75999999 5:0.75 6:0.052900001 7:0 #
-1000 1:0.13500001 2:0.13500001 3:0.13500001 4:0.13500001 5:0.75 6:0 7:0.48406875 #
-1000 1:0.155 2:0.155 3:0.155 4:0.155 5:0.5 6:0 7:0.3887125 #
1000 1:0.13500001 2:0.13500001 3:0.13500001 4:0.13500001 5:0.75 6:0 7:0.48406875 #
1000 1:0.86500001 2:0.80500001 3:0.745 4:0.625 5:1 6:0.54728752 7:0 #
1000 1:0.87 2:0.81 3:0.75 4:0.63 5:1 6:0.55466253 7:0 #
-1000 1:0.075000003 2:0.075000003 3:0.075000003 4:0.075000003 5:0 6:0 7:0.52721876 #
1000 1:0.88999999 2:0.82999998 3:0.76999998 4:0.64999998 5:1 6:0.59381253 7:0 #
-1000 1:0.13500001 2:0.13500001 3:0.13500001 4:0.13500001 5:0.75 6:0 7:0.48406875 #
-1000 1:0.13500001 2:0.13500001 3:0.13500001 4:0.13500001 5:0.75 6:0 7:0.48406875 #
-308.21017900016159 1:0.98500001 2:0.92500001 3:0.84500003 4:0.78500003 5:1 6:0.09765625 7:0 #
1000 1:0.13500001 2:0.13500001 3:0.13500001 4:0.13500001 5:0.75 6:0 7:0.48406875 #
-1000 1:0.69 2:0.63 3:0.56999999 4:0.49000001 5:1 6:0 7:0.19976875 #
1000 1:0.12 2:0 3:0 4:0 5:0 6:0 7:0.66516876 #
-1000 1:0.0049999999 2:0.0049999999 3:0.0049999999 4:0.0049999999 5:1 6:0.21390624 7:0.085078128 #
1000 1:0.31999999 2:0.31999999 3:0.22499999 4:0.31999999 5:0.75 6:0 7:0.36340624 #
1000 1:0.16500001 2:0.16500001 3:0.16500001 4:0.16500001 5:1 6:0.20475625 7:0.056718752 #
1000 1:0.13 2:0.13 3:0.13 4:0.13 5:0.75 6:0 7:0.289 #
1000 1:0.31999999 2:0.31999999 3:0.22499999 4:0.31999999 5:0.75 6:0 7:0.36340624 #
1000 1:0.16500001 2:0.16500001 3:0.16500001 4:0.16500001 5:1 6:0.20702501 7:0.056718752 #
1000 1:0.13500001 2:0.13500001 3:0.13500001 4:0.13500001 5:0.75 6:0 7:0.48406875 #
1000 1:0.16500001 2:0.16500001 3:0.16500001 4:0.16500001 5:1 6:0.2025 7:0.056718752 #
1000 1:0.155 2:0.155 3:0.155 4:0.155 5:0.5 6:0 7:0.3887125 #
1000 1:0.13 2:0.13 3:0.13 4:0.13 5:0.75 6:0 7:0.289 #
1000 1:0.16500001 2:0.16500001 3:0.16500001 4:0.16500001 5:1 6:0.21160001 7:0.056718752 #
-1000 1:0.94999999 2:0.88999999 3:0.82999998 4:0.76999998 5:1 6:0.65771878 7:0 #
-1000 1:0.31999999 2:0.31999999 3:0.22499999 4:0.31999999 5:0.75 6:0 7:0.36340624 #
1000 1:0.13 2:0.13 3:0.13 4:0.13 5:0.75 6:0 7:0.289 #
-1000 1:0.875 2:0.815 3:0.69499999 4:0.63499999 5:0.75 6:0.70815623 7:0 #
-1000 1:0.07 2:0.07 3:0.07 4:0.07 5:1 6:0 7:0.40080625 #
-1000 1:0.0049999999 2:0.0049999999 3:0.0049999999 4:0.0049999999 5:1 6:0.2209 7:0.085078128 #
1000 1:0.12 2:0 3:0 4:0 5:0 6:0 7:0.66516876 #
1000 1:0.16500001 2:0.16500001 3:0.16500001 4:0.16500001 5:1 6:0.2401 7:0.085078128 #
1000 1:0.13500001 2:0.13500001 3:0.13500001 4:0.13500001 5:0.75 6:0 7:0.48406875 #
1000 1:0.12 2:0 3:0 4:0 5:0 6:0 7:0.66516876 #
-1000 1:0.31999999 2:0.31999999 3:0.31999999 4:0.31999999 5:0.75 6:0 7:0.62340623 #
1000 1:0.13 2:0.13 3:0.13 4:0.13 5:0.75 6:0 7:0.289 #
-1000 1:0.175 2:0.175 3:0.079999998 4:0.175 5:1 6:0 7:0.27645937 #
-1000 1:0.31999999 2:0.31999999 3:0.31999999 4:0.31999999 5:0.75 6:0 7:0.62340623 #
-1000 1:0.23 2:0.23 3:0.23 4:0.23 5:1 6:0 7:0.40721563 #
1000 1:0.31999999 2:0.31999999 3:0.31999999 4:0.31999999 5:0.75 6:0 7:0.62340623 #
-1000 1:0 2:0 3:0 4:0 5:0 6:0 7:0.4082 #
-1000 1:0.155 2:0.155 3:0.155 4:0.155 5:0.5 6:0 7:0.3887125 #
1000 1:0.13500001 2:0.13500001 3:0.13500001 4:0.13500001 5:0.75 6:0 7:0.48406875 #
1000 1:0.16500001 2:0.16500001 3:0.16500001 4:0.16500001 5:1 6:0.22325625 7:0.085078128 #
1000 1:0.16500001 2:0.16500001 3:0.16500001 4:0.16500001 5:1 6:0.20475625 7:0.056718752 #
-1000 1:0.11 2:0.11 3:0.0099999998 4:0.11 5:0.75 6:0 7:0.39495626 #
1000 1:0.13500001 2:0.13500001 3:0.13500001 4:0.13500001 5:0.75 6:0 7:0.48406875 #
-1000 1:0.31999999 2:0.31999999 3:0.22499999 4:0.31999999 5:0.75 6:0 7:0.36340624 #
-1000 1:0.13500001 2:0.13500001 3:0.13500001 4:0.13500001 5:0.75 6:0 7:0.48406875 #
1000 1:0.16500001 2:0.16500001 3:0.16500001 4:0.16500001 5:1 6:0.22325625 7:0.085078128 #
1000 1:0.13500001 2:0.13500001 3:0.13500001 4:0.13500001 5:0.75 6:0 7:0.48406875 #
-1000 1:0.02 2:0.02 3:0.02 4:0.02 5:1 6:0 7:0.33501562 #
-1000 1:0.07 2:0.07 3:0.07 4:0.07 5:1 6:0 7:0.40080625 #
-1000 1:0.0049999999 2:0.0049999999 3:0.0049999999 4:0.0049999999 5:1 6:0.21855626 7:0.085078128 #
-1000 1:0.07 2:0.07 3:0.07 4:0.07 5:1 6:0 7:0.40080625 #
-1000 1:0.36000001 2:0.36000001 3:0.36000001 4:0.23999999 5:1 6:0.282125 7:0 #
1000 1:0.16500001 2:0.16500001 3:0.16500001 4:0.16500001 5:1 6:0.2401 7:0.085078128 #
-34.055562069390476 1:0.97500002 2:0.91500002 3:0.85500002 4:0.79500002 5:1 6:0.49156249 7:0 #
1000 1:0.12 2:0 3:0 4:0 5:0 6:0 7:0.66516876 #
-1000 1:0.12 2:0 3:0 4:0 5:0 6:0 7:0.66516876 #
1000 1:0.12 2:0 3:0 4:0 5:0 6:0 7:0.66516876 #
-1000 1:0.155 2:0.155 3:0.155 4:0.155 5:0.5 6:0 7:0.3887125 #
-1000 1:0.02 2:0.02 3:0.02 4:0.02 5:1 6:0 7:0.27358124 #
-1000 1:0.0049999999 2:0.0049999999 3:0.0049999999 4:0.0049999999 5:1 6:0.2209 7:0.085078128 #
1000 1:0.16500001 2:0.16500001 3:0.16500001 4:0.16500001 5:1 6:0.20702501 7:0.056718752 #
-1000 1:0.22499999 2:0.22499999 3:0.20999999 4:0 5:1 6:0 7:0.12962084 #
1000 1:0.16500001 2:0.16500001 3:0.16500001 4:0.16500001 5:1 6:0.20930625 7:0.056718752 #
1000 1:0.31999999 2:0.31999999 3:0.22499999 4:0.31999999 5:0.75 6:0 7:0.36340624 #
1000 1:0.13500001 2:0.13500001 3:0.13500001 4:0.13500001 5:0.75 6:0 7:0.48406875 #
1000 1:0.13500001 2:0.13500001 3:0.13500001 4:0.13500001 5:0.75 6:0 7:0.48406875 #
1000 1:0.12 2:0 3:0 4:0 5:0 6:0 7:0.66516876 #
1000 1:0.13500001 2:0.13500001 3:0.13500001 4:0.13500001 5:0.75 6:0 7:0.48406875 #
-1000 1:0.12 2:0 3:0 4:0 5:0 6:0 7:0.66516876 #
-1000 1:0.31999999 2:0.31999999 3:0.22499999 4:0.31999999 5:0.75 6:0 7:0.36340624 #
1000 1:0.12 2:0 3:0 4:0 5:0 6:0 7:0.66516876 #
-1000 1:0.0049999999 2:0.0049999999 3:0.0049999999 4:0.0049999999 5:1 6:0.21855626 7:0.085078128 #
1000 1:0.13500001 2:0.13500001 3:0.13500001 4:0.13500001 5:0.75 6:0 7:0.48406875 #
1000 1:0.31999999 2:0.31999999 3:0.31999999 4:0.31999999 5:0.75 6:0 7:0.62340623 #
-1000 1:0.81 2:0.75 3:0.69 4:0.61000001 5:1 6:0 7:0.19976875 #
1000 1:0.16500001 2:0.16500001 3:0.16500001 4:0.16500001 5:1 6:0.2304 7:0.085078128 #
1000 1:0.13500001 2:0.13500001 3:0.13500001 4:0.13500001 5:0.75 6:0 7:0.48406875 #
1000 1:0.31999999 2:0.31999999 3:0.22499999 4:0.31999999 5:0.75 6:0 7:0.36340624 #
-1000 1:0.11 2:0.11 3:0.0099999998 4:0.11 5:0.75 6:0 7:0.39495626 #
1000 1:0.16500001 2:0.16500001 3:0.16500001 4:0.16500001 5:1 6:0.22562499 7:0.085078128 #
1000 1:0.13500001 2:0.13500001 3:0.13500001 4:0.13500001 5:0.75 6:0 7:0.48406875 #
-1000 1:0.12 2:0 3:0 4:0 5:0 6:0 7:0.66516876 #
1000 1:0.31999999 2:0.31999999 3:0.22499999 4:0.31999999 5:0.75 6:0 7:0.36340624 #
1000 1:0.31999999 2:0.31999999 3:0.22499999 4:0.31999999 5:0.75 6:0 7:0.36340624 #
1000 1:0.12 2:0 3:0 4:0 5:0 6:0 7:0.66516876 #
1000 1:0.16500001 2:0.16500001 3:0.16500001 4:0.16500001 5:1 6:0.22562499 7:0.085078128 #
1000 1:0.16500001 2:0.16500001 3:0.16500001 4:0.16500001 5:1 6:0.23522501 7:0.085078128 #
-1000 1:0.12 2:0 3:0 4:0 5:0 6:0 7:0.66516876 #
-1000 1:0.02 2:0.02 3:0.02 4:0.02 5:1 6:0 7:0.33501562 #
-1000 1:0.31999999 2:0.31999999 3:0.22499999 4:0.31999999 5:0.75 6:0 7:0.36340624 #
-1000 1:0.02 2:0.02 3:0.02 4:0.02 5:1 6:0 7:0.27358124 #
1000 1:0.16500001 2:0.16500001 3:0.16500001 4:0.16500001 5:1 6:0.23765625 7:0.085078128 #
1000 1:0.31999999 2:0.31999999 3:0.22499999 4:0.31999999 5:0.75 6:0 7:0.36340624 #
-1000 1:0 2:0 3:0 4:0 5:0 6:0 7:0.4082 #
1000 1:0.16500001 2:0.16500001 3:0.16500001 4:0.16500001 5:1 6:0.23765625 7:0.085078128 #
1000 1:0.31999999 2:0.31999999 3:0.31999999 4:0.31999999 5:0.75 6:0 7:0.62340623 #
1000 1:0.12 2:0 3:0 4:0 5:0 6:0 7:0.66516876 #
1000 1:0.16500001 2:0.16500001 3:0.16500001 4:0.16500001 5:1 6:0.22800624 7:0.085078128 #
1000 1:0.13500001 2:0.13500001 3:0.13500001 4:0.13500001 5:0.75 6:0 7:0.48406875 #
-1000 1:0.285 2:0.285 3:0.285 4:0.285 5:1 6:0.29183125 7:0.04141875 #
-1000 1:0.12 2:0 3:0 4:0 5:0 6:0 7:0.66516876 #
-1000 1:0.155 2:0.155 3:0.155 4:0.155 5:0.5 6:0 7:0.3887125 #
-1000 1:0.11 2:0.11 3:0.0099999998 4:0.11 5:0.75 6:0 7:0.39495626 #
