SVM-light Version V6.02
0 # kernel type
3 # kernel parameter -d 
1 # kernel parameter -g 
1 # kernel parameter -s 
1 # kernel parameter -r 
empty# kernel parameter -u 
7 # highest feature index 
2000 # number of training documents 
93 # number of support vectors plus 1 
0.99931332 # threshold b, each following line is a SV (starting with alpha*y)
1000 1:0.91000003 2:0.85000002 3:0.73000002 4:0.67000002 5:1 6:0.09765625 7:0 #
1000 1:0.85000002 2:0.79000002 3:0.73000002 4:0.61000001 5:0.5 6:0 7:0.11843625 #
-1000 1:0 2:0 3:0 4:0 5:0 6:0 7:0.80583751 #
-4.2109690161423305 1:0.059999999 2:0.059999999 3:0.059999999 4:0.059999999 5:0.75 6:0 7:0.10524531 #
1000 1:0.02 2:0.02 3:0.02 4:0.02 5:0.75 6:0 7:0.20186041 #
1000 1:0.059999999 2:0.059999999 3:0.059999999 4:0.059999999 5:1 6:0 7:0.18666042 #
-1000 1:0.025 2:0 3:0 4:0 5:1 6:0 7:0.035701249 #
-1000 1:0.015 2:0.015 3:0.015 4:0.015 5:1 6:0 7:0.071412504 #
-1000 1:0.94 2:0.88 3:0.75999999 4:0.69999999 5:1 6:0.11390625 7:0 #
-978.77978222413503 1:0.075000003 2:0.075000003 3:0.075000003 4:0.075000003 5:0 6:0 7:0.10465313 #
-1000 1:0.97500002 2:0.91500002 3:0.85500002 4:0.73500001 5:1 6:0 7:0 #
-999.99374803351566 1:0.98500001 2:0.92500001 3:0.86500001 4:0.80500001 5:1 6:0 7:0 #
1000 1:0.91000003 2:0.85000002 3:0.73000002 4:0.67000002 5:1 6:0.085556246 7:0 #
-603.48678896097056 1:0 2:0 3:0 4:0 5:0 6:0 7:0.03528 #
1000 1:0.075000003 2:0.075000003 3:0.075000003 4:0.075000003 5:0 6:0 7:0.1318825 #
-946.12621575260448 1:0 2:0 3:0 4:0 5:0 6:0 7:0.078946248 #
-1000 1:0.93000001 2:0.87 3:0.81 4:0.69 5:1 6:0 7:0 #
1000 1:0.039999999 2:0.039999999 3:0.039999999 4:0.039999999 5:0.75 6:0 7:0.20186041 #
1000 1:0.085000001 2:0.085000001 3:0.085000001 4:0.085000001 5:0 6:0 7:0.1286625 #
-5.073637229089841 1:0.079999998 2:0.079999998 3:0.079999998 4:0.079999998 5:0.75 6:0 7:0.13427709 #
1000 1:0.85000002 2:0.79000002 3:0.73000002 4:0.61000001 5:0.5 6:0 7:0.12111625 #
-355.7879295067396 1:0.2 2:0.2 3:0.2 4:0.2 5:0.75 6:0 7:0.40501249 #
1000 1:0.91000003 2:0.85000002 3:0.73000002 4:0.67000002 5:1 6:0.096100003 7:0 #
-417.05533127835952 1:0.085000001 2:0.085000001 3:0.085000001 4:0 5:1 6:0 7:0 #
-1000 1:0.91000003 2:0.85000002 3:0.73000002 4:0.67000002 5:1 6:0.099225 7:0 #
-106.67887875885936 1:0.19 2:0.19 3:0.17 4:0.19 5:0.75 6:0 7:0.060125001 #
-1000 1:0.07 2:0.07 3:0.07 4:0.07 5:1 6:0 7:0.1065225 #
-1000 1:0.090000004 2:0.090000004 3:0.090000004 4:0.090000004 5:1 6:0 7:0.067500003 #
-1000 1:0.0099999998 2:0.0099999998 3:0.0099999998 4:0.0099999998 5:1 6:0 7:0.03916125 #
1000 1:0.064999998 2:0.064999998 3:0.064999998 4:0.064999998 5:0 6:0 7:0.13514251 #
-1000 1:0.090000004 2:0.090000004 3:0.090000004 4:0.090000004 5:1 6:0 7:0.26094061 #
-1000 1:0.935 2:0.875 3:0.755 4:0.69499999 5:1 6:0.112225 7:0 #
-999.99843816683847 1:0.96499997 2:0.90499997 3:0.78500003 4:0.72500002 5:1 6:0.29769999 7:0 #
1000 1:0.029999999 2:0.029999999 3:0.029999999 4:0.029999999 5:0.75 6:0 7:0.20186041 #
-1000 1:0.015 2:0.015 3:0.015 4:0.015 5:1 6:0 7:0.036551248 #
-7.8041866565217788 1:0.17 2:0.17 3:0.17 4:0.17 5:0.75 6:0 7:0.03362 #
1000 1:0.085000001 2:0.085000001 3:0.085000001 4:0.085000001 5:1 6:0 7:0.19099376 #
1000 1:0.0099999998 2:0.0099999998 3:0.0099999998 4:0.0099999998 5:0.75 6:0 7:0.20186041 #
-521.20807105302811 1:0.92000002 2:0.86000001 3:0.74000001 4:0.68000001 5:1 6:0.10400625 7:0 #
-78.662339465010746 1:0.090000004 2:0.045000002 3:0.090000004 4:0.090000004 5:1 6:0 7:0.26094061 #
-68.715376481737934 1:0.80000001 2:0.72000003 3:0.66000003 4:0.54000002 5:0.75 6:0 7:0.80583751 #
-0.086822913553186609 1:0.215 2:0.215 3:0.215 4:0.215 5:0.75 6:0 7:0.17550416 #
-1000 1:0.91500002 2:0.85500002 3:0.73500001 4:0.67500001 5:1 6:0.1024 7:0 #
-190.89644404523278 1:0.090000004 2:0.075000003 3:0.075000003 4:0.090000004 5:0.75 6:0 7:0.039604999 #
-9.3265545117901638 1:0.090000004 2:0.090000004 3:0.090000004 4:0.090000004 5:0.75 6:0 7:0.089331247 #
1000 1:0.050000001 2:0.050000001 3:0.050000001 4:0.050000001 5:0.75 6:0 7:0.20186041 #
1000 1:0.91000003 2:0.85000002 3:0.73000002 4:0.67000002 5:1 6:0.09455625 7:0 #
-196.36351262655808 1:0.19 2:0.19 3:0.17 4:0.19 5:0.75 6:0 7:0.060125001 #
1000 1:0.079999998 2:0.079999998 3:0.079999998 4:0.079999998 5:1 6:0 7:0.10688625 #
-1000 1:0.97000003 2:0.91000003 3:0.85000002 4:0.73000002 5:1 6:0 7:0 #
1000 1:0.07 2:0.07 3:0.07 4:0.07 5:1 6:0 7:0.10942625 #
1000 1:0.91000003 2:0.85000002 3:0.73000002 4:0.67000002 5:1 6:0.093024999 7:0 #
-1.0161909145317622 1:0.090000004 2:0.090000004 3:0.090000004 4:0.090000004 5:0.75 6:0 7:0.099576563 #
-330.42634420262038 1:0.33000001 2:0.33000001 3:0.33000001 4:0.33000001 5:0.75 6:0 7:0 #
-487.05775484725245 1:0.050000001 2:0.050000001 3:0.0099999998 4:0.050000001 5:0 6:0 7:0.061685 #
-911.24603414283069 1:0.2 2:0.2 3:0.2 4:0.2 5:0.75 6:0 7:0.61661249 #
1000 1:0.91000003 2:0.85000002 3:0.73000002 4:0.67000002 5:1 6:0.087025002 7:0 #
-75.573197468839794 1:0 2:0 3:0 4:0 5:0 6:0 7:0.80583751 #
-15.282191228467752 1:0.085000001 2:0.085000001 3:0.085000001 4:0.085000001 5:0.75 6:0 7:0.040951248 #
1000 1:0.91000003 2:0.85000002 3:0.73000002 4:0.67000002 5:1 6:0.09150625 7:0 #
-230.00490087583421 1:0.47 2:0.34999999 3:0.11 4:0.11 5:0 6:0 7:0 #
-43.70255904563237 1:0.30500001 2:0.30500001 3:0.064999998 4:0.064999998 5:0 6:0 7:0 #
1000 1:0.059999999 2:0.059999999 3:0.059999999 4:0.059999999 5:0.75 6:0 7:0.20186041 #
1000 1:0.090000004 2:0.090000004 3:0.090000004 4:0.090000004 5:1 6:0 7:0.10437625 #
-510.13023433051421 1:0.30500001 2:0.30500001 3:0.064999998 4:0.064999998 5:0 6:0 7:0.039102085 #
-55.300165086984634 1:0.92500001 2:0.86500001 3:0.745 4:0.685 5:1 6:0.10725625 7:0 #
-43.377956092706881 1:0.98500001 2:0.86500001 3:0.80500001 4:0.745 5:0 6:0 7:0 #
-34.247525050202967 1:0.93000001 2:0.87 3:0.81 4:0.75 5:1 6:0.69093752 7:0 #
-30.566988667003486 1:0.54500002 2:0.54500002 3:0.23999999 4:0.185 5:1 6:0 7:0 #
1000 1:0.91000003 2:0.85000002 3:0.73000002 4:0.67000002 5:1 6:0.090000004 7:0 #
1000 1:0.91000003 2:0.85000002 3:0.73000002 4:0.67000002 5:1 6:0.088506252 7:0 #
-1.4648453051662784 1:0.30500001 2:0.30500001 3:0.064999998 4:0.105 5:0 6:0 7:0 #
-3.8111088332754548 1:0.23999999 2:0.12 3:0.12 4:0.23999999 5:0 6:0 7:0.062128127 #
-36.291900541365976 1:0.52499998 2:0.52499998 3:0.41999999 4:0.405 5:1 6:0 7:0 #
-10.197789331689052 1:0.34 2:0.34 3:0.27500001 4:0.34 5:1 6:0.11730625 7:0 #
-13.535151895512854 1:0.95999998 2:0.89999998 3:0.77999997 4:0.72000003 5:1 6:0.29412499 7:0 #
-10.715061125766624 1:0.17 2:0.14 3:0.085000001 4:0.17 5:0 6:0 7:0.055731252 #
-514.96461265471589 1:0.39500001 2:0.39500001 3:0.31999999 4:0.31999999 5:1 6:0 7:0 #
-17.44319803828671 1:0.39500001 2:0.39500001 3:0.31999999 4:0.31999999 5:1 6:0 7:0 #
-28.926535815485749 1:0.52499998 2:0.52499998 3:0.41999999 4:0.405 5:1 6:0 7:0 #
-27.299315046296243 1:0.375 2:0.255 3:0.015 4:0.015 5:1 6:0 7:0 #
-7.4388578647150609 1:0.38999999 2:0.029999999 3:0.029999999 4:0 5:0.75 6:0 7:0 #
-11.387472249698249 1:0.61500001 2:0.375 3:0.375 4:0.375 5:0 6:0 7:0 #
-21.08710557455197 1:0.95499998 2:0.89499998 3:0.77499998 4:0.71499997 5:1 6:0.2903125 7:0 #
-0.52642976677194042 1:0.23999999 2:0.12 3:0.23999999 4:0.23999999 5:0 6:0 7:0.058653124 #
-1.5994001697836211 1:0.125 2:0.02 3:0.125 4:0.125 5:0.25 6:0 7:0.056033332 #
-0.21967973881253686 1:0.44 2:0.38499999 3:0.26499999 4:0.079999998 5:0.75 6:0 7:0 #
-3.9158238618401811 1:0.175 2:0.175 3:0.175 4:0 5:1 6:0 7:0.058800001 #
-30.976025462150574 1:0.93000001 2:0.87 3:0.75 4:0.69 5:1 6:0.1089 7:0 #
-0.0094201172837776737 1:0.29499999 2:0.175 3:0.205 4:0.085000001 5:0 6:0 7:0 #
-0.0016866171354195103 1:0.085000001 2:0.085000001 3:0.07 4:0 5:0 6:0 7:0.03916125 #
-0.0015113555897414699 1:0.16 2:0.039999999 3:0.16 4:0.16 5:0 6:0 7:0.082012497 #
