SVM-light Version V6.02
0 # kernel type
3 # kernel parameter -d 
1 # kernel parameter -g 
1 # kernel parameter -s 
1 # kernel parameter -r 
empty# kernel parameter -u 
7 # highest feature index 
10400 # number of training documents 
1181 # number of support vectors plus 1 
0.99996748 # threshold b, each following line is a SV (starting with alpha*y)
-1000 1:0.97000003 2:0.91000003 3:0.85000002 4:0.79000002 5:1 6:0 7:0 #
1000 1:0.73000002 2:0.67000002 3:0.61000001 4:0.49000001 5:0.75 6:0 7:0.62015623 #
1000 1:0.81 2:0.75 3:0.63 4:0.56999999 5:1 6:0.079806253 7:0 #
1000 1:0.98500001 2:0.92500001 3:0.86500001 4:0.80500001 5:0.75 6:0.51816249 7:0 #
-1000 1:0.95999998 2:0.89999998 3:0.83999997 4:0.77999997 5:1 6:0.59460622 7:0 #
1000 1:0 2:0 3:0 4:0 5:0 6:0 7:0.030031251 #
1000 1:0.93000001 2:0.87 3:0.81 4:0.75 5:1 6:0.087025002 7:0 #
-1000 1:0.95999998 2:0.89999998 3:0.83999997 4:0.72000003 5:1 6:0.32499999 7:0 #
1000 1:0.93000001 2:0.87 3:0.81 4:0.75 5:1 6:0.52435625 7:0 #
-1000 1:0.98000002 2:0.92000002 3:0.80000001 4:0.74000001 5:1 6:0.30125624 7:0 #
1000 1:0.98500001 2:0.92500001 3:0.86500001 4:0.80500001 5:0.75 6:0.070225 7:0 #
-1000 1:0.98500001 2:0.92500001 3:0.84500003 4:0.78500003 5:1 6:0.067599997 7:0 #
1000 1:0.045000002 2:0.045000002 3:0.045000002 4:0.045000002 5:0.5 6:0 7:0.18766876 #
-1000 1:0.25999999 2:0.25999999 3:0.145 4:0.25999999 5:1 6:0 7:0.14572084 #
1000 1:0 2:0 3:0 4:0 5:0 6:0 7:0.62015623 #
-1000 1:0.97500002 2:0.91500002 3:0.85500002 4:0.73500001 5:1 6:0 7:0 #
1000 1:0.93000001 2:0.87 3:0.75 4:0.69 5:1 6:0.119025 7:0 #
1000 1:0.93000001 2:0.87 3:0.81 4:0.75 5:1 6:0.18275625 7:0 #
1000 1:0.045000002 2:0.045000002 3:0.045000002 4:0.045000002 5:0 6:0 7:0.12043375 #
-1000 1:0.98000002 2:0.92000002 3:0.86000001 4:0.80000001 5:1 6:0.13505626 7:0 #
-1000 1:0.98500001 2:0.86500001 3:0.80500001 4:0.74000001 5:1 6:0.38345 7:0 #
-1000 1:0.98000002 2:0.92000002 3:0.83999997 4:0.77999997 5:1 6:0.105625 7:0 #
1000 1:0.93000001 2:0.87 3:0.75 4:0.69 5:0.75 6:0.067599997 7:0 #
1000 1:0.045000002 2:0 3:0 4:0 5:0 6:0 7:0.14728124 #
1000 1:0.45500001 2:0.45500001 3:0.45500001 4:0.33500001 5:1 6:0.54593748 7:0 #
-1000 1:0 2:0 3:0 4:0 5:0 6:0 7:0.62015623 #
-1000 1:0.0049999999 2:0.0049999999 3:0 4:0 5:0 6:0 7:0 #
-1000 1:0.94499999 2:0.88499999 3:0.82499999 4:0.70499998 5:1 6:0 7:0 #
-1000 1:0.22499999 2:0.185 3:0 4:0 5:0 6:0 7:0.046080001 #
-1000 1:0.97500002 2:0.91500002 3:0.83499998 4:0.77499998 5:1 6:0.26940626 7:0 #
-1000 1:0.039999999 2:0.039999999 3:0.039999999 4:0.039999999 5:0.25 6:0 7:0.40388125 #
1000 1:0.93000001 2:0.87 3:0.81 4:0.75 5:1 6:0.30591875 7:0 #
-1000 1:0.98500001 2:0.92500001 3:0.86500001 4:0.80500001 5:1 6:0.31825626 7:0 #
-999.70162797109163 1:0 2:0 3:0 4:0 5:0 6:0 7:0.65112501 #
-1000 1:0.98500001 2:0.92500001 3:0.86500001 4:0.80500001 5:1 6:0.36546251 7:0 #
1000 1:0.98000002 2:0.92000002 3:0.86000001 4:0.80000001 5:0.75 6:0.51073748 7:0 #
1000 1:0.064999998 2:0.025 3:0.025 4:0.025 5:0.5 6:0.13505626 7:0.042781249 #
-1000 1:0.98500001 2:0.92500001 3:0.86500001 4:0.80500001 5:0.75 6:0 7:0 #
-1000 1:0.97500002 2:0.91500002 3:0.85500002 4:0.73500001 5:1 6:0 7:0 #
-1000 1:0.025 2:0.025 3:0.025 4:0.025 5:0.75 6:0 7:0.082581252 #
1000 1:0.76499999 2:0.70499998 3:0.64499998 4:0.52499998 5:0.75 6:0 7:0.62015623 #
1000 1:0.91000003 2:0.85000002 3:0.73000002 4:0.67000002 5:1 6:0.16402499 7:0 #
-1000 1:0.0099999998 2:0.0099999998 3:0.0099999998 4:0.0099999998 5:0.75 6:0 7:0.045125 #
1000 1:0.93000001 2:0.87 3:0.75 4:0.69 5:1 6:0.11730625 7:0 #
1000 1:0.93000001 2:0.87 3:0.75 4:0.69 5:1 6:0.11055625 7:0 #
1000 1:0.75 2:0.69 3:0.56999999 4:0.50999999 5:1 6:0.1990875 7:0 #
-1000 1:0.98500001 2:0.92500001 3:0.86500001 4:0.80500001 5:1 6:0 7:0 #
1000 1:0.80500001 2:0.745 3:0.685 4:0.625 5:1 6:0.18460625 7:0 #
-1000 1:0.185 2:0.185 3:0.025 4:0.185 5:1 6:0.189225 7:0.079003125 #
1000 1:0.92000002 2:0.86000001 3:0.80000001 4:0.68000001 5:0 6:0.21728125 7:0 #
-316.04655536656122 1:0.23999999 2:0.12 3:0.215 4:0.23999999 5:0 6:0 7:0.047045 #
-1000 1:0.46000001 2:0.46000001 3:0.155 4:0.1 5:0.5 6:0 7:0 #
1000 1:0.85000002 2:0.79000002 3:0.73000002 4:0.61000001 5:1 6:0.1517 7:0 #
-1000 1:0.98500001 2:0.92500001 3:0.86500001 4:0.80500001 5:0.5 6:0.40555626 7:0 #
1000 1:0 2:0 3:0 4:0 5:0 6:0 7:0.093125001 #
1000 1:0.75 2:0.69 3:0.56999999 4:0.50999999 5:1 6:0.1624625 7:0 #
1000 1:0.155 2:0.155 3:0.155 4:0.155 5:0 6:0 7:0.23161562 #
1000 1:0.075000003 2:0.035 3:0.035 4:0.035 5:0.5 6:0.24415626 7:0.041861251 #
-1000 1:0.035 2:0.035 3:0.035 4:0.035 5:1 6:0 7:0.32333437 #
1000 1:0.73000002 2:0.67000002 3:0.55000001 4:0.49000001 5:1 6:0 7:0 #
1000 1:0 2:0 3:0 4:0 5:0 6:0 7:0.094099998 #
-1000 1:0.98500001 2:0.92500001 3:0.86500001 4:0.80500001 5:0.75 6:0.68194997 7:0 #
-1000 1:0.98500001 2:0.92500001 3:0.86500001 4:0.80500001 5:1 6:0.35923126 7:0 #
1000 1:0.79500002 2:0.73500001 3:0.67500001 4:0.61500001 5:1 6:0.28080624 7:0 #
1000 1:0 2:0 3:0 4:0 5:0 6:0 7:0.62015623 #
-1000 1:0.98500001 2:0.92500001 3:0.86500001 4:0.745 5:0.75 6:0.21400625 7:0 #
1000 1:0 2:0 3:0 4:0 5:0 6:0 7:0.12933375 #
1000 1:0.94 2:0.88 3:0.81999999 4:0.75999999 5:1 6:0.53821248 7:0 #
-1000 1:0.97500002 2:0.91500002 3:0.85500002 4:0.73500001 5:1 6:0 7:0 #
1000 1:0.235 2:0.235 3:0.235 4:0.235 5:0 6:0 7:0 #
1000 1:0.235 2:0.235 3:0.235 4:0.235 5:0.25 6:0 7:0.074102499 #
1000 1:0.025 2:0.025 3:0.025 4:0.025 5:0.5 6:0 7:0.18766876 #
1000 1:0.65499997 2:0.34999999 3:0.29499999 4:0.43000001 5:1 6:0 7:0.091205001 #
1000 1:0.015 2:0.015 3:0.015 4:0.015 5:0.5 6:0 7:0.18766876 #
-1000 1:0.02 2:0.02 3:0.02 4:0.02 5:0.25 6:0 7:0.47536251 #
-1000 1:0.035 2:0.035 3:0.035 4:0 5:1 6:0 7:0 #
1000 1:0.745 2:0.685 3:0.565 4:0.505 5:1 6:0.1914625 7:0 #
-1000 1:0.98500001 2:0.92500001 3:0.86500001 4:0.80500001 5:1 6:0 7:0 #
1000 1:0 2:0 3:0 4:0 5:0 6:0 7:0.11260125 #
1000 1:0.93000001 2:0.87 3:0.75 4:0.69 5:0.75 6:0 7:0 #
1000 1:0.93000001 2:0.87 3:0.81 4:0.75 5:0.75 6:0.32005 7:0 #
1000 1:0.98500001 2:0.92500001 3:0.86500001 4:0.80500001 5:0.5 6:0.33175626 7:0 #
1000 1:0.51499999 2:0.51499999 3:0.46000001 4:0.34 5:1 6:0.43125626 7:0 #
1000 1:0 2:0 3:0 4:0 5:0 6:0 7:0.12002 #
1000 1:0.93000001 2:0.87 3:0.81 4:0.75 5:0.75 6:0.3240625 7:0 #
1000 1:0 2:0 3:0 4:0 5:0 6:0 7:0.032000002 #
1000 1:0 2:0 3:0 4:0 5:0 6:0 7:0.11848375 #
1000 1:0.93000001 2:0.87 3:0.75 4:0.69 5:1 6:0 7:0 #
-1000 1:0.039999999 2:0.039999999 3:0.039999999 4:0.039999999 5:0.75 6:0 7:0.13572188 #
1000 1:0.935 2:0.875 3:0.69499999 4:0.63499999 5:0 6:0.19850001 7:0 #
-1000 1:0.98500001 2:0.92500001 3:0.86500001 4:0.745 5:0.75 6:0.2764625 7:0 #
-1000 1:0.97500002 2:0.91500002 3:0.85500002 4:0.73500001 5:1 6:0 7:0 #
-1000 1:0.98500001 2:0.92500001 3:0.86500001 4:0.80500001 5:1 6:0.13689999 7:0 #
1000 1:0.98000002 2:0.92000002 3:0.86000001 4:0.80000001 5:0.75 6:0.48605624 7:0 #
1000 1:0.875 2:0.815 3:0.63499999 4:0.57499999 5:0.25 6:0.081225 7:0 #
-1000 1:0.98500001 2:0.92500001 3:0.86500001 4:0.80500001 5:0.75 6:0.51816249 7:0 #
1000 1:0.77999997 2:0.72000003 3:0.66000003 4:0.60000002 5:1 6:0.17560625 7:0 #
1000 1:0.85000002 2:0.79000002 3:0.67000002 4:0.61000001 5:1 6:0.2348125 7:0 #
-1000 1:0.88 2:0.81999999 3:0.75999999 4:0.69999999 5:1 6:0.30320624 7:0 #
-1000 1:0.98500001 2:0.92500001 3:0.86500001 4:0.80500001 5:1 6:0.37105 7:0 #
-1000 1:0.98000002 2:0.89999998 3:0.83999997 4:0.77999997 5:1 6:0.1849 7:0 #
1000 1:0.215 2:0.215 3:0.215 4:0.215 5:0.5 6:0 7:0.030031251 #
1000 1:0.93000001 2:0.87 3:0.81 4:0.75 5:1 6:0.16395625 7:0 #
-1000 1:0.035 2:0.035 3:0.035 4:0.035 5:0.25 6:0.42640626 7:0.11400312 #
1000 1:0 2:0 3:0 4:0 5:0 6:0 7:0.12933375 #
1000 1:0.80000001 2:0.74000001 3:0.68000001 4:0.62 5:1 6:0.085556246 7:0 #
-1000 1:0.97500002 2:0.91500002 3:0.85500002 4:0.73500001 5:1 6:0 7:0 #
-968.23400240241608 1:0.035 2:0.035 3:0.035 4:0.035 5:0.25 6:0.41268125 7:0.18525624 #
1000 1:0.055 2:0.015 3:0.015 4:0.015 5:0.5 6:0.13322499 7:0.043711249 #
1000 1:0.39500001 2:0.34 3:0.22 4:0.035 5:1 6:0.24255624 7:0 #
1000 1:0.93000001 2:0.87 3:0.81 4:0.75 5:1 6:0.16395625 7:0 #
-1000 1:0.97500002 2:0.91500002 3:0.85500002 4:0.79500002 5:1 6:0.38845 7:0 #
-1000 1:0.025 2:0.025 3:0.025 4:0.025 5:0.25 6:0 7:0.084842503 #
1000 1:0.97500002 2:0.91500002 3:0.85500002 4:0.79500002 5:0.75 6:0.50463122 7:0 #
-1000 1:0.0049999999 2:0.0049999999 3:0.0049999999 4:0.0049999999 5:0.25 6:0 7:0.076401249 #
1000 1:0.91000003 2:0.85000002 3:0.73000002 4:0.67000002 5:0.75 6:0.11390625 7:0 #
-1000 1:0.81 2:0.75 3:0.63 4:0.56999999 5:1 6:0.28920624 7:0 #
1000 1:0.15000001 2:0.15000001 3:0.15000001 4:0.12 5:0.75 6:0 7:0.097692497 #
-1000 1:0.215 2:0.17 3:0.11 4:0 5:0 6:0 7:0 #
-1000 1:0.215 2:0.094999999 3:0.215 4:0.215 5:1 6:0 7:0 #
-1000 1:0.075000003 2:0.075000003 3:0.075000003 4:0.075000003 5:0.25 6:0.198025 7:0.18525624 #
-1000 1:0.56999999 2:0.44999999 3:0.20999999 4:0.20999999 5:0.25 6:0.22562499 7:0 #
1000 1:0 2:0 3:0 4:0 5:0 6:0 7:0.0874625 #
-1000 1:0.090000004 2:0 3:0 4:0 5:0 6:0 7:0 #
1000 1:0.93000001 2:0.87 3:0.81 4:0.75 5:1 6:0.090000004 7:0 #
1000 1:0.93000001 2:0.87 3:0.81 4:0.75 5:0.75 6:0.30816251 7:0 #
1000 1:0.73000002 2:0.67000002 3:0.55000001 4:0.49000001 5:1 6:0.1352125 7:0 #
-1000 1:0.079999998 2:0.079999998 3:0.079999998 4:0.079999998 5:0.75 6:0 7:0.051756252 #
-1000 1:0.95999998 2:0.89999998 3:0.83999997 4:0.72000003 5:1 6:0 7:0 #
-1000 1:0.96499997 2:0.90499997 3:0.84500003 4:0.78500003 5:1 6:0.27798125 7:0 #
1000 1:0.93000001 2:0.87 3:0.81 4:0.75 5:0 6:0.36418751 7:0 #
-1000 1:0 2:0 3:0 4:0 5:0 6:0 7:0 #
1000 1:0 2:0 3:0 4:0 5:0 6:0 7:0.14728124 #
1000 1:0.045000002 2:0.045000002 3:0.045000002 4:0.045000002 5:0.5 6:0 7:0.024499999 #
1000 1:0.93000001 2:0.87 3:0.81 4:0.75 5:1 6:0 7:0.093162499 #
-1000 1:0.97500002 2:0.85500002 3:0.79500002 4:0.73000002 5:1 6:0.37911251 7:0 #
-1000 1:0.96499997 2:0.90499997 3:0.84500003 4:0.72500002 5:1 6:0 7:0 #
1000 1:0.98500001 2:0.92500001 3:0.86500001 4:0.80500001 5:0.75 6:0.31621251 7:0 #
1000 1:0.85000002 2:0.79000002 3:0.73000002 4:0.61000001 5:1 6:0.15125 7:0 #
-1000 1:0.98500001 2:0.90499997 3:0.84500003 4:0.78500003 5:1 6:0.1849 7:0 #
1000 1:0.98000002 2:0.92000002 3:0.86000001 4:0.74000001 5:0.75 6:0.20753124 7:0 #
1000 1:0.86000001 2:0.80000001 3:0.74000001 4:0.68000001 5:1 6:0.20010625 7:0 #
-1000 1:0.039999999 2:0.039999999 3:0.039999999 4:0.039999999 5:0.25 6:0 7:0.40388125 #
1000 1:0.80500001 2:0.745 3:0.685 4:0.625 5:1 6:0.087025002 7:0 #
-1000 1:0.39500001 2:0.39500001 3:0.39500001 4:0.27500001 5:1 6:0.41745624 7:0 #
1000 1:0.93000001 2:0.87 3:0.75 4:0.69 5:1 6:0 7:0 #
1000 1:0.76999998 2:0.70999998 3:0.58999997 4:0.52999997 5:1 6:0.13135625 7:0 #
1000 1:0.075000003 2:0.075000003 3:0.075000003 4:0.075000003 5:0 6:0 7:0.12312812 #
1000 1:0.155 2:0.155 3:0.155 4:0.155 5:0.75 6:0 7:0 #
-999.98146107536581 1:0.15000001 2:0.15000001 3:0.11 4:0 5:0 6:0 7:0.060841251 #
-1000 1:0.055 2:0.035 3:0 4:0 5:0 6:0 7:0.12355208 #
1000 1:0.91000003 2:0.85000002 3:0.79000002 4:0.73000002 5:1 6:0.24255624 7:0 #
-1000 1:0.064999998 2:0.064999998 3:0.059999999 4:0 5:0.75 6:0 7:0.071302086 #
-1000 1:0.075000003 2:0.075000003 3:0.075000003 4:0.075000003 5:0.25 6:0.40815625 7:0.18525624 #
-1000 1:0.56999999 2:0.44999999 3:0.20999999 4:0.20999999 5:0.25 6:0.216225 7:0 #
1000 1:0.125 2:0.0049999999 3:0.0049999999 4:0.0049999999 5:0.5 6:0.23380625 7:0.055814061 #
1000 1:0.0049999999 2:0 3:0 4:0 5:0 6:0 7:0.084406249 #
1000 1:0.31999999 2:0.205 3:0.205 4:0.205 5:0 6:0 7:0.23887813 #
-1000 1:0.055 2:0.055 3:0.055 4:0.055 5:0.75 6:0 7:0.095140629 #
-1000 1:0.13 2:0.13 3:0.13 4:0.075000003 5:0 6:0 7:0.03362 #
-1000 1:0.98000002 2:0.92000002 3:0.86000001 4:0.80000001 5:1 6:0.53746247 7:0 #
-1000 1:0.31 2:0.31 3:0.28 4:0.19 5:0 6:0 7:0.041861251 #
-1000 1:0.1 2:0.1 3:0.1 4:0.1 5:0.75 6:0 7:0.11801667 #
-1000 1:0.035 2:0.035 3:0.035 4:0.035 5:0.25 6:0.42180625 7:0.11400312 #
-1000 1:0.56999999 2:0.44999999 3:0.20999999 4:0.20999999 5:0.25 6:0.216225 7:0 #
-1000 1:0.98000002 2:0.92000002 3:0.86000001 4:0.80000001 5:1 6:0.13689999 7:0 #
-1000 1:0.31 2:0.31 3:0.28 4:0.19 5:0 6:0 7:0.041861251 #
1000 1:0.015 2:0.015 3:0.015 4:0.015 5:0.25 6:0 7:0.11618375 #
1000 1:0.79000002 2:0.73000002 3:0.67000002 4:0.61000001 5:1 6:0.17858125 7:0 #
1000 1:0.97500002 2:0.91500002 3:0.85500002 4:0.73500001 5:0.5 6:0.21785 7:0 #
-1000 1:0.98500001 2:0.86500001 3:0.80500001 4:0.74000001 5:1 6:0.11055625 7:0 #
-1000 1:0.050000001 2:0.050000001 3:0.050000001 4:0.050000001 5:0.75 6:0 7:0.082900003 #
1000 1:0.0049999999 2:0.0049999999 3:0.0049999999 4:0.0049999999 5:0.5 6:0 7:0.18766876 #
1000 1:0 2:0 3:0 4:0 5:0 6:0 7:0.13047625 #
-1000 1:0.98500001 2:0.92500001 3:0.86500001 4:0.745 5:0.75 6:0.26743749 7:0 #
-1000 1:0.035 2:0.0049999999 3:0.0049999999 4:0.035 5:0.75 6:0 7:0.11095375 #
-1000 1:0.98000002 2:0.86000001 3:0.80000001 4:0.73500001 5:1 6:0.11055625 7:0 #
1000 1:0.78500003 2:0.72500002 3:0.66500002 4:0.60500002 5:1 6:0.17858125 7:0 #
1000 1:0.98500001 2:0.92500001 3:0.86500001 4:0.80500001 5:0 6:0.17405 7:0 #
1000 1:0.74000001 2:0.68000001 3:0.56 4:0.5 5:1 6:0.154025 7:0 #
1000 1:0.39500001 2:0.39500001 3:0.39500001 4:0.27500001 5:1 6:0.41745624 7:0 #
1000 1:0.93000001 2:0.87 3:0.75 4:0.69 5:1 6:0.1156 7:0 #
1000 1:0.090000004 2:0.090000004 3:0 4:0 5:1 6:0.2630125 7:0 #
1000 1:0.075000003 2:0.075000003 3:0.075000003 4:0.075000003 5:0.5 6:0 7:0.11400312 #
-1000 1:0.91000003 2:0.85000002 3:0.79000002 4:0.73000002 5:1 6:0.51645625 7:0 #
-1000 1:0.98500001 2:0.92500001 3:0.86500001 4:0.80500001 5:0.75 6:0 7:0 #
1000 1:0.035 2:0.035 3:0.035 4:0.035 5:0.5 6:0 7:0.18766876 #
1000 1:0.035 2:0.035 3:0.035 4:0.035 5:0.25 6:0 7:0.11883375 #
1000 1:0.93000001 2:0.87 3:0.81 4:0.75 5:1 6:0.16390625 7:0 #
1000 1:0.94999999 2:0.88999999 3:0.82999998 4:0.76999998 5:0 6:0 7:0 #
-1000 1:0.155 2:0.155 3:0.155 4:0.155 5:0.5 6:0 7:0.075812504 #
1000 1:0.39500001 2:0.39500001 3:0.39500001 4:0.27500001 5:1 6:0.35603124 7:0 #
1000 1:0.75999999 2:0.69999999 3:0.63999999 4:0.51999998 5:0.75 6:0 7:0.62015623 #
-999.99704143300926 1:0.2 2:0.094999999 3:0.2 4:0.2 5:0 6:0 7:0 #
1000 1:0.73500001 2:0.67500001 3:0.61500001 4:0.495 5:0.75 6:0 7:0.62015623 #
-1000 1:0.055 2:0.055 3:0.055 4:0.055 5:0.25 6:0 7:0.19341876 #
-1000 1:0.050000001 2:0.050000001 3:0.050000001 4:0.050000001 5:1 6:0 7:0.099325001 #
1000 1:0.085000001 2:0.045000002 3:0.045000002 4:0.045000002 5:0.5 6:0.24765626 7:0.040951248 #
1000 1:0 2:0 3:0 4:0 5:0 6:0 7:0.12933375 #
-1000 1:0.85000002 2:0.79000002 3:0.73000002 4:0.61000001 5:1 6:0.17055625 7:0 #
-1000 1:0.91000003 2:0.85000002 3:0.79000002 4:0.73000002 5:1 6:0.51645625 7:0 #
-1000 1:0.98500001 2:0.92500001 3:0.84500003 4:0.78500003 5:1 6:0.27703124 7:0 #
-999.10925741205176 1:0 2:0 3:0 4:0 5:0 6:0.1156 7:0.03403125 #
1000 1:0.51499999 2:0.46000001 3:0.34 4:0.34 5:0.75 6:0.066306248 7:0 #
1000 1:0.0049999999 2:0.0049999999 3:0.0049999999 4:0.0049999999 5:0.25 6:0 7:0.076002084 #
-1000 1:0.02 2:0.02 3:0.02 4:0.02 5:0.25 6:0 7:0.47536251 #
-1000 1:0.064999998 2:0.064999998 3:0.064999998 4:0.064999998 5:0.75 6:0 7:0.095501564 #
1000 1:0.16500001 2:0.16500001 3:0.16500001 4:0.16500001 5:0.75 6:0.13135625 7:0 #
-1000 1:0.079999998 2:0.079999998 3:0.079999998 4:0.079999998 5:0.75 6:0 7:0.051756252 #
1000 1:0.93000001 2:0.87 3:0.81 4:0.75 5:1 6:0.088506252 7:0 #
1000 1:0.76999998 2:0.70999998 3:0.64999998 4:0.58999997 5:1 6:0.17265625 7:0 #
-1000 1:0.97500002 2:0.91500002 3:0.85500002 4:0.79500002 5:1 6:0.10725625 7:0 #
-1000 1:0.094999999 2:0.055 3:0.094999999 4:0.094999999 5:0.5 6:0 7:0.073262498 #
-1000 1:0.96499997 2:0.90499997 3:0.84500003 4:0.78500003 5:1 6:0 7:0 #
1000 1:0.064999998 2:0.064999998 3:0.064999998 4:0.0049999999 5:1 6:0 7:0.12933375 #
1000 1:0.64499998 2:0.34 3:0.285 4:0.16500001 5:1 6:0 7:0.093125001 #
1000 1:0.035 2:0.035 3:0.035 4:0.035 5:0.75 6:0 7:0.12207375 #
1000 1:0.025 2:0.025 3:0.025 4:0.025 5:0.75 6:0.119025 7:0.064962499 #
1000 1:0.89999998 2:0.83999997 3:0.77999997 4:0.66000003 5:0 6:0.14822499 7:0 #
-1000 1:0.98000002 2:0.92000002 3:0.80000001 4:0.74000001 5:1 6:0 7:0 #
-1000 1:0.215 2:0.215 3:0.215 4:0.215 5:0.75 6:0.17430624 7:0 #
-1000 1:0.98000002 2:0.92000002 3:0.83999997 4:0.77999997 5:1 6:0.27308124 7:0 #
1000 1:0.025 2:0.025 3:0.025 4:0.025 5:0.75 6:0 7:0.12207375 #
1000 1:0.94499999 2:0.88499999 3:0.82499999 4:0.70499998 5:0.5 6:0.34180626 7:0 #
-1000 1:0.039999999 2:0.039999999 3:0.039999999 4:0.039999999 5:0.5 6:0 7:0.075208336 #
-1000 1:0.40000001 2:0.40000001 3:0.40000001 4:0.40000001 5:0.75 6:0 7:0 #
-1000 1:0.02 2:0.02 3:0.02 4:0.02 5:1 6:0 7:0.068125002 #
1000 1:0.98500001 2:0.92500001 3:0.86500001 4:0.80500001 5:0 6:0.1378125 7:0 #
-1000 1:0.96499997 2:0.90499997 3:0.78500003 4:0.72500002 5:1 6:0.30728126 7:0 #
1000 1:0.93000001 2:0.75 3:0.69 4:0.63 5:0.75 6:0 7:0 #
1000 1:0.0099999998 2:0.0099999998 3:0.0099999998 4:0.0099999998 5:0.75 6:0 7:0.093125001 #
-1000 1:0.40000001 2:0.40000001 3:0.40000001 4:0.40000001 5:0.75 6:0 7:0 #
1000 1:0.87 2:0.81 3:0.75 4:0.69 5:1 6:0.28320625 7:0 #
1000 1:0.055 2:0.055 3:0.055 4:0.055 5:1 6:0 7:0.27535936 #
1000 1:0.93000001 2:0.87 3:0.81 4:0.75 5:0 6:0.21855626 7:0 #
-1000 1:0.98000002 2:0.92000002 3:0.80000001 4:0.74000001 5:0.75 6:0.39460626 7:0 #
1000 1:0.075000003 2:0.075000003 3:0.075000003 4:0.075000003 5:1 6:0 7:0.0874625 #
1000 1:0.245 2:0.245 3:0.245 4:0.245 5:0.75 6:0 7:0.02775125 #
1000 1:0.93000001 2:0.87 3:0.81 4:0.75 5:0.75 6:0.31209999 7:0 #
-1000 1:0.02 2:0.02 3:0.02 4:0.02 5:1 6:0 7:0.037845001 #
-1000 1:0.95499998 2:0.89499998 3:0.83499998 4:0.77499998 5:0 6:0.090000004 7:0 #
-1000 1:0.02 2:0.02 3:0.02 4:0.02 5:1 6:0 7:0.036979999 #
-1000 1:0.815 2:0.755 3:0.63499999 4:0.57499999 5:1 6:0.29648125 7:0 #
-1000 1:0.76999998 2:0.70999998 3:0.64999998 4:0.52999997 5:0.75 6:0 7:0.62015623 #
-1000 1:0.95499998 2:0.89499998 3:0.83499998 4:0.77499998 5:0 6:0 7:0 #
1000 1:0.91000003 2:0.85000002 3:0.79000002 4:0.73000002 5:0.75 6:0.2238 7:0 #
-1000 1:0.98500001 2:0.92500001 3:0.80500001 4:0.745 5:0.5 6:0 7:0 #
1000 1:0.045000002 2:0.045000002 3:0.045000002 4:0.045000002 5:0.75 6:0 7:0.11014375 #
1000 1:0.80000001 2:0.74000001 3:0.62 4:0.56 5:1 6:0.15300626 7:0 #
1000 1:0.11 2:0.11 3:0.11 4:0.11 5:1 6:0 7:0.20335416 #
1000 1:0.055 2:0.055 3:0.055 4:0.055 5:1 6:0 7:0.083762497 #
-1000 1:0.16500001 2:0.045000002 3:0 4:0 5:0.75 6:0 7:0.64666873 #
-1000 1:0.94999999 2:0.88999999 3:0.81 4:0.75 5:1 6:0.1444 7:0 #
1000 1:0.97500002 2:0.91500002 3:0.85500002 4:0.79500002 5:0.75 6:0.3044 7:0 #
1000 1:0.025 2:0.025 3:0.025 4:0.025 5:0.75 6:0 7:0.11014375 #
1000 1:0.059999999 2:0.059999999 3:0.059999999 4:0.059999999 5:1 6:0 7:0.087425001 #
-1000 1:0.07 2:0.07 3:0.07 4:0.07 5:1 6:0 7:0.042319998 #
-518.58157210468153 1:0.16500001 2:0.045000002 3:0 4:0 5:0.75 6:0 7:0.64666873 #
-1000 1:0.02 2:0.02 3:0.02 4:0.02 5:0.75 6:0 7:0.084082499 #
1000 1:0 2:0 3:0 4:0 5:0 6:0 7:0.032000002 #
-1000 1:0.02 2:0.02 3:0.02 4:0.02 5:1 6:0 7:0.036125001 #
1000 1:0.94499999 2:0.88499999 3:0.82499999 4:0.76499999 5:0.75 6:0.27031249 7:0 #
-1000 1:0.875 2:0.815 3:0.69499999 4:0.63499999 5:1 6:0.085556246 7:0 #
1000 1:0.07 2:0.07 3:0.07 4:0.07 5:1 6:0 7:0.083724998 #
-1000 1:0.064999998 2:0.064999998 3:0.064999998 4:0.025 5:0.75 6:0 7:0.038281251 #
-1000 1:0.25999999 2:0.25999999 3:0.185 4:0.25999999 5:1 6:0 7:0.14572084 #
1000 1:0.12 2:0.12 3:0.12 4:0.12 5:1 6:0 7:0.19889583 #
1000 1:0.97000003 2:0.91000003 3:0.85000002 4:0.79000002 5:0.75 6:0.0625 7:0 #
1000 1:0.87 2:0.81 3:0.75 4:0.69 5:1 6:0.29166251 7:0 #
-1000 1:0.375 2:0.33500001 3:0.094999999 4:0.085000001 5:0.75 6:0 7:0 #
-1000 1:0.98500001 2:0.92500001 3:0.86500001 4:0.80500001 5:0.75 6:0.34743124 7:0 #
1000 1:0.94499999 2:0.88499999 3:0.82499999 4:0.76499999 5:0.75 6:0.5047875 7:0 #
1000 1:0.0099999998 2:0.0099999998 3:0.0099999998 4:0.0099999998 5:0.75 6:0 7:0.20628542 #
-1000 1:0.41999999 2:0.35499999 3:0.235 4:0.41999999 5:1 6:0 7:0 #
-1000 1:0.075000003 2:0 3:0 4:0 5:1 6:0 7:0.10237812 #
-1000 1:0.045000002 2:0.039999999 3:0 4:0 5:1 6:0 7:0.10927813 #
-1000 1:0.95499998 2:0.89499998 3:0.83499998 4:0.71499997 5:1 6:0.3210125 7:0 #
-1000 1:0.02 2:0.02 3:0.02 4:0.02 5:1 6:0 7:0.071465001 #
-1000 1:0.98500001 2:0.92500001 3:0.86500001 4:0.80500001 5:0.5 6:0.38933751 7:0 #
-1000 1:0.98500001 2:0.92500001 3:0.86500001 4:0.80500001 5:0.75 6:0.34743124 7:0 #
1000 1:0.93000001 2:0.87 3:0.81 4:0.75 5:0.75 6:0.31606251 7:0 #
1000 1:0.40000001 2:0.255 3:0.16 4:0.13500001 5:1 6:0 7:0 #
1000 1:0.064999998 2:0.064999998 3:0.064999998 4:0.064999998 5:1 6:0 7:0.26898438 #
-1000 1:0.30500001 2:0.185 3:0.185 4:0.025 5:1 6:0.14250626 7:0 #
-1000 1:0.98500001 2:0.92500001 3:0.86500001 4:0.80500001 5:1 6:0 7:0 #
1000 1:0.19499999 2:0.12 3:0.085000001 4:0.02 5:1 6:0 7:0.14959583 #
1000 1:0.93000001 2:0.87 3:0.81 4:0.75 5:0.75 6:0.41015625 7:0 #
1000 1:0.28 2:0.22499999 3:0.12 4:0.064999998 5:1 6:0.2630125 7:0 #
1000 1:0.86000001 2:0.80000001 3:0.74000001 4:0.68000001 5:1 6:0.10400625 7:0 #
1000 1:0.83499998 2:0.77499998 3:0.65499997 4:0.59500003 5:1 6:0.21799999 7:0 #
-1000 1:0.98500001 2:0.92500001 3:0.86500001 4:0.80500001 5:0.5 6:0.40011251 7:0 #
1000 1:0.97000003 2:0.91000003 3:0.85000002 4:0.79000002 5:0.75 6:0.30051249 7:0 #
-1000 1:0.16500001 2:0.16500001 3:0.16500001 4:0.16500001 5:1 6:0.10725625 7:0.03403125 #
-797.84669002722876 1:0.92000002 2:0.86000001 3:0.74000001 4:0.68000001 5:0.25 6:0.53980625 7:0 #
1000 1:0.105 2:0.105 3:0.105 4:0.105 5:1 6:0 7:0.21918125 #
-1000 1:0.205 2:0.205 3:0.205 4:0.205 5:0.5 6:0 7:0.03081125 #
1000 1:0.075000003 2:0.075000003 3:0.075000003 4:0.075000003 5:1 6:0 7:0.10507375 #
-1000 1:0.02 2:0 3:0 4:0 5:0 6:0 7:0.041405 #
-1000 1:0.029999999 2:0.029999999 3:0.0099999998 4:0.029999999 5:1 6:0 7:0.036125001 #
-1000 1:0.36500001 2:0.245 3:0.0049999999 4:0 5:1 6:0 7:0 #
-1000 1:0.815 2:0.73500001 3:0.67500001 4:0.55500001 5:0.5 6:0.21390624 7:0.43731251 #
-790.80577886372339 1:0.035 2:0.035 3:0.035 4:0.035 5:0.25 6:0.16200624 7:0.076002084 #
1000 1:0.035 2:0.035 3:0.035 4:0.035 5:0.75 6:0 7:0.11014375 #
-1000 1:0.495 2:0.495 3:0.495 4:0.44499999 5:1 6:0 7:0 #
-1000 1:0.33000001 2:0.33000001 3:0.33000001 4:0.33000001 5:1 6:0 7:0.048511252 #
1000 1:0.055 2:0.055 3:0.055 4:0.055 5:1 6:0 7:0.21972813 #
-1000 1:0.105 2:0.059999999 3:0 4:0 5:1 6:0 7:0 #
-1000 1:0.98500001 2:0.92500001 3:0.86500001 4:0.80500001 5:0.5 6:0.3955875 7:0 #
-1000 1:0.40000001 2:0.40000001 3:0.40000001 4:0.40000001 5:0.75 6:0 7:0 #
-1000 1:0.41999999 2:0.36500001 3:0.245 4:0.125 5:1 6:0 7:0 #
-1000 1:0.17 2:0.055 3:0.17 4:0.090000004 5:0.75 6:0 7:0 #
1000 1:0.055 2:0.055 3:0.055 4:0.055 5:1 6:0 7:0.1944875 #
-1000 1:0.495 2:0.495 3:0.495 4:0.44499999 5:1 6:0 7:0 #
-1000 1:0.13 2:0.13 3:0 4:0 5:1 6:0 7:0 #
-1000 1:0.98500001 2:0.92500001 3:0.80500001 4:0.745 5:0.75 6:0.40053126 7:0 #
-1000 1:0.40000001 2:0.40000001 3:0.40000001 4:0.40000001 5:0.75 6:0 7:0 #
-1000 1:0.094999999 2:0.094999999 3:0.094999999 4:0.094999999 5:0.75 6:0 7:0.040051252 #
-1000 1:0 2:0 3:0 4:0 5:0 6:0 7:0.048511252 #
1000 1:0.015 2:0.015 3:0.015 4:0.015 5:0.75 6:0 7:0.12933375 #
1000 1:0.93000001 2:0.87 3:0.81 4:0.75 5:0.5 6:0.40555626 7:0 #
-1000 1:0.98500001 2:0.92500001 3:0.86500001 4:0.80500001 5:0.75 6:0.35160625 7:0 #
1000 1:0.22499999 2:0.22499999 3:0.22499999 4:0.22499999 5:0.5 6:0 7:0.02926125 #
-1000 1:0.39500001 2:0.39500001 3:0.39500001 4:0.39500001 5:1 6:0.31515625 7:0 #
1000 1:0.95999998 2:0.89999998 3:0.83999997 4:0.77999997 5:0.75 6:0.48421249 7:0 #
1000 1:0.96499997 2:0.90499997 3:0.84500003 4:0.78500003 5:0.75 6:0.49133751 7:0 #
1000 1:0.41 2:0.26499999 3:0.17 4:0.145 5:1 6:0 7:0 #
-1000 1:0.98500001 2:0.92500001 3:0.80500001 4:0.745 5:0.5 6:0.31515625 7:0 #
1000 1:0.98000002 2:0.92000002 3:0.86000001 4:0.80000001 5:0.75 6:0.068906248 7:0 #
1000 1:0.045000002 2:0.045000002 3:0.045000002 4:0.045000002 5:0.75 6:0 7:0.12207375 #
-1000 1:0.17 2:0.17 3:0.145 4:0.025 5:1 6:0 7:0.19341876 #
1000 1:0.93000001 2:0.75 3:0.69 4:0.63 5:0.75 6:0 7:0 #
-1000 1:0 2:0 3:0 4:0 5:0 6:0 7:0.034444999 #
1000 1:0.93000001 2:0.87 3:0.75 4:0.69 5:0.75 6:0 7:0 #
1000 1:0.93000001 2:0.87 3:0.75 4:0.69 5:0.75 6:0.12075625 7:0 #
1000 1:0.98000002 2:0.92000002 3:0.86000001 4:0.80000001 5:0.75 6:0.31224999 7:0 #
1000 1:0.0049999999 2:0.0049999999 3:0.0049999999 4:0.0049999999 5:0.75 6:0 7:0.12933375 #
-1000 1:0.98500001 2:0.92500001 3:0.86500001 4:0.80500001 5:1 6:0.12602501 7:0 #
1000 1:0.07 2:0.07 3:0.07 4:0.07 5:1 6:0 7:0.1157825 #
-1000 1:0.98000002 2:0.92000002 3:0.80000001 4:0.74000001 5:0.5 6:0 7:0 #
-1000 1:0.345 2:0.27000001 3:0.15000001 4:0.15000001 5:0.75 6:0 7:0 #
1000 1:0.125 2:0.125 3:0.125 4:0.125 5:1 6:0 7:0.20993125 #
-1000 1:0.38 2:0.38 3:0.38 4:0.38 5:0.75 6:0 7:0 #
-1000 1:0 2:0 3:0 4:0 5:0 6:0 7:0.038281251 #
1000 1:0.015 2:0.015 3:0.015 4:0.015 5:0.25 6:0 7:0.076002084 #
-1000 1:0.090000004 2:0.090000004 3:0.090000004 4:0.090000004 5:0.25 6:0 7:0.12472083 #
1000 1:0.97000003 2:0.91000003 3:0.85000002 4:0.79000002 5:0.75 6:0.49735624 7:0 #
1000 1:0.059999999 2:0.059999999 3:0.059999999 4:0.059999999 5:1 6:0 7:0.21506563 #
-1000 1:0.97500002 2:0.91500002 3:0.79500002 4:0.73500001 5:1 6:0.29653749 7:0 #
-1000 1:0.83499998 2:0.77499998 3:0.65499997 4:0.59500003 5:0.25 6:0.4447875 7:0 #
1000 1:0.059999999 2:0.059999999 3:0.059999999 4:0.059999999 5:1 6:0 7:0.085565001 #
-1000 1:0.105 2:0.059999999 3:0 4:0 5:1 6:0 7:0 #
-1000 1:0 2:0 3:0 4:0 5:0 6:0 7:0.03528 #
-1000 1:0.97500002 2:0.91500002 3:0.79500002 4:0.73500001 5:0.75 6:0.088506252 7:0 #
1000 1:0.064999998 2:0.064999998 3:0.064999998 4:0.064999998 5:1 6:0 7:0.19012916 #
1000 1:0.235 2:0.235 3:0.235 4:0.235 5:0.75 6:0 7:0.02850125 #
1000 1:0.94999999 2:0.88999999 3:0.82999998 4:0.76999998 5:0.75 6:0.51090628 7:0 #
1000 1:0.98500001 2:0.92500001 3:0.86500001 4:0.80500001 5:0 6:0.1410125 7:0 #
1000 1:0.039999999 2:0.039999999 3:0.039999999 4:0.039999999 5:0.75 6:0 7:0.042319998 #
-1000 1:0.035 2:0.0049999999 3:0.0049999999 4:0.035 5:0.75 6:0 7:0.11354375 #
-1000 1:0.185 2:0.185 3:0.025 4:0.185 5:1 6:0.14630625 7:0 #
1000 1:0.93000001 2:0.87 3:0.81 4:0.75 5:0.5 6:0.38400626 7:0 #
1000 1:0.015 2:0.015 3:0.015 4:0.015 5:0.75 6:0 7:0.12207375 #
1000 1:0.16 2:0.16 3:0.16 4:0.16 5:0.75 6:0 7:0.11309125 #
1000 1:0.95999998 2:0.89999998 3:0.83999997 4:0.77999997 5:0.75 6:0.289 7:0 #
1000 1:0.115 2:0.115 3:0.115 4:0.115 5:1 6:0 7:0.21453124 #
1000 1:0.245 2:0.245 3:0.245 4:0.245 5:1 6:0 7:0.25945625 #
-1000 1:0.98500001 2:0.92500001 3:0.86500001 4:0.80500001 5:0.5 6:0.15800625 7:0 #
-1000 1:0.98500001 2:0.92500001 3:0.86500001 4:0.80500001 5:0.5 6:0.39470625 7:0 #
1000 1:0.0049999999 2:0.0049999999 3:0.0049999999 4:0.0049999999 5:0.75 6:0 7:0.12207375 #
1000 1:0.055 2:0.055 3:0.055 4:0.055 5:0.75 6:0 7:0.14075156 #
1000 1:0.92000002 2:0.86000001 3:0.80000001 4:0.74000001 5:0.5 6:0.29776251 7:0 #
-1000 1:0.935 2:0.875 3:0.815 4:0.755 5:0.5 6:0.13140625 7:0 #
-1000 1:0.98500001 2:0.92500001 3:0.80500001 4:0.745 5:1 6:0.31080624 7:0 #
1000 1:0.77499998 2:0.71499997 3:0.65499997 4:0.59500003 5:1 6:0.17560625 7:0 #
-1000 1:0.98500001 2:0.92500001 3:0.86500001 4:0.80500001 5:1 6:0.13322499 7:0 #
-1000 1:0.96499997 2:0.90499997 3:0.84500003 4:0.72500002 5:1 6:0.32499999 7:0 #
-1000 1:0.98500001 2:0.92500001 3:0.86500001 4:0.80500001 5:1 6:0.082656249 7:0 #
1000 1:0.025 2:0.025 3:0.025 4:0.025 5:0.75 6:0 7:0.12933375 #
-1000 1:0.98500001 2:0.92500001 3:0.86500001 4:0.80500001 5:0.75 6:0.072899997 7:0 #
1000 1:0.015 2:0.015 3:0.015 4:0.015 5:0.75 6:0 7:0.11014375 #
-1000 1:0.98500001 2:0.92500001 3:0.86500001 4:0.80500001 5:0.5 6:0.36305624 7:0 #
1000 1:0.93000001 2:0.75 3:0.69 4:0.63 5:0.75 6:0 7:0 #
1000 1:0.95499998 2:0.89499998 3:0.83499998 4:0.77499998 5:0.75 6:0.28145 7:0 #
1000 1:0.73000002 2:0.67000002 3:0.55000001 4:0.49000001 5:1 6:0.143125 7:0 #
-1000 1:0.1 2:0.064999998 3:0.059999999 4:0.1 5:0.75 6:0 7:0.039604999 #
1000 1:0.025 2:0.025 3:0.025 4:0.025 5:0.25 6:0 7:0.076002084 #
1000 1:0.96499997 2:0.90499997 3:0.84500003 4:0.78500003 5:0.75 6:0.2928125 7:0 #
-1000 1:0.98500001 2:0.92500001 3:0.86500001 4:0.80500001 5:1 6:0 7:0 #
-1000 1:0.02 2:0.02 3:0.02 4:0 5:1 6:0 7:0.089364998 #
-1000 1:0.39500001 2:0.39500001 3:0.39500001 4:0.39500001 5:1 6:0.35183126 7:0 #
-1000 1:0.87 2:0.81 3:0.75 4:0.69 5:0 6:0 7:0 #
-1000 1:0.13500001 2:0.015 3:0.015 4:0 5:0.5 6:0 7:0 #
-1000 1:0.15000001 2:0.029999999 3:0.029999999 4:0.15000001 5:1 6:0 7:0 #
-1000 1:0.33000001 2:0.33000001 3:0.33000001 4:0.33000001 5:1 6:0 7:0.048511252 #
1000 1:0.0049999999 2:0.0049999999 3:0.0049999999 4:0.0049999999 5:0.75 6:0 7:0.11014375 #
1000 1:0.745 2:0.685 3:0.565 4:0.505 5:1 6:0.1568125 7:0 #
-1000 1:0.40000001 2:0.40000001 3:0.40000001 4:0.40000001 5:0.75 6:0 7:0 #
-1000 1:0.87 2:0.81 3:0.69 4:0.63 5:1 6:0.082656249 7:0 #
1000 1:0.94999999 2:0.88999999 3:0.82999998 4:0.76999998 5:0.75 6:0.27771249 7:0 #
1000 1:0.055 2:0.055 3:0.055 4:0.055 5:1 6:0 7:0.12207375 #
1000 1:0.055 2:0.055 3:0.055 4:0.055 5:1 6:0 7:0.0912425 #
-1000 1:0.215 2:0.215 3:0.215 4:0.215 5:1 6:0.41065624 7:0 #
-1000 1:0.98500001 2:0.92500001 3:0.84500003 4:0.78500003 5:0.25 6:0 7:0 #
1000 1:0.93000001 2:0.87 3:0.81 4:0.75 5:0 6:0.36215624 7:0 #
-1000 1:0.495 2:0.495 3:0.44499999 4:0.32499999 5:1 6:0 7:0 #
-1000 1:0.14 2:0.02 3:0.02 4:0.07 5:1 6:0 7:0.03528 #
-1000 1:0.050000001 2:0.050000001 3:0.050000001 4:0.050000001 5:0.75 6:0 7:0.055225 #
1000 1:0.91000003 2:0.85000002 3:0.73000002 4:0.67000002 5:0.75 6:0.078400001 7:0 #
1000 1:0.18000001 2:0.18000001 3:0.18000001 4:0.18000001 5:1 6:0 7:0.18198282 #
1000 1:0.82999998 2:0.76999998 3:0.64999998 4:0.58999997 5:0.5 6:0.087025002 7:0 #
1000 1:0.93000001 2:0.87 3:0.81 4:0.75 5:0 6:0.21390624 7:0 #
-1000 1:0.15000001 2:0.15000001 3:0.15000001 4:0.15000001 5:0.25 6:0 7:0.20725 #
1000 1:0.93000001 2:0.87 3:0.75 4:0.69 5:1 6:0 7:0 #
1000 1:0.94999999 2:0.88999999 3:0.70999998 4:0.64999998 5:0 6:0.21456251 7:0 #
-1000 1:0.094999999 2:0.094999999 3:0.094999999 4:0.094999999 5:1 6:0 7:0 #
1000 1:0.079999998 2:0.079999998 3:0.050000001 4:0.079999998 5:1 6:0 7:0.081905 #
-1000 1:0.495 2:0.495 3:0.44499999 4:0.32499999 5:1 6:0 7:0 #
-1000 1:0.13 2:0.015 3:0.13 4:0.050000001 5:0.75 6:0 7:0.032805 #
1000 1:0.93000001 2:0.87 3:0.75 4:0.69 5:1 6:0 7:0 #
-1000 1:0.495 2:0.495 3:0.44499999 4:0.32499999 5:1 6:0 7:0 #
1000 1:0.405 2:0.405 3:0.285 4:0.285 5:1 6:0 7:0.15717031 #
-1000 1:0.98500001 2:0.92500001 3:0.86500001 4:0.745 5:0.5 6:0.25571251 7:0 #
1000 1:0.91000003 2:0.85000002 3:0.73000002 4:0.67000002 5:1 6:0 7:0 #
-1000 1:0.97000003 2:0.91000003 3:0.85000002 4:0.73000002 5:1 6:0 7:0 #
-1000 1:0.495 2:0.495 3:0.44499999 4:0.32499999 5:1 6:0 7:0 #
1000 1:0.93000001 2:0.87 3:0.75 4:0.69 5:0.5 6:0.23640625 7:0 #
-1000 1:0.98500001 2:0.92500001 3:0.86500001 4:0.745 5:0.5 6:0.4372375 7:0 #
1000 1:0.38999999 2:0.245 3:0.15000001 4:0.125 5:1 6:0 7:0 #
-1000 1:0.23999999 2:0.12 3:0.12 4:0 5:0.75 6:0 7:0.3617 #
-1000 1:0.015 2:0 3:0 4:0 5:1 6:0 7:0 #
-1000 1:0.495 2:0.495 3:0.44499999 4:0.32499999 5:1 6:0 7:0 #
1000 1:0.85000002 2:0.79000002 3:0.73000002 4:0.67000002 5:1 6:0.30421251 7:0 #
1000 1:0.97500002 2:0.91500002 3:0.85500002 4:0.79500002 5:0.5 6:0.10400625 7:0 #
-1000 1:0.085000001 2:0.039999999 3:0.085000001 4:0.085000001 5:1 6:0 7:0.051189061 #
1000 1:0.91000003 2:0.85000002 3:0.73000002 4:0.67000002 5:0.75 6:0.112225 7:0 #
-1000 1:0.055 2:0.055 3:0.055 4:0 5:1 6:0 7:0.075460419 #
-1000 1:0.0099999998 2:0.0099999998 3:0.0099999998 4:0 5:1 6:0 7:0.050625 #
1000 1:0.064999998 2:0.064999998 3:0.064999998 4:0.064999998 5:1 6:0 7:0.089342497 #
1000 1:0.83499998 2:0.77499998 3:0.65499997 4:0.59500003 5:1 6:0.11730625 7:0 #
1000 1:0.97000003 2:0.91000003 3:0.85000002 4:0.79000002 5:0 6:0.13366251 7:0 #
-1000 1:0.94999999 2:0.88999999 3:0.76999998 4:0.70999998 5:0 6:0 7:0 #
1000 1:0 2:0 3:0 4:0 5:0 6:0 7:0.0874625 #
-1000 1:0.085000001 2:0.039999999 3:0.039999999 4:0.050000001 5:1 6:0 7:0.051189061 #
1000 1:0.82999998 2:0.76999998 3:0.70999998 4:0.64999998 5:1 6:0.2732625 7:0 #
1000 1:0.085000001 2:0.085000001 3:0.085000001 4:0.085000001 5:1 6:0 7:0.10258375 #
-1000 1:0.98500001 2:0.92500001 3:0.86500001 4:0.745 5:0.75 6:0.22390625 7:0 #
-1000 1:0.98500001 2:0.92500001 3:0.86500001 4:0.80500001 5:1 6:0 7:0 #
1000 1:0.74000001 2:0.68000001 3:0.62 4:0.5 5:0.75 6:0 7:0.62015623 #
-1000 1:0.2 2:0.13500001 3:0.2 4:0.2 5:0.5 6:0 7:0.040051252 #
-160.46261577161567 1:0.31999999 2:0 3:0 4:0 5:0 6:0 7:0 #
1000 1:0.93000001 2:0.87 3:0.81 4:0.75 5:0 6:0.3601625 7:0 #
-1000 1:0.495 2:0.495 3:0.44499999 4:0.32499999 5:1 6:0 7:0 #
1000 1:0.37 2:0.25 3:0.185 4:0.185 5:1 6:0 7:0.0405 #
-1000 1:0.25999999 2:0.25999999 3:0.185 4:0.25999999 5:1 6:0 7:0.14572084 #
-1000 1:0.015 2:0 3:0 4:0 5:1 6:0 7:0 #
-1000 1:0.98500001 2:0.92500001 3:0.86500001 4:0.80500001 5:0 6:0.55623752 7:0 #
1000 1:0.105 2:0.105 3:0.105 4:0.105 5:0.75 6:0 7:0 #
1000 1:0.87 2:0.81 3:0.75 4:0.69 5:1 6:0.27203125 7:0 #
1000 1:0.059999999 2:0.059999999 3:0.059999999 4:0.059999999 5:0.75 6:0 7:0.042319998 #
1000 1:0.1 2:0.1 3:0.1 4:0.1 5:1 6:0 7:0.2078625 #
-1000 1:0.0049999999 2:0.0049999999 3:0.0049999999 4:0.0049999999 5:1 6:0 7:0.143915 #
1000 1:0.13500001 2:0.13500001 3:0.13500001 4:0.13500001 5:1 6:0.10725625 7:0.046080001 #
1000 1:0.0099999998 2:0.0099999998 3:0.0099999998 4:0.0099999998 5:0.75 6:0 7:0.042319998 #
1000 1:0.13500001 2:0.13500001 3:0.13500001 4:0.13500001 5:0.75 6:0 7:0 #
1000 1:0.86500001 2:0.80500001 3:0.745 4:0.685 5:1 6:0.3138375 7:0 #
1000 1:0.85000002 2:0.79000002 3:0.73000002 4:0.61000001 5:1 6:0.1515625 7:0 #
-1000 1:0.98500001 2:0.92500001 3:0.86500001 4:0.80500001 5:0.5 6:0.58973747 7:0 #
-1000 1:0.98500001 2:0.92500001 3:0.86500001 4:0.80500001 5:0.5 6:0.2991125 7:0 #
1000 1:0.115 2:0.115 3:0.115 4:0.115 5:0.75 6:0 7:0 #
-1000 1:0.81999999 2:0.75999999 3:0.63999999 4:0.57999998 5:1 6:0.30015624 7:0 #
1000 1:0.73000002 2:0.67000002 3:0.55000001 4:0.49000001 5:1 6:0 7:0 #
1000 1:0.38 2:0.25999999 3:0.19499999 4:0.19499999 5:1 6:0 7:0 #
1000 1:0.02 2:0.02 3:0.02 4:0.02 5:0.75 6:0 7:0.042319998 #
-1000 1:0.0049999999 2:0.0049999999 3:0.0049999999 4:0.0049999999 5:1 6:0 7:0.07413125 #
-1000 1:0.050000001 2:0.050000001 3:0.050000001 4:0.050000001 5:1 6:0 7:0.044179998 #
-1000 1:0.495 2:0.495 3:0.44499999 4:0.32499999 5:1 6:0 7:0 #
-1000 1:0.185 2:0.185 3:0.025 4:0.185 5:1 6:0.18275625 7:0 #
1000 1:0.13500001 2:0.13500001 3:0.13500001 4:0.13500001 5:1 6:0.23380625 7:0 #
1000 1:0.015 2:0.015 3:0.015 4:0.015 5:1 6:0 7:0.082152501 #
-1000 1:0.91000003 2:0.85000002 3:0.76999998 4:0.70999998 5:0 6:0 7:0 #
-1000 1:0.094999999 2:0.085000001 3:0 4:0 5:1 6:0 7:0.036551248 #
-1000 1:0.185 2:0.185 3:0.025 4:0.185 5:1 6:0.1849 7:0 #
1000 1:0.19499999 2:0.19499999 3:0.14 4:0.19499999 5:1 6:0 7:0.30942813 #
1000 1:0.029999999 2:0.029999999 3:0.029999999 4:0.029999999 5:0.75 6:0 7:0.042319998 #
-1000 1:0.075000003 2:0.075000003 3:0.075000003 4:0.075000003 5:1 6:0 7:0.044179998 #
-1000 1:0.22499999 2:0.22499999 3:0.105 4:0.105 5:1 6:0.1521 7:0 #
1000 1:0.85000002 2:0.79000002 3:0.73000002 4:0.61000001 5:1 6:0.15126251 7:0 #
1000 1:0.93000001 2:0.87 3:0.75 4:0.69 5:0.75 6:0 7:0 #
-1000 1:0.19 2:0.19 3:0.075000003 4:0.11 5:1 6:0 7:0 #
-1000 1:0.15000001 2:0.15000001 3:0.15000001 4:0.15000001 5:0.25 6:0 7:0.16282083 #
-1000 1:0.41999999 2:0.36500001 3:0.245 4:0.125 5:1 6:0 7:0 #
-999.92655122709493 1:0.145 2:0.145 3:0.145 4:0 5:1 6:0 7:0.074418753 #
1000 1:0.98500001 2:0.92500001 3:0.86500001 4:0.80500001 5:0.75 6:0.49053124 7:0 #
-1000 1:0.094999999 2:0.094999999 3:0.039999999 4:0.094999999 5:0.75 6:0 7:0.48846251 #
1000 1:0.87 2:0.81 3:0.75 4:0.69 5:1 6:0.3138375 7:0 #
1000 1:0.090000004 2:0.090000004 3:0.090000004 4:0.090000004 5:1 6:0 7:0.12069532 #
-1000 1:0.13500001 2:0.13500001 3:0.13500001 4:0.13500001 5:0.75 6:0 7:0.57666248 #
1000 1:0.95999998 2:0.89999998 3:0.83999997 4:0.77999997 5:0 6:0.15602501 7:0 #
1000 1:0.079999998 2:0.079999998 3:0.079999998 4:0.079999998 5:1 6:0 7:0.12370782 #
1000 1:0.91000003 2:0.85000002 3:0.73000002 4:0.67000002 5:0.75 6:0.11055625 7:0 #
-1000 1:0.345 2:0.22499999 3:0.17 4:0.105 5:1 6:0 7:0 #
-1000 1:0.81 2:0.73000002 3:0.67000002 4:0.55000001 5:0.5 6:0.21390624 7:0.43731251 #
-1000 1:0.96499997 2:0.90499997 3:0.84500003 4:0.78500003 5:1 6:0.60313123 7:0 #
-1000 1:0.235 2:0.235 3:0.235 4:0.235 5:0.5 6:0.1521 7:0.02850125 #
-1000 1:0.94999999 2:0.87 3:0.81 4:0.75 5:1 6:0 7:0 #
1000 1:0.050000001 2:0.050000001 3:0.050000001 4:0.050000001 5:0.75 6:0 7:0.042319998 #
1000 1:0.094999999 2:0.094999999 3:0.094999999 4:0.094999999 5:1 6:0 7:0.10012375 #
-1000 1:0.19 2:0.19 3:0.19 4:0.13 5:1 6:0 7:0 #
-1000 1:0.98500001 2:0.92500001 3:0.86500001 4:0.80500001 5:1 6:0.51361877 7:0 #
-1000 1:0.73000002 2:0.67000002 3:0.55000001 4:0.49000001 5:0.25 6:0.1517 7:0 #
-1000 1:0.97000003 2:0.91000003 3:0.82999998 4:0.76999998 5:1 6:0.26213124 7:0 #
1000 1:0 2:0 3:0 4:0 5:0 6:0 7:0.045601249 #
1000 1:0.93000001 2:0.87 3:0.75 4:0.69 5:1 6:0 7:0 #
-1000 1:0.045000002 2:0.045000002 3:0.045000002 4:0.045000002 5:1 6:0 7:0.10889375 #
-1000 1:0.75999999 2:0.69999999 3:0.57999998 4:0.51999998 5:0.5 6:0.3115125 7:0 #
-1000 1:0 2:0 3:0 4:0 5:0 6:0 7:0.063452497 #
1000 1:0 2:0 3:0 4:0 5:0 6:0 7:0.046080001 #
1000 1:0.145 2:0.145 3:0.145 4:0.145 5:0.75 6:0 7:0 #
-1000 1:0.029999999 2:0.029999999 3:0.0099999998 4:0.029999999 5:1 6:0 7:0.036979999 #
1000 1:0.93000001 2:0.75 3:0.69 4:0.63 5:0.75 6:0.084100001 7:0 #
-1000 1:0.1 2:0.1 3:0.1 4:0.1 5:0.5 6:0 7:0.068866253 #
-1000 1:0.98500001 2:0.92500001 3:0.80500001 4:0.745 5:0.5 6:0.29769999 7:0 #
1000 1:0.059999999 2:0.059999999 3:0.059999999 4:0.059999999 5:0.75 6:0 7:0.093540624 #
1000 1:0.07 2:0.07 3:0.07 4:0.07 5:1 6:0 7:0.090340003 #
1000 1:0.93000001 2:0.87 3:0.75 4:0.69 5:0.75 6:0 7:0 #
1000 1:0.93000001 2:0.87 3:0.81 4:0.75 5:0 6:0.35820624 7:0 #
-1000 1:0.94499999 2:0.88499999 3:0.82499999 4:0.70499998 5:1 6:0.31705001 7:0 #
1000 1:0.85000002 2:0.79000002 3:0.73000002 4:0.61000001 5:1 6:0.1515625 7:0 #
-1000 1:0.98500001 2:0.92500001 3:0.86500001 4:0.80500001 5:0.75 6:0.081225 7:0 #
1000 1:0.105 2:0.105 3:0.105 4:0.105 5:1 6:0 7:0.097693749 #
-1000 1:0.495 2:0.495 3:0.44499999 4:0.32499999 5:1 6:0 7:0 #
1000 1:0.15000001 2:0.15000001 3:0.15000001 4:0.15000001 5:0.75 6:0 7:0.11570125 #
-1000 1:0.95499998 2:0.89499998 3:0.83499998 4:0.77499998 5:1 6:0.34051251 7:0 #
1000 1:0.93000001 2:0.87 3:0.81 4:0.75 5:0 6:0.216225 7:0 #
1000 1:0.73000002 2:0.67000002 3:0.55000001 4:0.49000001 5:1 6:0.137825 7:0 #
1000 1:0.094999999 2:0.094999999 3:0.094999999 4:0.094999999 5:0.75 6:0 7:0 #
-1000 1:0.059999999 2:0.059999999 3:0.059999999 4:0.059999999 5:1 6:0 7:0.034861252 #
1000 1:0.125 2:0.125 3:0.125 4:0.125 5:0.75 6:0 7:0 #
-1000 1:0.98000002 2:0.86000001 3:0.80000001 4:0.73500001 5:1 6:0.38345 7:0 #
1000 1:0.079999998 2:0.079999998 3:0 4:0 5:1 6:0.25940001 7:0 #
1000 1:0.81 2:0.75 3:0.63 4:0.56999999 5:1 6:0.16683125 7:0 #
-1000 1:0.76499999 2:0.70499998 3:0.64499998 4:0.52499998 5:0.75 6:0 7:0.62015623 #
-1000 1:0.215 2:0.094999999 3:0.215 4:0.215 5:1 6:0.13140625 7:0.15015624 #
1000 1:0.059999999 2:0.059999999 3:0 4:0 5:1 6:0.2558125 7:0 #
-1000 1:0.96499997 2:0.90499997 3:0.84500003 4:0.72500002 5:1 6:0 7:0 #
1000 1:0.80000001 2:0.74000001 3:0.62 4:0.56 5:1 6:0.16765624 7:0 #
1000 1:0.85500002 2:0.79500002 3:0.73500001 4:0.67500001 5:1 6:0.28700626 7:0 #
1000 1:0.85000002 2:0.79000002 3:0.67000002 4:0.61000001 5:1 6:0.20328125 7:0 #
-1000 1:0.98000002 2:0.92000002 3:0.86000001 4:0.80000001 5:1 6:0.13140625 7:0 #
-1000 1:0.96499997 2:0.90499997 3:0.84500003 4:0.78500003 5:0.25 6:0.1444 7:0 #
-1000 1:0.89999998 2:0.83999997 3:0.77999997 4:0.72000003 5:0.5 6:0 7:0.57053751 #
1000 1:0.85000002 2:0.79000002 3:0.73000002 4:0.61000001 5:1 6:0.15126251 7:0 #
1000 1:0.83499998 2:0.77499998 3:0.71499997 4:0.65499997 5:1 6:0.27780625 7:0 #
-1000 1:0.045000002 2:0.039999999 3:0 4:0 5:1 6:0 7:0.10465313 #
1000 1:0.345 2:0.22499999 3:0.22499999 4:0.22499999 5:1 6:0 7:0.1153925 #
1000 1:0.85000002 2:0.79000002 3:0.73000002 4:0.61000001 5:1 6:0.1513 7:0 #
1000 1:0.86000001 2:0.80000001 3:0.74000001 4:0.68000001 5:1 6:0.30900624 7:0 #
1000 1:0.235 2:0.235 3:0.235 4:0.235 5:1 6:0.16105625 7:0.035626564 #
1000 1:0.079999998 2:0.079999998 3:0.079999998 4:0.079999998 5:1 6:0 7:0.041405 #
1000 1:0.155 2:0.155 3:0.155 4:0.155 5:1 6:0.22703125 7:0 #
1000 1:0.085000001 2:0.085000001 3:0.085000001 4:0.085000001 5:1 6:0 7:0.0856025 #
-1000 1:0.95999998 2:0.89999998 3:0.83999997 4:0.77999997 5:1 6:0.28715625 7:0 #
-1000 1:0.98500001 2:0.92500001 3:0.80500001 4:0.745 5:0.5 6:0.13322499 7:0 #
1000 1:0.85000002 2:0.79000002 3:0.67000002 4:0.61000001 5:1 6:0.20093125 7:0 #
-1000 1:0.98500001 2:0.92500001 3:0.84500003 4:0.78500003 5:1 6:0.105625 7:0 #
1000 1:0.79000002 2:0.73000002 3:0.61000001 4:0.55000001 5:1 6:0.15630625 7:0 #
-1000 1:0.98500001 2:0.92500001 3:0.80500001 4:0.745 5:1 6:0 7:0 #
1000 1:0.84500003 2:0.78500003 3:0.72500002 4:0.66500002 5:1 6:0.30421251 7:0 #
-1000 1:0.025 2:0.025 3:0.025 4:0.025 5:1 6:0 7:0.090873748 #
-1000 1:0.97000003 2:0.91000003 3:0.85000002 4:0.73000002 5:1 6:0 7:0 #
1000 1:0.07 2:0.07 3:0 4:0 5:1 6:0.25940001 7:0 #
-1000 1:0.97500002 2:0.91500002 3:0.79500002 4:0.73500001 5:1 6:0 7:0 #
1000 1:0.97500002 2:0.91500002 3:0.85500002 4:0.79500002 5:0 6:0.136225 7:0 #
-1000 1:0.094999999 2:0.085000001 3:0 4:0 5:1 6:0 7:0.03741125 #
-1000 1:0.045000002 2:0.039999999 3:0 4:0 5:1 6:0 7:0.10695312 #
-1000 1:0.094999999 2:0.050000001 3:0.050000001 4:0.094999999 5:1 6:0 7:0.038281251 #
-1000 1:0.90499997 2:0.84500003 3:0.78500003 4:0.72500002 5:0.5 6:0 7:0.57053751 #
1000 1:0.86500001 2:0.80500001 3:0.745 4:0.685 5:1 6:0.105625 7:0 #
1000 1:0.91000003 2:0.85000002 3:0.73000002 4:0.67000002 5:0.75 6:0.1089 7:0 #
1000 1:0.79500002 2:0.73500001 3:0.61500001 4:0.55500001 5:1 6:0.16193125 7:0 #
1000 1:0.85000002 2:0.79000002 3:0.67000002 4:0.61000001 5:1 6:0.20005625 7:0 #
1000 1:0.97000003 2:0.91000003 3:0.85000002 4:0.79000002 5:0.75 6:0.1770625 7:0 #
-1000 1:0.40000001 2:0.40000001 3:0.16 4:0.064999998 5:1 6:0 7:0.021675 #
1000 1:0.07 2:0.07 3:0.07 4:0.07 5:1 6:0 7:0.042319998 #
1000 1:0.85000002 2:0.79000002 3:0.73000002 4:0.61000001 5:1 6:0.1513 7:0 #
-1000 1:0.27000001 2:0.23999999 3:0.23999999 4:0.205 5:1 6:0 7:0.043711249 #
1000 1:0.16500001 2:0.16500001 3:0.16500001 4:0.16500001 5:1 6:0.23723125 7:0 #
1000 1:0.76999998 2:0.70999998 3:0.64999998 4:0.52999997 5:0.75 6:0 7:0.62015623 #
1000 1:0.14 2:0.14 3:0.14 4:0.14 5:1 6:0 7:0.19935781 #
-1000 1:0.23 2:0.23 3:0.16500001 4:0.23 5:0.75 6:0 7:0.64666873 #
-1000 1:0.27500001 2:0.155 3:0.27500001 4:0.27500001 5:1 6:0.140625 7:0.031951562 #
-1000 1:0.97500002 2:0.91500002 3:0.85500002 4:0.79500002 5:1 6:0.32378125 7:0 #
-1000 1:0.98000002 2:0.92000002 3:0.86000001 4:0.80000001 5:0.75 6:0 7:0 #
-1000 1:0.23 2:0.23 3:0.16500001 4:0.23 5:0.75 6:0 7:0.64666873 #
1000 1:0.77499998 2:0.71499997 3:0.65499997 4:0.59500003 5:0 6:0.15126251 7:0 #
1000 1:0.81 2:0.75 3:0.63 4:0.56999999 5:1 6:0.078400001 7:0 #
-1000 1:0.185 2:0.185 3:0.025 4:0.185 5:1 6:0.17850626 7:0 #
1000 1:0.85000002 2:0.79000002 3:0.73000002 4:0.61000001 5:1 6:0.15136249 7:0 #
-1000 1:0.12 2:0.039999999 3:0.12 4:0.12 5:1 6:0 7:0 #
-1000 1:0.93000001 2:0.87 3:0.81 4:0.75 5:0.25 6:0.12425625 7:0 #
1000 1:0.98000002 2:0.92000002 3:0.86000001 4:0.80000001 5:0.75 6:0.18062501 7:0 #
1000 1:0.93000001 2:0.75 3:0.69 4:0.63 5:0.75 6:0 7:0 #
-1000 1:0.81 2:0.75 3:0.63 4:0.56999999 5:1 6:0 7:0 #
-1000 1:0.98500001 2:0.92500001 3:0.86500001 4:0.745 5:0.75 6:0.21400625 7:0 #
-1000 1:0.89499998 2:0.83499998 3:0.77499998 4:0.71499997 5:0.5 6:0 7:0.57053751 #
-999.80254554748535 1:0.64499998 2:0.52499998 3:0.405 4:0.16500001 5:1 6:0.12425625 7:0 #
1000 1:0.93000001 2:0.75 3:0.69 4:0.63 5:0.75 6:0.067599997 7:0 #
1000 1:0.92500001 2:0.86500001 3:0.80500001 4:0.745 5:0.75 6:0.1378625 7:0 #
-1000 1:0.95999998 2:0.89999998 3:0.77999997 4:0.72000003 5:1 6:0.19925 7:0 #
-1000 1:0.98500001 2:0.92500001 3:0.86500001 4:0.745 5:0.5 6:0.33305001 7:0 #
-1000 1:0.96499997 2:0.90499997 3:0.78500003 4:0.72500002 5:1 6:0 7:0 #
-1000 1:0.95999998 2:0.89999998 3:0.83999997 4:0.77999997 5:1 6:0.2734375 7:0 #
1000 1:0.17 2:0.17 3:0.17 4:0.17 5:1 6:0 7:0.18625157 #
-1000 1:0.39500001 2:0.39500001 3:0.39500001 4:0.39500001 5:1 6:0.30728126 7:0 #
-1000 1:0.185 2:0.185 3:0.185 4:0.185 5:1 6:0 7:0.032401249 #
1000 1:0.745 2:0.685 3:0.625 4:0.505 5:0.75 6:0 7:0.62015623 #
1000 1:0.93000001 2:0.87 3:0.75 4:0.69 5:0.75 6:0 7:0 #
1000 1:0.93000001 2:0.87 3:0.75 4:0.69 5:0.75 6:0 7:0 #
-1000 1:0.98500001 2:0.92500001 3:0.86500001 4:0.80500001 5:1 6:0 7:0 #
1000 1:0.93000001 2:0.75 3:0.69 4:0.63 5:0.75 6:0.096100003 7:0 #
-991.9941639174358 1:0.98500001 2:0.92500001 3:0.86500001 4:0.80500001 5:0 6:0.18275625 7:0 #
-1000 1:0.98500001 2:0.92500001 3:0.86500001 4:0.745 5:0.5 6:0.42418751 7:0 #
-1000 1:0.98000002 2:0.92000002 3:0.86000001 4:0.80000001 5:0.5 6:0.62535626 7:0 #
-1000 1:0.46000001 2:0.405 3:0.285 4:0.16500001 5:1 6:0 7:0 #
1000 1:0.93000001 2:0.87 3:0.81 4:0.75 5:0.5 6:0.18062501 7:0 #
1000 1:0.83999997 2:0.77999997 3:0.72000003 4:0.66000003 5:1 6:0.27780625 7:0 #
1000 1:0.75 2:0.69 3:0.63 4:0.50999999 5:0.75 6:0 7:0.62015623 #
-1000 1:0.97500002 2:0.89499998 3:0.83499998 4:0.77499998 5:1 6:0.18275625 7:0 #
1000 1:0.84500003 2:0.78500003 3:0.72500002 4:0.66500002 5:1 6:0.2823875 7:0 #
1000 1:0.93000001 2:0.87 3:0.75 4:0.69 5:0.75 6:0.084100001 7:0 #
-1000 1:0.035 2:0.035 3:0.035 4:0.035 5:1 6:0 7:0.045572501 #
1000 1:0.86000001 2:0.80000001 3:0.74000001 4:0.68000001 5:1 6:0.28700626 7:0 #
1000 1:0.82499999 2:0.76499999 3:0.70499998 4:0.64499998 5:1 6:0.29473749 7:0 #
-1000 1:0.97500002 2:0.91500002 3:0.85500002 4:0.79500002 5:1 6:0.30640626 7:0 #
1000 1:0.16 2:0.16 3:0.16 4:0.16 5:1 6:0 7:0.19057031 #
1000 1:0.16500001 2:0.16500001 3:0.16500001 4:0.16500001 5:1 6:0 7:0.03403125 #
-1000 1:0.95499998 2:0.89499998 3:0.83499998 4:0.77499998 5:1 6:0.2644625 7:0 #
-1000 1:0.39500001 2:0.39500001 3:0.39500001 4:0.39500001 5:1 6:0.30728126 7:0 #
-1000 1:0.97000003 2:0.91000003 3:0.79000002 4:0.73000002 5:1 6:0.28721249 7:0 #
-1000 1:0.93000001 2:0.87 3:0.81 4:0.69 5:1 6:0 7:0 #
1000 1:0.93000001 2:0.75 3:0.69 4:0.63 5:0.75 6:0 7:0 #
1000 1:0.155 2:0.155 3:0.155 4:0.155 5:1 6:0 7:0.082881249 #
1000 1:0.145 2:0.145 3:0.145 4:0.145 5:1 6:0.23040625 7:0 #
1000 1:0.96499997 2:0.90499997 3:0.84500003 4:0.78500003 5:0.75 6:0.1711625 7:0 #
1000 1:0.85000002 2:0.79000002 3:0.67000002 4:0.61000001 5:1 6:0.20040625 7:0 #
1000 1:0.050000001 2:0.050000001 3:0 4:0 5:1 6:0.2558125 7:0 #
1000 1:0.755 2:0.69499999 3:0.63499999 4:0.51499999 5:0.75 6:0 7:0.62015623 #
-1000 1:0.98500001 2:0.92500001 3:0.86500001 4:0.80500001 5:0.75 6:0.28560624 7:0 #
-1000 1:0.94999999 2:0.88999999 3:0.82999998 4:0.70999998 5:1 6:0.3210125 7:0 #
-1000 1:0.98000002 2:0.92000002 3:0.86000001 4:0.80000001 5:1 6:0.12602501 7:0 #
1000 1:0.815 2:0.755 3:0.69499999 4:0.63499999 5:1 6:0.26875624 7:0 #
1000 1:0.97500002 2:0.91500002 3:0.85500002 4:0.79500002 5:0.75 6:0.18005 7:0 #
1000 1:0.93000001 2:0.87 3:0.75 4:0.69 5:0.75 6:0 7:0 #
-1000 1:0.94999999 2:0.88999999 3:0.82999998 4:0.75 5:1 6:0.14250626 7:0 #
-1000 1:0.98500001 2:0.92500001 3:0.86500001 4:0.745 5:0.75 6:0.27193126 7:0 #
1000 1:0.83999997 2:0.77999997 3:0.66000003 4:0.60000002 5:1 6:0.22465 7:0 #
1000 1:0.18000001 2:0.18000001 3:0.18000001 4:0.18000001 5:1 6:0 7:0.10103125 #
1000 1:0.81999999 2:0.75999999 3:0.69999999 4:0.63999999 5:1 6:0.26875624 7:0 #
-1000 1:0.94499999 2:0.88499999 3:0.80500001 4:0.745 5:1 6:0.140625 7:0 #
-1000 1:0.93000001 2:0.79000002 3:0.73000002 4:0.67000002 5:1 6:0 7:0 #
1000 1:0.83999997 2:0.77999997 3:0.72000003 4:0.66000003 5:1 6:0.29945624 7:0 #
-1000 1:0.345 2:0.27000001 3:0.15000001 4:0.345 5:0.75 6:0 7:0 #
-1000 1:0.345 2:0.27000001 3:0.15000001 4:0.345 5:0.75 6:0 7:0 #
-1000 1:0.98000002 2:0.92000002 3:0.80000001 4:0.74000001 5:0.75 6:0 7:0 #
-1000 1:0.97000003 2:0.91000003 3:0.85000002 4:0.79000002 5:0.75 6:0.50563753 7:0 #
1000 1:0.98000002 2:0.92000002 3:0.86000001 4:0.80000001 5:0.5 6:0.3267875 7:0 #
-1000 1:0.98000002 2:0.92000002 3:0.86000001 4:0.80000001 5:1 6:0.3928625 7:0 #
-1000 1:0.98500001 2:0.92500001 3:0.86500001 4:0.745 5:0.75 6:0.25856251 7:0 #
-1000 1:0.97000003 2:0.91000003 3:0.85000002 4:0.79000002 5:1 6:0.53130627 7:0 #
-1000 1:0.98500001 2:0.92500001 3:0.86500001 4:0.80500001 5:1 6:0 7:0 #
1000 1:0.77999997 2:0.72000003 3:0.66000003 4:0.60000002 5:1 6:0.082656249 7:0 #
-1000 1:0.75999999 2:0.69999999 3:0.57999998 4:0.51999998 5:0.25 6:0.17125 7:0 #
-1000 1:0.85000002 2:0.79000002 3:0.73000002 4:0.61000001 5:1 6:0.16193125 7:0 #
-1000 1:0.98500001 2:0.92500001 3:0.86500001 4:0.80500001 5:1 6:0.53746247 7:0 #
-1000 1:0.97000003 2:0.91000003 3:0.79000002 4:0.73000002 5:1 6:0 7:0 #
-1000 1:0.97500002 2:0.91500002 3:0.79500002 4:0.73500001 5:0.5 6:0 7:0 #
-1000 1:0.96499997 2:0.90499997 3:0.78500003 4:0.72500002 5:1 6:0.28260624 7:0 #
1000 1:0.73000002 2:0.67000002 3:0.55000001 4:0.49000001 5:1 6:0.1458125 7:0 #
-1000 1:0.97000003 2:0.91000003 3:0.85000002 4:0.73000002 5:1 6:0 7:0 #
1000 1:0.93000001 2:0.87 3:0.75 4:0.69 5:0.75 6:0 7:0 #
-1000 1:0.95999998 2:0.89999998 3:0.77999997 4:0.72000003 5:1 6:0.30363125 7:0 #
1000 1:0.82999998 2:0.76999998 3:0.70999998 4:0.64999998 5:1 6:0.29473749 7:0 #
-1000 1:0.96499997 2:0.82499999 3:0.76499999 4:0.70499998 5:1 6:0 7:0 #
-1000 1:0.495 2:0.495 3:0.495 4:0.44499999 5:1 6:0 7:0 #
-1000 1:0.96499997 2:0.90499997 3:0.84500003 4:0.72500002 5:1 6:0 7:0 #
-1000 1:0.96499997 2:0.90499997 3:0.84500003 4:0.78500003 5:1 6:0.46973124 7:0 #
1000 1:0.78500003 2:0.72500002 3:0.66500002 4:0.60500002 5:1 6:0.084100001 7:0 #
1000 1:0.93000001 2:0.87 3:0.75 4:0.69 5:1 6:0.11390625 7:0 #
-1000 1:0.96499997 2:0.90499997 3:0.78500003 4:0.72500002 5:1 6:0.29005 7:0 #
1000 1:0.77499998 2:0.71499997 3:0.65499997 4:0.59500003 5:1 6:0.082656249 7:0 #
-1000 1:0.81 2:0.75 3:0.63 4:0.56999999 5:0.75 6:0 7:0 #
1000 1:0.98500001 2:0.92500001 3:0.86500001 4:0.80500001 5:0.75 6:0.18275625 7:0 #
-1000 1:0.85000002 2:0.79000002 3:0.67000002 4:0.61000001 5:1 6:0.2416625 7:0 #
-1000 1:0.98500001 2:0.90499997 3:0.84500003 4:0.78500003 5:1 6:0 7:0 #
-1000 1:0.98500001 2:0.86500001 3:0.80500001 4:0.745 5:0.25 6:0 7:0 #
-1000 1:0.98500001 2:0.92500001 3:0.86500001 4:0.745 5:0.75 6:0.26298124 7:0 #
-1000 1:0.97500002 2:0.91500002 3:0.85500002 4:0.79500002 5:1 6:0.53130627 7:0 #
-1000 1:0.98500001 2:0.86500001 3:0.80500001 4:0.745 5:1 6:0.30386251 7:0 #
1000 1:0.85500002 2:0.79500002 3:0.73500001 4:0.67500001 5:1 6:0.30900624 7:0 #
-1000 1:0.98000002 2:0.92000002 3:0.80000001 4:0.74000001 5:0.5 6:0.31515625 7:0 #
-1000 1:0.064999998 2:0.064999998 3:0.064999998 4:0.059999999 5:0.5 6:0 7:0.052326564 #
1000 1:0.95999998 2:0.89999998 3:0.83999997 4:0.77999997 5:0.75 6:0.16824999 7:0 #
-1000 1:0.95999998 2:0.88 3:0.81999999 4:0.69999999 5:0.75 6:0.1681 7:0 #
-1000 1:0.88999999 2:0.82999998 3:0.76999998 4:0.70999998 5:0.5 6:0 7:0.57053751 #
-1000 1:0.98500001 2:0.92500001 3:0.86500001 4:0.80500001 5:0.75 6:0.49053124 7:0 #
-1000 1:0.91500002 2:0.85500002 3:0.73500001 4:0.67500001 5:1 6:0.28626251 7:0 #
1000 1:0.75999999 2:0.69999999 3:0.57999998 4:0.51999998 5:1 6:0.21080625 7:0 #
1000 1:0.755 2:0.69499999 3:0.57499999 4:0.51499999 5:1 6:0.20295624 7:0 #
1000 1:0.85000002 2:0.79000002 3:0.73000002 4:0.67000002 5:1 6:0.2823875 7:0 #
-1000 1:0.98000002 2:0.86000001 3:0.80000001 4:0.74000001 5:1 6:0.30081251 7:0 #
1000 1:0.76499999 2:0.70499998 3:0.58499998 4:0.52499998 5:1 6:0.21711875 7:0 #
1000 1:0.82499999 2:0.76499999 3:0.70499998 4:0.64499998 5:1 6:0.2732625 7:0 #
-1000 1:0.094999999 2:0.050000001 3:0.050000001 4:0.094999999 5:1 6:0 7:0.03916125 #
1000 1:0.91000003 2:0.85000002 3:0.73000002 4:0.67000002 5:0.75 6:0 7:0 #
1000 1:0.81 2:0.75 3:0.69 4:0.63 5:1 6:0.28541249 7:0 #
-1000 1:0.98000002 2:0.92000002 3:0.86000001 4:0.80000001 5:1 6:0.37105 7:0 #
-1000 1:0.98500001 2:0.92500001 3:0.86500001 4:0.80500001 5:0.5 6:0.35791251 7:0 #
-1000 1:0.97000003 2:0.82999998 3:0.76999998 4:0.70999998 5:1 6:0 7:0 #
1000 1:0.93000001 2:0.75 3:0.69 4:0.63 5:0.75 6:0 7:0 #
-1000 1:0.98000002 2:0.86000001 3:0.80000001 4:0.74000001 5:0.25 6:0 7:0 #
-1000 1:0.505 2:0.38499999 3:0.079999998 4:0 5:1 6:0 7:0.19341876 #
-1000 1:0.47999999 2:0.38 3:0.14 4:0.02 5:1 6:0 7:0 #
-1000 1:0.40000001 2:0.40000001 3:0.16 4:0.064999998 5:1 6:0 7:0 #
1000 1:0.75999999 2:0.69999999 3:0.57999998 4:0.51999998 5:1 6:0.21314999 7:0 #
-1000 1:0.95999998 2:0.89999998 3:0.77999997 4:0.72000003 5:1 6:0 7:0 #
-1000 1:0.045000002 2:0 3:0 4:0 5:1 6:0 7:0.093528122 #
1000 1:0.97500002 2:0.91500002 3:0.85500002 4:0.79500002 5:0.5 6:0.3267875 7:0 #
-1000 1:0.98500001 2:0.92500001 3:0.86500001 4:0.80500001 5:1 6:0 7:0 #
1000 1:0.85000002 2:0.79000002 3:0.73000002 4:0.61000001 5:1 6:0.15144999 7:0 #
1000 1:0.83499998 2:0.77499998 3:0.71499997 4:0.65499997 5:1 6:0.29945624 7:0 #
1000 1:0.76499999 2:0.70499998 3:0.58499998 4:0.52499998 5:1 6:0.2147875 7:0 #
-1000 1:0.98500001 2:0.92500001 3:0.84500003 4:0.78500003 5:0.75 6:0 7:0 #
1000 1:0.87 2:0.81 3:0.75 4:0.69 5:1 6:0.27573124 7:0 #
-1000 1:0.97500002 2:0.91500002 3:0.85500002 4:0.79500002 5:0.75 6:0.67481875 7:0 #
-1000 1:0.94499999 2:0.88499999 3:0.82499999 4:0.745 5:1 6:0.140625 7:0 #
-1000 1:0.96499997 2:0.90499997 3:0.78500003 4:0.72500002 5:1 6:0.1225 7:0 #
1000 1:0.815 2:0.755 3:0.69499999 4:0.63499999 5:1 6:0.29005626 7:0 #
-1000 1:0.39500001 2:0.34 3:0.22 4:0.035 5:1 6:0.20025624 7:0 #
-1000 1:0.98000002 2:0.92000002 3:0.83999997 4:0.77999997 5:1 6:0.066306248 7:0 #
1000 1:0.81999999 2:0.75999999 3:0.69999999 4:0.63999999 5:1 6:0.29005626 7:0 #
-1000 1:0.94499999 2:0.88499999 3:0.82499999 4:0.76499999 5:0.75 6:0.80634373 7:0 #
1000 1:0.98500001 2:0.92500001 3:0.86500001 4:0.80500001 5:0.75 6:0.29641876 7:0 #
-1000 1:0.98500001 2:0.92500001 3:0.86500001 4:0.80500001 5:0.75 6:0.36855626 7:0 #
1000 1:0.86500001 2:0.80500001 3:0.745 4:0.685 5:1 6:0.29166251 7:0 #
1000 1:0.94999999 2:0.88999999 3:0.82999998 4:0.76999998 5:0.75 6:0.1596625 7:0 #
1000 1:0.93000001 2:0.75 3:0.69 4:0.63 5:0.75 6:0 7:0 #
-1000 1:0.96499997 2:0.90499997 3:0.84500003 4:0.78500003 5:1 6:0.56246251 7:0 #
1000 1:0.91000003 2:0.85000002 3:0.73000002 4:0.67000002 5:0.75 6:0.099225 7:0 #
-1000 1:0.94999999 2:0.88999999 3:0.76999998 4:0.70999998 5:1 6:0 7:0 #
1000 1:0.86500001 2:0.80500001 3:0.745 4:0.685 5:1 6:0.20328125 7:0 #
1000 1:0.91000003 2:0.85000002 3:0.73000002 4:0.67000002 5:0.75 6:0 7:0 #
1000 1:0.91000003 2:0.85000002 3:0.73000002 4:0.67000002 5:0.75 6:0.10725625 7:0 #
-1000 1:0.98500001 2:0.92500001 3:0.80500001 4:0.745 5:0.75 6:0.093024999 7:0 #
-1000 1:0.97500002 2:0.91500002 3:0.79500002 4:0.73500001 5:0.75 6:0 7:0 #
1000 1:0.93000001 2:0.87 3:0.75 4:0.69 5:1 6:0.112225 7:0 #
1000 1:0.84500003 2:0.78500003 3:0.66500002 4:0.60500002 5:1 6:0.2280125 7:0 #
1000 1:0.93000001 2:0.75 3:0.69 4:0.63 5:0.75 6:0 7:0 #
-1000 1:0.97000003 2:0.85000002 3:0.79000002 4:0.72500002 5:1 6:0.37911251 7:0 #
1000 1:0.93000001 2:0.87 3:0.81 4:0.75 5:0.75 6:0.1431625 7:0 #
-1000 1:0.815 2:0.755 3:0.63499999 4:0.57499999 5:0.75 6:0 7:0 #
1000 1:0.91000003 2:0.85000002 3:0.73000002 4:0.67000002 5:0.75 6:0.096100003 7:0 #
1000 1:0.73000002 2:0.67000002 3:0.55000001 4:0.49000001 5:1 6:0.1404625 7:0 #
1000 1:0.91000003 2:0.85000002 3:0.73000002 4:0.67000002 5:0.75 6:0.10400625 7:0 #
-1000 1:0.97000003 2:0.91000003 3:0.79000002 4:0.73000002 5:0 6:0 7:0 #
1000 1:0.87 2:0.81 3:0.75 4:0.69 5:1 6:0.27945626 7:0 #
1000 1:0.91000003 2:0.85000002 3:0.73000002 4:0.67000002 5:0.75 6:0.1024 7:0 #
1000 1:0.91000003 2:0.85000002 3:0.73000002 4:0.67000002 5:0.75 6:0.10080625 7:0 #
-1000 1:0.98500001 2:0.86500001 3:0.80500001 4:0.74000001 5:0.5 6:0 7:0 #
1000 1:0.93000001 2:0.75 3:0.69 4:0.63 5:0.75 6:0 7:0 #
1000 1:0.91000003 2:0.85000002 3:0.73000002 4:0.67000002 5:0.75 6:0.09765625 7:0 #
-1000 1:0.96499997 2:0.90499997 3:0.84500003 4:0.78500003 5:1 6:0.46973124 7:0 #
-1000 1:0.98500001 2:0.92500001 3:0.80500001 4:0.745 5:0.75 6:0.12425625 7:0 #
1000 1:0.91000003 2:0.85000002 3:0.73000002 4:0.67000002 5:0.75 6:0.09455625 7:0 #
-1000 1:0.98000002 2:0.92000002 3:0.80000001 4:0.74000001 5:0.75 6:0.13505626 7:0 #
1000 1:0.95499998 2:0.89499998 3:0.83499998 4:0.77499998 5:0.75 6:0.16249999 7:0 #
-1000 1:0.90499997 2:0.84500003 3:0.72500002 4:0.66500002 5:0.75 6:0 7:0 #
1000 1:0.91000003 2:0.85000002 3:0.73000002 4:0.67000002 5:0.75 6:0 7:0 #
-1000 1:0.36500001 2:0.245 3:0.0049999999 4:0.0049999999 5:1 6:0 7:0 #
1000 1:0.83499998 2:0.77499998 3:0.71499997 4:0.65499997 5:1 6:0.09150625 7:0 #
1000 1:0.93000001 2:0.87 3:0.81 4:0.75 5:1 6:0.16388126 7:0 #
-1000 1:0.95499998 2:0.89499998 3:0.77499998 4:0.71499997 5:1 6:0.11730625 7:0 #
1000 1:0.87 2:0.81 3:0.75 4:0.69 5:1 6:0.26470625 7:0 #
1000 1:0.91000003 2:0.85000002 3:0.73000002 4:0.67000002 5:0.75 6:0.084100001 7:0 #
1000 1:0.82999998 2:0.76999998 3:0.64999998 4:0.58999997 5:1 6:0.2147125 7:0 #
1000 1:0.91000003 2:0.85000002 3:0.73000002 4:0.67000002 5:0.75 6:0.075625002 7:0 #
1000 1:0.91000003 2:0.85000002 3:0.73000002 4:0.67000002 5:0.75 6:0 7:0 #
-1000 1:0.98500001 2:0.92500001 3:0.86500001 4:0.745 5:0.75 6:0.21728125 7:0 #
1000 1:0.91000003 2:0.85000002 3:0.73000002 4:0.67000002 5:0.75 6:0.093024999 7:0 #
1000 1:0.87 2:0.81 3:0.75 4:0.69 5:1 6:0.26835626 7:0 #
-1000 1:0.82999998 2:0.76999998 3:0.64999998 4:0.58999997 5:1 6:0.066306248 7:0 #
-1000 1:0.97000003 2:0.85000002 3:0.79000002 4:0.72500002 5:1 6:0.1089 7:0 #
1000 1:0.85500002 2:0.79500002 3:0.73500001 4:0.67500001 5:1 6:0.20010625 7:0 #
1000 1:0.91000003 2:0.85000002 3:0.73000002 4:0.67000002 5:0.75 6:0.072899997 7:0 #
1000 1:0.93000001 2:0.75 3:0.69 4:0.63 5:0.75 6:0 7:0 #
1000 1:0.93000001 2:0.87 3:0.75 4:0.69 5:1 6:0 7:0 #
1000 1:0.91000003 2:0.85000002 3:0.73000002 4:0.67000002 5:0.75 6:0.074256249 7:0 #
1000 1:0.91000003 2:0.85000002 3:0.73000002 4:0.67000002 5:0.75 6:0.077006251 7:0 #
-1000 1:0.94 2:0.88 3:0.75999999 4:0.69999999 5:1 6:0.18080001 7:0 #
1000 1:0.91000003 2:0.85000002 3:0.73000002 4:0.67000002 5:0.75 6:0 7:0 #
-1000 1:0.98500001 2:0.92500001 3:0.86500001 4:0.80500001 5:1 6:0 7:0 #
-1000 1:0.95999998 2:0.89999998 3:0.77999997 4:0.72000003 5:1 6:0.119025 7:0 #
-1000 1:0.98500001 2:0.92500001 3:0.86500001 4:0.80500001 5:1 6:0 7:0 #
-1000 1:0.69 2:0.63 3:0.56999999 4:0.50999999 5:1 6:0.082656249 7:0 #
1000 1:0.82499999 2:0.76499999 3:0.64499998 4:0.58499998 5:1 6:0.20821249 7:0 #
-1000 1:0.94 2:0.88 3:0.75999999 4:0.69999999 5:1 6:0.1089 7:0 #
1000 1:0.91000003 2:0.85000002 3:0.73000002 4:0.67000002 5:0.75 6:0.079806253 7:0 #
-1000 1:0.97500002 2:0.91500002 3:0.85500002 4:0.79500002 5:0.75 6:0.071556248 7:0 #
1000 1:0.94 2:0.88 3:0.81999999 4:0.75999999 5:0.75 6:0.1513 7:0 #
-1000 1:0.94999999 2:0.88999999 3:0.76999998 4:0.70999998 5:1 6:0.12075625 7:0 #
-1000 1:0.98000002 2:0.92000002 3:0.83999997 4:0.77999997 5:0.75 6:0 7:0 #
-1000 1:0.97500002 2:0.91500002 3:0.83499998 4:0.77499998 5:0.75 6:0 7:0 #
-1000 1:0.96499997 2:0.90499997 3:0.84500003 4:0.78500003 5:1 6:0.52518749 7:0 #
-999.99997019767761 1:0.64499998 2:0.52499998 3:0.405 4:0.16500001 5:1 6:0.12602501 7:0 #
1000 1:0.87 2:0.81 3:0.75 4:0.69 5:1 6:0.26108125 7:0 #
1000 1:0.91000003 2:0.85000002 3:0.73000002 4:0.67000002 5:0.75 6:0.085556246 7:0 #
1000 1:0.91000003 2:0.85000002 3:0.73000002 4:0.67000002 5:0.75 6:0 7:0 #
1000 1:0.91000003 2:0.85000002 3:0.73000002 4:0.67000002 5:0.75 6:0.087025002 7:0 #
1000 1:0.91000003 2:0.85000002 3:0.73000002 4:0.67000002 5:0.75 6:0 7:0 #
-1000 1:0.98500001 2:0.92500001 3:0.86500001 4:0.745 5:0.75 6:0.21728125 7:0 #
-1000 1:0.98500001 2:0.92500001 3:0.86500001 4:0.80500001 5:1 6:0 7:0 #
1000 1:0.93000001 2:0.87 3:0.75 4:0.69 5:0.75 6:0 7:0 #
-1000 1:0.97000003 2:0.91000003 3:0.85000002 4:0.79000002 5:0.75 6:0 7:0 #
-1000 1:0.935 2:0.79500002 3:0.73500001 4:0.67500001 5:1 6:0 7:0 #
1000 1:0.93000001 2:0.87 3:0.81 4:0.75 5:1 6:0.13298126 7:0 #
1000 1:0.91000003 2:0.85000002 3:0.73000002 4:0.67000002 5:0.75 6:0.09150625 7:0 #
1000 1:0.85500002 2:0.79500002 3:0.73500001 4:0.67500001 5:1 6:0.10080625 7:0 #
-999.2915846115211 1:0.19499999 2:0.19499999 3:0.19499999 4:0.045000002 5:1 6:0 7:0 #
1000 1:0.94499999 2:0.88499999 3:0.82499999 4:0.76499999 5:0.75 6:0.15406249 7:0 #
1000 1:0.93000001 2:0.75 3:0.69 4:0.63 5:0.75 6:0 7:0 #
-1000 1:0.39500001 2:0.34 3:0.22 4:0.035 5:1 6:0.20025624 7:0 #
1000 1:0.91000003 2:0.85000002 3:0.73000002 4:0.67000002 5:0.75 6:0.090000004 7:0 #
-1000 1:0.935 2:0.875 3:0.755 4:0.69499999 5:1 6:0.10725625 7:0 #
1000 1:0.91000003 2:0.85000002 3:0.73000002 4:0.67000002 5:0.75 6:0 7:0 #
1000 1:0.77999997 2:0.72000003 3:0.60000002 4:0.54000002 5:1 6:0.183025 7:0 #
-1000 1:0.98500001 2:0.92500001 3:0.86500001 4:0.80500001 5:1 6:0 7:0 #
-1000 1:0.98500001 2:0.92500001 3:0.86500001 4:0.80500001 5:1 6:0 7:0 #
1000 1:0.81 2:0.75 3:0.69 4:0.63 5:1 6:0.087025002 7:0 #
-1000 1:0.95999998 2:0.81999999 3:0.75999999 4:0.69999999 5:1 6:0 7:0 #
-1000 1:0.95499998 2:0.89499998 3:0.83499998 4:0.77499998 5:1 6:0.58796251 7:0 #
-1000 1:0.405 2:0.405 3:0.1 4:0.045000002 5:0.5 6:0 7:0 #
-1000 1:0.40000001 2:0.40000001 3:0.16 4:0.064999998 5:1 6:0 7:0 #
-1000 1:0.46000001 2:0.34 3:0.1 4:0.1 5:0 6:0 7:0.086740002 #
1000 1:0.93000001 2:0.75 3:0.69 4:0.63 5:0.75 6:0 7:0 #
-1000 1:0.17 2:0.055 3:0.055 4:0.17 5:1 6:0 7:0.03362 #
1000 1:0.73500001 2:0.67500001 3:0.55500001 4:0.495 5:1 6:0.148525 7:0 #
1000 1:0.85000002 2:0.79000002 3:0.73000002 4:0.61000001 5:1 6:0.15144999 7:0 #
-1000 1:0.96499997 2:0.90499997 3:0.84500003 4:0.78500003 5:1 6:0.56801248 7:0 #
-1000 1:0.98500001 2:0.92500001 3:0.86500001 4:0.80500001 5:0.5 6:0.30380625 7:0 #
-1000 1:0.98000002 2:0.92000002 3:0.80000001 4:0.74000001 5:0.75 6:0.12425625 7:0 #
1000 1:0.85000002 2:0.79000002 3:0.73000002 4:0.61000001 5:1 6:0.15136249 7:0 #
1000 1:0.93000001 2:0.87 3:0.81 4:0.75 5:1 6:0.16390625 7:0 #
1000 1:0.935 2:0.875 3:0.815 4:0.755 5:0.75 6:0.14585 7:0 #
-1000 1:0.98000002 2:0.92000002 3:0.86000001 4:0.80000001 5:0.75 6:0.072899997 7:0 #
1000 1:0.755 2:0.69499999 3:0.57499999 4:0.51499999 5:1 6:0.165325 7:0 #
-1000 1:0.96499997 2:0.82499999 3:0.76499999 4:0.70499998 5:1 6:0 7:0 #
-1000 1:0.97500002 2:0.85500002 3:0.79500002 4:0.73000002 5:1 6:0.1089 7:0 #
-1000 1:0.94999999 2:0.88999999 3:0.76999998 4:0.70999998 5:1 6:0.11390625 7:0 #
1000 1:0.93000001 2:0.75 3:0.69 4:0.63 5:0.75 6:0 7:0 #
-1000 1:0.97500002 2:0.85500002 3:0.79500002 4:0.73500001 5:0.25 6:0 7:0 #
-1000 1:0.97000003 2:0.91000003 3:0.79000002 4:0.73000002 5:0.75 6:0 7:0 #
-1000 1:0.98500001 2:0.92500001 3:0.86500001 4:0.80500001 5:1 6:0 7:0 #
1000 1:0.93000001 2:0.75 3:0.69 4:0.63 5:0.75 6:0 7:0 #
1000 1:0.93000001 2:0.87 3:0.81 4:0.75 5:1 6:0.16388126 7:0 #
1000 1:0.84500003 2:0.78500003 3:0.72500002 4:0.66500002 5:1 6:0.096100003 7:0 #
-1000 1:0.41 2:0.050000001 3:0.050000001 4:0 5:0.75 6:0 7:0 #
-1000 1:0.98000002 2:0.92000002 3:0.86000001 4:0.80000001 5:1 6:0 7:0 #
-1000 1:0.96499997 2:0.88499999 3:0.82499999 4:0.76499999 5:1 6:0 7:0 #
1000 1:0.85000002 2:0.79000002 3:0.73000002 4:0.67000002 5:1 6:0.099225 7:0 #
1000 1:0.91000003 2:0.85000002 3:0.73000002 4:0.67000002 5:0.75 6:0 7:0 #
-1000 1:0.94999999 2:0.88999999 3:0.82999998 4:0.76999998 5:0.75 6:0 7:0 #
1000 1:0.91000003 2:0.85000002 3:0.73000002 4:0.67000002 5:0.75 6:0 7:0 #
1000 1:0.93000001 2:0.75 3:0.69 4:0.63 5:0.75 6:0 7:0 #
1000 1:0.77499998 2:0.71499997 3:0.59500003 4:0.53500003 5:1 6:0.13393125 7:0 #
-1000 1:0.93000001 2:0.87 3:0.81 4:0.75 5:1 6:0 7:0 #
-1000 1:0.98500001 2:0.92500001 3:0.80500001 4:0.745 5:0.75 6:0 7:0 #
1000 1:0.91000003 2:0.85000002 3:0.73000002 4:0.67000002 5:0.75 6:0 7:0 #
1000 1:0.76999998 2:0.70999998 3:0.58999997 4:0.52999997 5:1 6:0.1598125 7:0 #
-1000 1:0.935 2:0.875 3:0.815 4:0.755 5:1 6:0 7:0 #
-1000 1:0.97500002 2:0.91500002 3:0.85500002 4:0.79500002 5:1 6:0.13505626 7:0 #
-1000 1:0.91000003 2:0.85000002 3:0.73000002 4:0.67000002 5:0.75 6:0 7:0 #
1000 1:0.91000003 2:0.85000002 3:0.73000002 4:0.67000002 5:0.75 6:0 7:0 #
-1000 1:0.73500001 2:0.67500001 3:0.61500001 4:0.495 5:0.75 6:0 7:0.62015623 #
1000 1:0.93000001 2:0.87 3:0.75 4:0.69 5:0.75 6:0 7:0 #
-1000 1:0.97000003 2:0.91000003 3:0.85000002 4:0.73000002 5:1 6:0 7:0 #
1000 1:0.81999999 2:0.75999999 3:0.63999999 4:0.57999998 5:1 6:0.205 7:0 #
1000 1:0.87 2:0.81 3:0.75 4:0.69 5:1 6:0.2186 7:0 #
1000 1:0.77999997 2:0.72000003 3:0.60000002 4:0.54000002 5:1 6:0.13915625 7:0 #
-1000 1:0.39500001 2:0.34 3:0.22 4:0.035 5:1 6:0.23765625 7:0 #
-1000 1:0.93000001 2:0.87 3:0.75 4:0.69 5:1 6:0 7:0 #
-1000 1:0.47999999 2:0.47999999 3:0.47999999 4:0.36000001 5:1 6:0 7:0 #
1000 1:0.93000001 2:0.75 3:0.69 4:0.63 5:0.75 6:0 7:0 #
-1000 1:0.95499998 2:0.89499998 3:0.77499998 4:0.71499997 5:1 6:0 7:0 #
1000 1:0.87 2:0.81 3:0.75 4:0.69 5:1 6:0.20328125 7:0 #
-1000 1:0.97000003 2:0.91000003 3:0.79000002 4:0.73000002 5:0.5 6:0 7:0 #
-1000 1:0.92500001 2:0.86500001 3:0.80500001 4:0.745 5:1 6:0.54695624 7:0 #
1000 1:0.78500003 2:0.72500002 3:0.60500002 4:0.54500002 5:1 6:0.14180624 7:0 #
1000 1:0.87 2:0.81 3:0.75 4:0.69 5:1 6:0.17940626 7:0 #
-1000 1:0.94 2:0.88 3:0.81999999 4:0.75999999 5:1 6:0.51910627 7:0 #
1000 1:0.81999999 2:0.75999999 3:0.63999999 4:0.57999998 5:1 6:0.17560625 7:0 #
1000 1:0.85000002 2:0.79000002 3:0.73000002 4:0.67000002 5:1 6:0.19695625 7:0 #
-1000 1:0.96499997 2:0.90499997 3:0.82499999 4:0.76499999 5:1 6:0.25853124 7:0 #
-1000 1:0.94999999 2:0.81 3:0.75 4:0.69 5:1 6:0 7:0 #
-1000 1:0.47999999 2:0.47999999 3:0.47999999 4:0.36000001 5:1 6:0 7:0 #
-1000 1:0.51499999 2:0.51499999 3:0.46000001 4:0.34 5:1 6:0.42203125 7:0 #
-1000 1:0.94499999 2:0.88499999 3:0.76499999 4:0.70499998 5:1 6:0 7:0 #
-1000 1:0.98500001 2:0.92500001 3:0.86500001 4:0.745 5:0.75 6:0.25418124 7:0 #
1000 1:0.93000001 2:0.87 3:0.75 4:0.69 5:0.75 6:0 7:0 #
-1000 1:0.98000002 2:0.89999998 3:0.83999997 4:0.77999997 5:1 6:0 7:0 #
1000 1:0.93000001 2:0.75 3:0.69 4:0.63 5:0.75 6:0 7:0 #
-1000 1:0.98500001 2:0.92500001 3:0.86500001 4:0.80500001 5:1 6:0 7:0 #
1000 1:0.77499998 2:0.71499997 3:0.59500003 4:0.53500003 5:1 6:0.16265 7:0 #
-1000 1:0.98500001 2:0.90499997 3:0.84500003 4:0.78500003 5:1 6:0 7:0 #
1000 1:0.79000002 2:0.73000002 3:0.61000001 4:0.55000001 5:1 6:0.1860625 7:0 #
-1000 1:0.96499997 2:0.90499997 3:0.84500003 4:0.72500002 5:1 6:0 7:0 #
1000 1:0.815 2:0.755 3:0.63499999 4:0.57499999 5:1 6:0.19865 7:0 #
-1000 1:0.98500001 2:0.92500001 3:0.86500001 4:0.80500001 5:1 6:0 7:0 #
1000 1:0.78500003 2:0.72500002 3:0.60500002 4:0.54500002 5:1 6:0.1860625 7:0 #
-1000 1:0.97000003 2:0.85000002 3:0.79000002 4:0.73000002 5:0.25 6:0 7:0 #
-1000 1:0.36500001 2:0.245 3:0.0049999999 4:0.0049999999 5:1 6:0 7:0 #
1000 1:0.93000001 2:0.75 3:0.69 4:0.63 5:0.75 6:0 7:0 #
1000 1:0.79000002 2:0.73000002 3:0.67000002 4:0.61000001 5:1 6:0.084100001 7:0 #
1000 1:0.78500003 2:0.72500002 3:0.60500002 4:0.54500002 5:1 6:0.15890625 7:0 #
1000 1:0.79500002 2:0.73500001 3:0.67500001 4:0.61500001 5:1 6:0.18158124 7:0 #
-1000 1:0.36500001 2:0.245 3:0.0049999999 4:0.0049999999 5:1 6:0 7:0 #
1000 1:0.85000002 2:0.79000002 3:0.67000002 4:0.61000001 5:1 6:0.18150625 7:0 #
-1000 1:0.28 2:0.23 3:0.16 4:0.28 5:1 6:0 7:0.10466562 #
1000 1:0.79500002 2:0.73500001 3:0.61500001 4:0.55500001 5:1 6:0.189125 7:0 #
1000 1:0.82999998 2:0.76999998 3:0.70999998 4:0.64999998 5:1 6:0.090000004 7:0 #
-1000 1:0.185 2:0.185 3:0.025 4:0.185 5:1 6:0.14822499 7:0 #
1000 1:0.84500003 2:0.78500003 3:0.66500002 4:0.60500002 5:1 6:0.20093125 7:0 #
-1000 1:0.98500001 2:0.92500001 3:0.86500001 4:0.80500001 5:1 6:0 7:0 #
1000 1:0.80000001 2:0.74000001 3:0.62 4:0.56 5:1 6:0.17328125 7:0 #
1000 1:0.82999998 2:0.76999998 3:0.64999998 4:0.58999997 5:1 6:0.1156 7:0 #
-1000 1:0.33000001 2:0.18000001 3:0.33000001 4:0.33000001 5:1 6:0 7:0.048511252 #
1000 1:0.81 2:0.75 3:0.69 4:0.63 5:1 6:0.2080625 7:0 #
-1000 1:0.97000003 2:0.91000003 3:0.85000002 4:0.79000002 5:0.75 6:0 7:0 #
1000 1:0.93000001 2:0.75 3:0.69 4:0.63 5:0.75 6:0 7:0 #
-1000 1:0.61000001 2:0.49000001 3:0.25 4:0.25 5:0.25 6:0.22800624 7:0 #
1000 1:0.815 2:0.755 3:0.63499999 4:0.57499999 5:1 6:0.19103125 7:0 #
1000 1:0.84500003 2:0.78500003 3:0.66500002 4:0.60500002 5:1 6:0.20040625 7:0 #
1000 1:0.81 2:0.75 3:0.63 4:0.56999999 5:1 6:0.18795624 7:0 #
1000 1:0.81999999 2:0.75999999 3:0.63999999 4:0.57999998 5:1 6:0.18543126 7:0 #
-1000 1:0.95499998 2:0.815 3:0.755 4:0.69499999 5:1 6:0 7:0 #
1000 1:0.93000001 2:0.75 3:0.69 4:0.63 5:0.75 6:0 7:0 #
-1000 1:0.86500001 2:0.80500001 3:0.685 4:0.625 5:1 6:0.25132501 7:0 #
1000 1:0.83999997 2:0.77999997 3:0.72000003 4:0.66000003 5:1 6:0.19383125 7:0 #
1000 1:0.93000001 2:0.75 3:0.69 4:0.63 5:0.75 6:0 7:0 #
-1000 1:0.96499997 2:0.90499997 3:0.78500003 4:0.72500002 5:0.75 6:0 7:0 #
1000 1:0.79000002 2:0.73000002 3:0.61000001 4:0.55000001 5:1 6:0.16458125 7:0 #
-1000 1:0.935 2:0.815 3:0.755 4:0.69 5:1 6:0.41196251 7:0 #
-1000 1:0.935 2:0.875 3:0.755 4:0.69499999 5:1 6:0 7:0 #
1000 1:0.84500003 2:0.78500003 3:0.72500002 4:0.66500002 5:1 6:0.19695625 7:0 #
-1000 1:0.85500002 2:0.79500002 3:0.67500001 4:0.61500001 5:1 6:0.23403125 7:0 #
1000 1:0.83499998 2:0.77499998 3:0.71499997 4:0.65499997 5:1 6:0.19383125 7:0 #
-1000 1:0.98500001 2:0.86500001 3:0.80500001 4:0.74000001 5:0.75 6:0.119025 7:0 #
-1000 1:0.82499999 2:0.76499999 3:0.64499998 4:0.58499998 5:1 6:0.30758125 7:0 #
-1000 1:0.98500001 2:0.92500001 3:0.86500001 4:0.745 5:0.75 6:0.22058125 7:0 #
-1000 1:0.2 2:0.079999998 3:0.025 4:0.2 5:0.75 6:0 7:0.090801246 #
1000 1:0.93000001 2:0.75 3:0.69 4:0.63 5:0.75 6:0 7:0 #
1000 1:0.83999997 2:0.77999997 3:0.72000003 4:0.66000003 5:1 6:0.09455625 7:0 #
-1000 1:0.98000002 2:0.92000002 3:0.80000001 4:0.74000001 5:0.75 6:0.090000004 7:0 #
-1000 1:0.245 2:0.245 3:0.0049999999 4:0.02 5:0.5 6:0 7:0 #
1000 1:0.82999998 2:0.76999998 3:0.70999998 4:0.64999998 5:1 6:0.19073126 7:0 #
-1000 1:0.86000001 2:0.80000001 3:0.68000001 4:0.62 5:1 6:0.23745625 7:0 #
-1000 1:0.96499997 2:0.90499997 3:0.84500003 4:0.72500002 5:1 6:0 7:0 #
1000 1:0.82499999 2:0.76499999 3:0.70499998 4:0.64499998 5:1 6:0.19073126 7:0 #
1000 1:0.815 2:0.755 3:0.69499999 4:0.63499999 5:1 6:0.18765625 7:0 #
1000 1:0.815 2:0.755 3:0.69499999 4:0.63499999 5:1 6:0.088506252 7:0 #
1000 1:0.81 2:0.75 3:0.63 4:0.56999999 5:1 6:0.1955125 7:0 #
-1000 1:0.51499999 2:0.51499999 3:0.46000001 4:0.34 5:1 6:0.43125626 7:0 #
1000 1:0.80000001 2:0.74000001 3:0.62 4:0.56 5:1 6:0.189125 7:0 #
-1000 1:0.94 2:0.88 3:0.75999999 4:0.69999999 5:1 6:0 7:0 #
-1000 1:0.86500001 2:0.80500001 3:0.685 4:0.625 5:1 6:0.24438125 7:0 #
1000 1:0.80000001 2:0.74000001 3:0.68000001 4:0.62 5:1 6:0.18158124 7:0 #
-1000 1:0.86000001 2:0.80000001 3:0.68000001 4:0.62 5:1 6:0.2482 7:0 #
-1000 1:0.215 2:0.094999999 3:0.215 4:0.215 5:1 6:0 7:0.15015624 #
1000 1:0.81999999 2:0.75999999 3:0.69999999 4:0.63999999 5:1 6:0.18765625 7:0 #
1000 1:0.80500001 2:0.745 3:0.625 4:0.565 5:1 6:0.19221251 7:0 #
-1000 1:0.93000001 2:0.87 3:0.81 4:0.75 5:1 6:0.43945625 7:0 #
-1000 1:0.94999999 2:0.88999999 3:0.76999998 4:0.70999998 5:1 6:0.29618126 7:0 #
-1000 1:0.85000002 2:0.79000002 3:0.67000002 4:0.61000001 5:1 6:0.22725625 7:0 #
-1000 1:0.95499998 2:0.89499998 3:0.77499998 4:0.71499997 5:1 6:0.28626251 7:0 #
-1000 1:0.98500001 2:0.92500001 3:0.86500001 4:0.745 5:0.75 6:0.22058125 7:0 #
-1000 1:0.97000003 2:0.85000002 3:0.79000002 4:0.73000002 5:1 6:0.29405001 7:0 #
1000 1:0.83999997 2:0.77999997 3:0.66000003 4:0.60000002 5:1 6:0.19778125 7:0 #
1000 1:0.85000002 2:0.79000002 3:0.67000002 4:0.61000001 5:1 6:0.19725625 7:0 #
1000 1:0.93000001 2:0.75 3:0.69 4:0.63 5:0.75 6:0 7:0 #
-1000 1:0.98000002 2:0.92000002 3:0.86000001 4:0.80000001 5:1 6:0.35923126 7:0 #
1000 1:0.81 2:0.75 3:0.69 4:0.63 5:1 6:0.18460625 7:0 #
-1000 1:0.85500002 2:0.79500002 3:0.67500001 4:0.61500001 5:1 6:0.2447125 7:0 #
1000 1:0.81 2:0.75 3:0.63 4:0.56999999 5:1 6:0.082656249 7:0 #
-1000 1:0.86500001 2:0.80500001 3:0.685 4:0.625 5:1 6:0.24788125 7:0 #
-1000 1:0.98500001 2:0.92500001 3:0.86500001 4:0.745 5:0.75 6:0.22390625 7:0 #
-1000 1:0.35499999 2:0.115 3:0.07 4:0 5:1 6:0 7:0 #
1000 1:0.81 2:0.75 3:0.63 4:0.56999999 5:1 6:0.081225 7:0 #
-1000 1:0.98000002 2:0.89999998 3:0.83999997 4:0.77999997 5:1 6:0 7:0 #
1000 1:0.83499998 2:0.77499998 3:0.65499997 4:0.59500003 5:1 6:0.19725625 7:0 #
1000 1:0.83499998 2:0.77499998 3:0.65499997 4:0.59500003 5:1 6:0.17850626 7:0 #
1000 1:0.82499999 2:0.76499999 3:0.64499998 4:0.58499998 5:1 6:0.1770625 7:0 #
-1000 1:0.95499998 2:0.89499998 3:0.77499998 4:0.71499997 5:1 6:0.29975626 7:0 #
-1000 1:0.96499997 2:0.90499997 3:0.84500003 4:0.72500002 5:1 6:0 7:0 #
-1000 1:0.83499998 2:0.77499998 3:0.65499997 4:0.59500003 5:1 6:0.068906248 7:0 #
-1000 1:0.91500002 2:0.85500002 3:0.73500001 4:0.67500001 5:1 6:0.10400625 7:0 #
-1000 1:0.87 2:0.81 3:0.69 4:0.63 5:1 6:0.25486249 7:0 #
1000 1:0.83999997 2:0.77999997 3:0.66000003 4:0.60000002 5:1 6:0.19068125 7:0 #
-1000 1:0.94499999 2:0.80500001 3:0.745 4:0.685 5:1 6:0 7:0 #
1000 1:0.81 2:0.75 3:0.63 4:0.56999999 5:1 6:0.085556246 7:0 #
1000 1:0.82499999 2:0.76499999 3:0.70499998 4:0.64499998 5:1 6:0.090000004 7:0 #
-1000 1:0.93000001 2:0.81 3:0.75 4:0.685 5:1 6:0.40588751 7:0 #
-1000 1:0.98500001 2:0.92500001 3:0.86500001 4:0.80500001 5:1 6:0 7:0 #
-1000 1:0.96499997 2:0.84500003 3:0.78500003 4:0.72500002 5:1 6:0.2903125 7:0 #
-1000 1:0.41999999 2:0.35499999 3:0.235 4:0.41999999 5:1 6:0.13322499 7:0 #
1000 1:0.82999998 2:0.76999998 3:0.64999998 4:0.58999997 5:1 6:0.19413126 7:0 #
-1000 1:0.74000001 2:0.68000001 3:0.62 4:0.5 5:0.75 6:0 7:0.62015623 #
1000 1:0.81999999 2:0.75999999 3:0.69999999 4:0.63999999 5:1 6:0.088506252 7:0 #
1000 1:0.93000001 2:0.75 3:0.69 4:0.63 5:0.75 6:0 7:0 #
-1000 1:0.98500001 2:0.92500001 3:0.86500001 4:0.80500001 5:1 6:0 7:0 #
-1000 1:0.97500002 2:0.91500002 3:0.79500002 4:0.73500001 5:0.75 6:0.1225 7:0 #
-1000 1:0.815 2:0.755 3:0.69499999 4:0.63499999 5:1 6:0 7:0.12850125 #
-1000 1:0.97000003 2:0.91000003 3:0.82999998 4:0.76999998 5:0.75 6:0 7:0 #
-1000 1:0.98500001 2:0.86500001 3:0.80500001 4:0.74000001 5:0.75 6:0.105625 7:0 #
1000 1:0.83499998 2:0.77499998 3:0.65499997 4:0.59500003 5:1 6:0.18455625 7:0 #
-1000 1:0.45500001 2:0.45500001 3:0.45500001 4:0.33500001 5:1 6:0.54593748 7:0 #
-1000 1:0.58499998 2:0.465 3:0.22499999 4:0.22499999 5:0 6:0.090000004 7:0 #
1000 1:0.82499999 2:0.76499999 3:0.64499998 4:0.58499998 5:1 6:0.19413126 7:0 #
1000 1:0.84500003 2:0.78500003 3:0.66500002 4:0.60500002 5:1 6:0.19695625 7:0 #
1000 1:0.84500003 2:0.78500003 3:0.66500002 4:0.60500002 5:1 6:0.19378126 7:0 #
1000 1:0.84500003 2:0.78500003 3:0.66500002 4:0.60500002 5:1 6:0.19265001 7:0 #
-1000 1:0.61000001 2:0.49000001 3:0.25 4:0.25 5:0.25 6:0.2304 7:0 #
1000 1:0.85000002 2:0.79000002 3:0.67000002 4:0.61000001 5:1 6:0.19265001 7:0 #
1000 1:0.815 2:0.755 3:0.63499999 4:0.57499999 5:1 6:0.16678125 7:0 #
1000 1:0.93000001 2:0.75 3:0.69 4:0.63 5:0.75 6:0 7:0 #
-1000 1:0.86500001 2:0.80500001 3:0.685 4:0.625 5:1 6:0.081225 7:0 #
-1000 1:0.61000001 2:0.49000001 3:0.25 4:0.25 5:0.25 6:0.22800624 7:0 #
-999.05113445222378 1:0.30500001 2:0.185 3:0.185 4:0.025 5:1 6:0.14822499 7:0 #
1000 1:0.93000001 2:0.75 3:0.69 4:0.63 5:0.75 6:0 7:0 #
-1000 1:0.94 2:0.88 3:0.75999999 4:0.69999999 5:1 6:0.28885624 7:0 #
-1000 1:0.96499997 2:0.84500003 3:0.78500003 4:0.72500002 5:0.25 6:0 7:0 #
-1000 1:0.94499999 2:0.88499999 3:0.76499999 4:0.70499998 5:1 6:0.112225 7:0 #
1000 1:0.82999998 2:0.76999998 3:0.64999998 4:0.58999997 5:1 6:0.18460625 7:0 #
-1000 1:0.13 2:0.07 3:0.13 4:0.075000003 5:1 6:0 7:0.032000002 #
1000 1:0.93000001 2:0.75 3:0.69 4:0.63 5:0.75 6:0 7:0 #
-1000 1:0.39500001 2:0.35499999 3:0.115 4:0.115 5:0.75 6:0 7:0 #
-1000 1:0.39500001 2:0.35499999 3:0.115 4:0.115 5:0.75 6:0 7:0 #
-1000 1:0.36500001 2:0.245 3:0.0049999999 4:0.0049999999 5:1 6:0 7:0 #
-1000 1:0.94999999 2:0.88999999 3:0.76999998 4:0.70999998 5:1 6:0.28626251 7:0 #
1000 1:0.82499999 2:0.76499999 3:0.64499998 4:0.58499998 5:1 6:0.18848126 7:0 #
-1000 1:0.88 2:0.81999999 3:0.69999999 4:0.63999999 5:1 6:0.087025002 7:0 #
1000 1:0.83999997 2:0.77999997 3:0.66000003 4:0.60000002 5:1 6:0.18795624 7:0 #
-1000 1:0.61000001 2:0.49000001 3:0.25 4:0.25 5:0.25 6:0.2304 7:0 #
1000 1:0.83999997 2:0.77999997 3:0.66000003 4:0.60000002 5:1 6:0.1895625 7:0 #
1000 1:0.81999999 2:0.75999999 3:0.63999999 4:0.57999998 5:1 6:0.19103125 7:0 #
1000 1:0.83499998 2:0.77499998 3:0.65499997 4:0.59500003 5:1 6:0.1895625 7:0 #
-1000 1:0.97000003 2:0.91000003 3:0.85000002 4:0.73000002 5:1 6:0 7:0 #
-1000 1:0.83999997 2:0.77999997 3:0.66000003 4:0.60000002 5:1 6:0.070225 7:0 #
1000 1:0.93000001 2:0.75 3:0.69 4:0.63 5:0.75 6:0 7:0 #
1000 1:0.82499999 2:0.76499999 3:0.64499998 4:0.58499998 5:1 6:0.17858125 7:0 #
-1000 1:0.94 2:0.81999999 3:0.75999999 4:0.69999999 5:1 6:0.2745125 7:0 #
-1000 1:0.88499999 2:0.82499999 3:0.70499998 4:0.64499998 5:1 6:0.090000004 7:0 #
1000 1:0.82999998 2:0.76999998 3:0.64999998 4:0.58999997 5:1 6:0.17888124 7:0 #
-1000 1:0.94 2:0.81999999 3:0.75999999 4:0.69499999 5:1 6:0.41740626 7:0 #
1000 1:0.84500003 2:0.78500003 3:0.66500002 4:0.60500002 5:1 6:0.19103125 7:0 #
1000 1:0.82499999 2:0.76499999 3:0.64499998 4:0.58499998 5:1 6:0.17555626 7:0 #
-1000 1:0.94999999 2:0.88999999 3:0.82999998 4:0.76999998 5:1 6:0 7:0 #
1000 1:0.83499998 2:0.77499998 3:0.65499997 4:0.59500003 5:1 6:0.18765625 7:0 #
-1000 1:0.86000001 2:0.80000001 3:0.68000001 4:0.62 5:1 6:0.078400001 7:0 #
-1000 1:0.91000003 2:0.85000002 3:0.73000002 4:0.67000002 5:1 6:0.10080625 7:0 #
-1000 1:0.93000001 2:0.81 3:0.75 4:0.685 5:1 6:0.36970001 7:0 #
-1000 1:0.93000001 2:0.87 3:0.75 4:0.69 5:1 6:0.10400625 7:0 #
1000 1:0.83999997 2:0.77999997 3:0.66000003 4:0.60000002 5:1 6:0.19383125 7:0 #
-1000 1:0.98500001 2:0.92500001 3:0.86500001 4:0.80500001 5:1 6:0 7:0 #
1000 1:0.83999997 2:0.77999997 3:0.66000003 4:0.60000002 5:1 6:0.19725625 7:0 #
1000 1:0.82999998 2:0.76999998 3:0.64999998 4:0.58999997 5:1 6:0.1770625 7:0 #
1000 1:0.82999998 2:0.76999998 3:0.64999998 4:0.58999997 5:1 6:0.17553125 7:0 #
1000 1:0.93000001 2:0.75 3:0.69 4:0.63 5:0.75 6:0 7:0 #
1000 1:0.84500003 2:0.78500003 3:0.66500002 4:0.60500002 5:1 6:0.18306249 7:0 #
1000 1:0.93000001 2:0.75 3:0.69 4:0.63 5:0.75 6:0 7:0 #
1000 1:0.83999997 2:0.77999997 3:0.66000003 4:0.60000002 5:1 6:0.18005 7:0 #
-1000 1:0.85000002 2:0.79000002 3:0.67000002 4:0.61000001 5:1 6:0.074256249 7:0 #
-1000 1:0.84500003 2:0.78500003 3:0.66500002 4:0.60500002 5:1 6:0.072899997 7:0 #
1000 1:0.84500003 2:0.78500003 3:0.66500002 4:0.60500002 5:1 6:0.18150625 7:0 #
1000 1:0.85000002 2:0.79000002 3:0.67000002 4:0.61000001 5:1 6:0.185 7:0 #
-1000 1:0.85500002 2:0.79500002 3:0.67500001 4:0.61500001 5:1 6:0.077006251 7:0 #
-1000 1:0.93000001 2:0.87 3:0.81 4:0.69 5:1 6:0.33086249 7:0 #
1000 1:0.83499998 2:0.77499998 3:0.65499997 4:0.59500003 5:1 6:0.18005 7:0 #
1000 1:0.83999997 2:0.77999997 3:0.66000003 4:0.60000002 5:1 6:0.17850626 7:0 #
-1000 1:0.93000001 2:0.87 3:0.75 4:0.69 5:1 6:0.11055625 7:0 #
-1000 1:0.185 2:0.185 3:0.025 4:0.185 5:1 6:0.15015624 7:0 #
-1000 1:0.31999999 2:0.079999998 3:0.059999999 4:0 5:1 6:0 7:0 #
-1000 1:0.97000003 2:0.85000002 3:0.79000002 4:0.72500002 5:0.5 6:0 7:0 #
1000 1:0.81 2:0.75 3:0.63 4:0.56999999 5:1 6:0.084100001 7:0 #
1000 1:0.93000001 2:0.75 3:0.69 4:0.63 5:0.75 6:0 7:0 #
1000 1:0.93000001 2:0.75 3:0.69 4:0.63 5:0.75 6:0 7:0 #
1000 1:0.815 2:0.755 3:0.63499999 4:0.57499999 5:1 6:0.17940626 7:0 #
-1000 1:0.98500001 2:0.92500001 3:0.86500001 4:0.745 5:0.75 6:0.22725625 7:0 #
1000 1:0.93000001 2:0.75 3:0.69 4:0.63 5:0.75 6:0 7:0 #
-1000 1:0.89499998 2:0.83499998 3:0.71499997 4:0.65499997 5:1 6:0.09455625 7:0 #
-464.5217770230156 1:0.215 2:0.094999999 3:0.215 4:0.215 5:1 6:0 7:0 #
-1000 1:0.375 2:0.13500001 3:0.13500001 4:0.029999999 5:0.75 6:0 7:0 #
-1000 1:0.94999999 2:0.88999999 3:0.76999998 4:0.70999998 5:1 6:0.1899125 7:0 #
1000 1:0.82499999 2:0.76499999 3:0.64499998 4:0.58499998 5:1 6:0.17295624 7:0 #
-1000 1:0.30000001 2:0.28 3:0.059999999 4:0.059999999 5:0.75 6:0 7:0 #
1000 1:0.80500001 2:0.745 3:0.625 4:0.565 5:1 6:0.17623125 7:0 #
-1000 1:0.935 2:0.875 3:0.815 4:0.69499999 5:1 6:0.33456251 7:0 #
1000 1:0.79000002 2:0.73000002 3:0.61000001 4:0.55000001 5:1 6:0.15910625 7:0 #
-1000 1:0.94 2:0.88 3:0.81999999 4:0.69999999 5:1 6:0.33864999 7:0 #
1000 1:0.80500001 2:0.745 3:0.625 4:0.565 5:1 6:0.17055625 7:0 #
1000 1:0.815 2:0.755 3:0.63499999 4:0.57499999 5:1 6:0.16425624 7:0 #
-1000 1:0.90499997 2:0.84500003 3:0.72500002 4:0.66500002 5:1 6:0.099225 7:0 #
1000 1:0.81999999 2:0.75999999 3:0.63999999 4:0.57999998 5:1 6:0.17260624 7:0 #
-1000 1:0.95499998 2:0.89499998 3:0.77499998 4:0.71499997 5:1 6:0.1961125 7:0 #
1000 1:0.81 2:0.75 3:0.63 4:0.56999999 5:1 6:0.17643125 7:0 #
1000 1:0.80000001 2:0.74000001 3:0.62 4:0.56 5:1 6:0.14753126 7:0 #
-1000 1:0.89999998 2:0.83999997 3:0.72000003 4:0.66000003 5:1 6:0.096100003 7:0 #
1000 1:0.79000002 2:0.73000002 3:0.61000001 4:0.55000001 5:1 6:0.14718124 7:0 #
-1000 1:0.935 2:0.815 3:0.755 4:0.69 5:1 6:0.36970001 7:0 #
1000 1:0.81999999 2:0.75999999 3:0.63999999 4:0.57999998 5:1 6:0.17003125 7:0 #
-1000 1:0.88999999 2:0.82999998 3:0.70999998 4:0.64999998 5:1 6:0.09150625 7:0 #
1000 1:0.79500002 2:0.73500001 3:0.61500001 4:0.55500001 5:1 6:0.16745625 7:0 #
1000 1:0.80000001 2:0.74000001 3:0.62 4:0.56 5:1 6:0.15025625 7:0 #
1000 1:0.81 2:0.75 3:0.63 4:0.56999999 5:1 6:0.16390625 7:0 #
-5.4444350908643173 1:0.185 2:0.185 3:0.16 4:0.039999999 5:0.5 6:0 7:0 #
-521.32300834631315 1:0.52499998 2:0.405 3:0.285 4:0.16500001 5:1 6:0 7:0 #
1000 1:0.81 2:0.75 3:0.63 4:0.56999999 5:1 6:0.16140625 7:0 #
1000 1:0.80500001 2:0.745 3:0.625 4:0.565 5:1 6:0.15578125 7:0 #
-1000 1:0.98000002 2:0.86000001 3:0.80000001 4:0.73500001 5:0.5 6:0 7:0 #
1000 1:0.79500002 2:0.73500001 3:0.61500001 4:0.55500001 5:1 6:0.15078124 7:0 #
-1000 1:0.40000001 2:0.40000001 3:0.16 4:0.064999998 5:1 6:0 7:0 #
-1000 1:0.95999998 2:0.83999997 3:0.77999997 4:0.71499997 5:1 6:0.3748 7:0 #
1000 1:0.79500002 2:0.73500001 3:0.61500001 4:0.55500001 5:1 6:0.15353125 7:0 #
-101.2376570115739 1:0.97500002 2:0.91500002 3:0.85500002 4:0.79500002 5:1 6:0.36676249 7:0 #
1000 1:0.80500001 2:0.745 3:0.625 4:0.565 5:1 6:0.16110624 7:0 #
-0.1866859977973121 1:0.875 2:0.815 3:0.69499999 4:0.63499999 5:1 6:0.25853124 7:0 #
-5.2046795037158518 1:0.92000002 2:0.86000001 3:0.74000001 4:0.68000001 5:1 6:0.29005 7:0 #
-551.40152687790396 1:0.33000001 2:0.18000001 3:0.18000001 4:0.33000001 5:0 6:0 7:0.048511252 #
-98.358092352747917 1:0.98500001 2:0.92500001 3:0.86500001 4:0.80500001 5:0.75 6:0.43245 7:0 #
-133.66671546422367 1:0.94 2:0.81999999 3:0.75999999 4:0.69499999 5:1 6:0.37396249 7:0 #
1000 1:0.79500002 2:0.73500001 3:0.61500001 4:0.55500001 5:1 6:0.14990625 7:0 #
-8.0668308620256539 1:0.94499999 2:0.88499999 3:0.76499999 4:0.70499998 5:1 6:0.18685 7:0 #
-1.0966809326782823 1:0.94 2:0.88 3:0.81999999 4:0.75999999 5:1 6:0.19140625 7:0 #
1000 1:0.80000001 2:0.74000001 3:0.62 4:0.56 5:1 6:0.15543126 7:0 #
-85.079047596891542 1:0.47 2:0.47 3:0.47 4:0.34999999 5:1 6:0 7:0 #
-165.64506523984539 1:0.96499997 2:0.90499997 3:0.78500003 4:0.72500002 5:0.5 6:0 7:0 #
-99.636474423932668 1:0.88499999 2:0.82499999 3:0.76499999 4:0.70499998 5:0.5 6:0 7:0.57053751 #
-47.759813916927669 1:0.97500002 2:0.91500002 3:0.85500002 4:0.79500002 5:0.75 6:0.5175125 7:0 #
-105.90836032305378 1:0.92000002 2:0.86000001 3:0.74000001 4:0.68000001 5:1 6:0.105625 7:0 #
-624.92954119288856 1:0.94 2:0.80000001 3:0.74000001 4:0.68000001 5:1 6:0 7:0 #
-463.31064984665863 1:0.51999998 2:0.465 3:0.345 4:0.22499999 5:1 6:0 7:0 #
-37.435781932901591 1:0.81999999 2:0.75999999 3:0.63999999 4:0.57999998 5:0.75 6:0 7:0 #
-1.0962903709150851 1:0.96499997 2:0.88499999 3:0.82499999 4:0.76499999 5:1 6:0.18062501 7:0 #
-189.38105732621625 1:0.46000001 2:0.46000001 3:0.405 4:0.285 5:1 6:0 7:0 #
-204.38075740152271 1:0.95499998 2:0.89499998 3:0.83499998 4:0.77499998 5:1 6:0.51910627 7:0 #
-34.949070629779271 1:0.98000002 2:0.92000002 3:0.86000001 4:0.80000001 5:1 6:0.31033126 7:0 #
-164.88799279293744 1:0.94 2:0.88 3:0.75999999 4:0.69999999 5:1 6:0.1156 7:0 #
-107.66120517744639 1:0.89499998 2:0.83499998 3:0.755 4:0.69499999 5:1 6:0.43126249 7:0 #
-19.780207646079361 1:0.51999998 2:0.465 3:0.345 4:0.22499999 5:1 6:0 7:0 #
-34.981277182996564 1:0.98000002 2:0.92000002 3:0.86000001 4:0.80000001 5:1 6:0.36546251 7:0 #
-54.039694781647995 1:0.94 2:0.88 3:0.75999999 4:0.69999999 5:1 6:0.2825 7:0 #
-44.933365539414808 1:0.935 2:0.875 3:0.755 4:0.69499999 5:1 6:0.28508124 7:0 #
1000 1:0.815 2:0.755 3:0.63499999 4:0.57499999 5:1 6:0.16973124 7:0 #
-9.9523752173063258 1:0.33000001 2:0.18000001 3:0.33000001 4:0.33000001 5:1 6:0 7:0.048511252 #
-43.922790064397425 1:0.97500002 2:0.91500002 3:0.85500002 4:0.79500002 5:1 6:0.13140625 7:0 #
1000 1:0.80500001 2:0.745 3:0.625 4:0.565 5:1 6:0.15823124 7:0 #
-1.1688423899416804 1:0.94499999 2:0.88499999 3:0.76499999 4:0.70499998 5:1 6:0.119025 7:0 #
-0.0046252341255694773 1:0.87 2:0.81 3:0.69 4:0.63 5:1 6:0.25140625 7:0 #
-4.646617767078169 1:0.97500002 2:0.85500002 3:0.79500002 4:0.73500001 5:1 6:0.297025 7:0 #
-12.098686897380503 1:0.185 2:0.185 3:0.025 4:0.185 5:1 6:0.15405625 7:0 #
-6.3951155432705491 1:0.2 2:0.079999998 3:0.025 4:0.2 5:0.75 6:0 7:0.071824998 #
-3.3397533828028827 1:0.2 2:0.079999998 3:0.025 4:0.2 5:0.75 6:0 7:0.090801246 #
-0.33037844816581008 1:0.465 2:0.345 3:0.105 4:0.105 5:1 6:0 7:0 #
-0.67297924917875207 1:0.2 2:0.079999998 3:0.025 4:0.2 5:0.75 6:0 7:0.090801246 #
-0.035405941837780119 1:0.45500001 2:0.33500001 3:0.094999999 4:0.094999999 5:1 6:0 7:0 #
-0.036456080398920676 1:0.45500001 2:0.33500001 3:0.094999999 4:0.094999999 5:1 6:0 7:0 #
-0.11048857122659683 1:0.185 2:0.185 3:0.025 4:0.185 5:1 6:0.15015624 7:0 #
-0.079437931915890658 1:0.20999999 2:0.18000001 3:0.059999999 4:0.20999999 5:0 6:0 7:0.064722501 #
-0.056699203734751791 1:0.46000001 2:0.34 3:0.1 4:0.1 5:0 6:0 7:0.086740002 #
-0.0015374699158314797 1:0.98500001 2:0.92500001 3:0.86500001 4:0.80500001 5:1 6:0 7:0 #
-0.0054012575018305142 1:0.36500001 2:0.245 3:0.0049999999 4:0.0049999999 5:1 6:0 7:0 #
-0.0057011343124031555 1:0.20999999 2:0.18000001 3:0.059999999 4:0.20999999 5:0 6:0 7:0.03916125 #
-0.00041304940569879137 1:0.95999998 2:0.89999998 3:0.77999997 4:0.72000003 5:0.75 6:0 7:0 #
