SVM-light Version V6.02
0 # kernel type
3 # kernel parameter -d 
1 # kernel parameter -g 
1 # kernel parameter -s 
1 # kernel parameter -r 
empty# kernel parameter -u 
7 # highest feature index 
2897 # number of training documents 
114 # number of support vectors plus 1 
2.4323096 # threshold b, each following line is a SV (starting with alpha*y)
1000 1:0.95999998 2:0.88 3:0.81999999 4:0.69999999 5:1 6:0.3845875 7:0 #
1000 1:0.31999999 2:0.215 3:0.31999999 4:0.31999999 5:0.75 6:0 7:0.36985001 #
-1000 1:0.155 2:0.155 3:0.07 4:0.155 5:1 6:0 7:0.25628126 #
1000 1:0.045000002 2:0.045000002 3:0.045000002 4:0.045000002 5:0.75 6:0 7:0.1050075 #
-1000 1:0.035 2:0.035 3:0.035 4:0.035 5:1 6:0 7:0.28109375 #
1000 1:0 2:0 3:0 4:0 5:0 6:0 7:0.10967125 #
1000 1:0.93000001 2:0.87 3:0.81 4:0.75 5:1 6:0.1024 7:0.055814061 #
-778.02572234638899 1:0.155 2:0.155 3:0.07 4:0.155 5:1 6:0 7:0.25628126 #
-641.96931137383945 1:0.37 2:0.13 3:0.22499999 4:0.36500001 5:1 6:0 7:0 #
1000 1:0.13500001 2:0.13500001 3:0.13500001 4:0.13500001 5:0.75 6:0 7:0.1050075 #
-1000 1:0.90499997 2:0.84500003 3:0.78500003 4:0.72500002 5:0.75 6:0.61754376 7:0 #
1000 1:0.015 2:0.015 3:0.015 4:0.015 5:0.75 6:0 7:0.1050075 #
-1000 1:0.035 2:0.035 3:0.035 4:0.035 5:1 6:0 7:0.28109375 #
1000 1:0.31999999 2:0.255 3:0.31999999 4:0.31999999 5:0.75 6:0 7:0.36985001 #
1000 1:0.105 2:0.105 3:0.105 4:0.105 5:0.75 6:0 7:0.1050075 #
1000 1:0.94 2:0.86000001 3:0.80000001 4:0.68000001 5:1 6:0.51271874 7:0 #
-1000 1:0.98500001 2:0.90499997 3:0.84500003 4:0.72500002 5:0 6:0.285025 7:0 #
1000 1:0.87 2:0.81 3:0.75 4:0.69 5:1 6:0.3781625 7:0 #
1000 1:0.95499998 2:0.875 3:0.815 4:0.69499999 5:1 6:0.37925625 7:0 #
-1000 1:0.035 2:0.035 3:0.035 4:0.035 5:1 6:0 7:0.28109375 #
-1000 1:0.91000003 2:0.85000002 3:0.79000002 4:0.73000002 5:1 6:0.45721874 7:0 #
-1000 1:0.145 2:0.145 3:0.145 4:0.145 5:1 6:0 7:0.26251876 #
-1000 1:0.97500002 2:0.89499998 3:0.83499998 4:0.71499997 5:0 6:0.29262501 7:0 #
-389.44290642027465 1:0.37 2:0.13 3:0.22499999 4:0.37 5:1 6:0 7:0 #
1000 1:0.094999999 2:0.094999999 3:0.094999999 4:0.094999999 5:0.75 6:0 7:0.1050075 #
1000 1:0.94999999 2:0.87 3:0.81 4:0.69 5:1 6:0.37925625 7:0 #
1000 1:0.31999999 2:0.255 3:0.015 4:0.31999999 5:0.75 6:0 7:0.54835624 #
-1000 1:0.98500001 2:0.90499997 3:0.84500003 4:0.72500002 5:0 6:0.29262501 7:0 #
-1000 1:0.97000003 2:0.88999999 3:0.82999998 4:0.70999998 5:0 6:0.29262501 7:0 #
-1000 1:0.145 2:0.145 3:0.145 4:0.145 5:1 6:0 7:0.26251876 #
-1000 1:0.145 2:0.145 3:0.145 4:0.145 5:1 6:0 7:0.26251876 #
1000 1:0 2:0 3:0 4:0 5:0 6:0 7:0.42531249 #
1000 1:0.31999999 2:0.215 3:0.31999999 4:0.31999999 5:0.75 6:0 7:0.36985001 #
-1000 1:0.31999999 2:0.215 3:0.31999999 4:0.31999999 5:0.75 6:0 7:0.189225 #
1000 1:0.78500003 2:0.72500002 3:0.66500002 4:0.60500002 5:1 6:0.20323125 7:0 #
1000 1:0.064999998 2:0.064999998 3:0.064999998 4:0.064999998 5:0.75 6:0 7:0.1050075 #
1000 1:0.79000002 2:0.73000002 3:0.67000002 4:0.61000001 5:1 6:0.20965625 7:0 #
1000 1:0.79500002 2:0.73500001 3:0.67500001 4:0.61500001 5:1 6:0.21290626 7:0 #
-243.21894851419103 1:0.155 2:0.155 3:0.07 4:0.155 5:1 6:0 7:0.25628126 #
1000 1:0.80000001 2:0.74000001 3:0.68000001 4:0.62 5:1 6:0.21948124 7:0 #
-1000 1:0.145 2:0.145 3:0.145 4:0.145 5:1 6:0 7:0.26251876 #
1000 1:0.145 2:0.145 3:0.145 4:0.145 5:1 6:0 7:0.1050075 #
-1000 1:0.145 2:0.145 3:0.145 4:0.145 5:1 6:0 7:0.26251876 #
1000 1:0 2:0 3:0 4:0 5:0 6:0 7:0.42531249 #
1000 1:0.31999999 2:0.215 3:0.31999999 4:0.31999999 5:0.75 6:0 7:0.36985001 #
1000 1:0.145 2:0.145 3:0.145 4:0.145 5:1 6:0 7:0.1176775 #
-1000 1:0.31999999 2:0.215 3:0.31999999 4:0.31999999 5:0.75 6:0 7:0.189225 #
1000 1:0.31999999 2:0.255 3:0.31999999 4:0.31999999 5:0.75 6:0 7:0.36985001 #
1000 1:0.055 2:0.055 3:0.055 4:0.055 5:0.75 6:0 7:0.1050075 #
-1000 1:0.16500001 2:0.16500001 3:0.16500001 4:0.16500001 5:1 6:0 7:0.28109375 #
1000 1:0.0049999999 2:0.0049999999 3:0.0049999999 4:0.0049999999 5:0.75 6:0 7:0.1050075 #
1000 1:0.115 2:0.115 3:0.115 4:0.115 5:0.75 6:0 7:0.1050075 #
-1000 1:0.035 2:0.035 3:0.035 4:0.035 5:1 6:0 7:0.28109375 #
1000 1:0.80500001 2:0.745 3:0.685 4:0.625 5:1 6:0.22280625 7:0 #
1000 1:0.125 2:0.125 3:0.125 4:0.125 5:0.75 6:0 7:0.1050075 #
-65.368184680349259 1:0.245 2:0.0049999999 3:0.0049999999 4:0.0049999999 5:0 6:0 7:0.02775125 #
-1000 1:0.31999999 2:0.215 3:0.31999999 4:0.31999999 5:0.75 6:0 7:0.189225 #
1000 1:0.81 2:0.75 3:0.69 4:0.63 5:1 6:0.22953124 7:0 #
-55.803332991166826 1:0.155 2:0.155 3:0.07 4:0.155 5:1 6:0 7:0.25628126 #
-1000 1:0.16500001 2:0.16500001 3:0.16500001 4:0.16500001 5:1 6:0 7:0.28109375 #
-994.79462007049187 1:0.98500001 2:0.90499997 3:0.84500003 4:0.72500002 5:0 6:0.28126249 7:0 #
-1000 1:0.16500001 2:0.16500001 3:0.16500001 4:0.16500001 5:1 6:0 7:0.28109375 #
1000 1:0.16500001 2:0.16500001 3:0.16500001 4:0.16500001 5:1 6:0 7:0.28109375 #
-1000 1:0.035 2:0.035 3:0.035 4:0.035 5:1 6:0 7:0.28109375 #
-1000 1:0.035 2:0.035 3:0.035 4:0.035 5:1 6:0 7:0.28109375 #
-1000 1:0.155 2:0.155 3:0.07 4:0.155 5:1 6:0 7:0.25628126 #
-1000 1:0.145 2:0.145 3:0.145 4:0.145 5:1 6:0 7:0.26251876 #
1000 1:0.035 2:0.035 3:0.035 4:0.035 5:0.75 6:0 7:0.1050075 #
1000 1:0.155 2:0.155 3:0.155 4:0.155 5:1 6:0 7:0.1150425 #
-1000 1:0.035 2:0.035 3:0.035 4:0.035 5:1 6:0 7:0.28109375 #
1000 1:0.31999999 2:0.255 3:0.31999999 4:0.31999999 5:0.75 6:0 7:0.36985001 #
-1000 1:0.23 2:0.175 3:0.23 4:0.23 5:1 6:0 7:0.20185469 #
1000 1:0.085000001 2:0.085000001 3:0.085000001 4:0.085000001 5:0.75 6:0 7:0.1050075 #
-1000 1:0.98500001 2:0.92500001 3:0.86500001 4:0.80500001 5:0.75 6:0.4070375 7:0 #
1000 1:0.31999999 2:0.255 3:0.31999999 4:0.31999999 5:0.75 6:0 7:0.36985001 #
1000 1:0.935 2:0.85500002 3:0.79500002 4:0.67500001 5:1 6:0.50560623 7:0 #
1000 1:0.93000001 2:0.85000002 3:0.79000002 4:0.67000002 5:1 6:0.50560623 7:0 #
1000 1:0.31999999 2:0.255 3:0.31999999 4:0.31999999 5:0.75 6:0 7:0.36985001 #
1000 1:0.13500001 2:0.13500001 3:0.13500001 4:0.13500001 5:1 6:0 7:0.1203425 #
655.54190185805101 1:0.31999999 2:0.255 3:0.015 4:0.31999999 5:0.75 6:0 7:0.54835624 #
-1000 1:0.31999999 2:0.215 3:0.31999999 4:0.31999999 5:0.75 6:0 7:0.17850626 #
-1000 1:0.155 2:0.155 3:0.07 4:0.155 5:1 6:0 7:0.25628126 #
-1000 1:0.155 2:0.155 3:0.07 4:0.155 5:1 6:0 7:0.25628126 #
1000 1:0.31999999 2:0.255 3:0.31999999 4:0.31999999 5:0.75 6:0 7:0.36985001 #
1000 1:0.075000003 2:0.075000003 3:0.075000003 4:0.075000003 5:0.75 6:0 7:0.1050075 #
-2.0496941954729664 1:0.37 2:0.13 3:0.22499999 4:0.37 5:1 6:0 7:0 #
-1000 1:0.145 2:0.145 3:0.145 4:0.145 5:1 6:0 7:0.26251876 #
1000 1:0.025 2:0.025 3:0.025 4:0.025 5:0.75 6:0 7:0.1050075 #
-1000 1:0.98500001 2:0.90499997 3:0.84500003 4:0.72500002 5:0 6:0.29646251 7:0 #
-1000 1:0.16500001 2:0.16500001 3:0.16500001 4:0.16500001 5:1 6:0 7:0.28109375 #
1000 1:0.31999999 2:0.255 3:0.015 4:0.31999999 5:0.75 6:0 7:0.54835624 #
1000 1:0.31999999 2:0.255 3:0.31999999 4:0.31999999 5:0.75 6:0 7:0.36985001 #
-1000 1:0.155 2:0.155 3:0.07 4:0.155 5:1 6:0 7:0.25628126 #
-1000 1:0.98000002 2:0.89999998 3:0.83999997 4:0.72000003 5:0 6:0.29646251 7:0 #
-1000 1:0.035 2:0.035 3:0.035 4:0.035 5:1 6:0 7:0.28109375 #
-1000 1:0.31999999 2:0.215 3:0.31999999 4:0.31999999 5:0.75 6:0 7:0.189225 #
1000 1:0.31999999 2:0.255 3:0.31999999 4:0.31999999 5:0.75 6:0 7:0.36985001 #
-1000 1:0.16500001 2:0.16500001 3:0.16500001 4:0.16500001 5:1 6:0 7:0.28109375 #
-1000 1:0.16500001 2:0.16500001 3:0.16500001 4:0.16500001 5:1 6:0 7:0.28109375 #
-1000 1:0.31999999 2:0.215 3:0.31999999 4:0.31999999 5:0.75 6:0 7:0.189225 #
1000 1:0 2:0 3:0 4:0 5:0 6:0 7:0.42531249 #
-1000 1:0.16500001 2:0.16500001 3:0.16500001 4:0.16500001 5:1 6:0 7:0.28109375 #
-1000 1:0.145 2:0.145 3:0.145 4:0.145 5:1 6:0 7:0.26251876 #
-1000 1:0.155 2:0.155 3:0.07 4:0.155 5:1 6:0 7:0.25628126 #
-676.28250678382028 1:0.245 2:0.0049999999 3:0.0049999999 4:0.13500001 5:0 6:0 7:0.02775125 #
-25.7019526021204 1:0.90499997 2:0.84500003 3:0.78500003 4:0.72500002 5:1 6:0.45050624 7:0 #
835.56445273897043 1:0.31999999 2:0.215 3:0.31999999 4:0.31999999 5:0.75 6:0 7:0.36985001 #
-1000 1:0.98500001 2:0.90499997 3:0.84500003 4:0.72500002 5:0 6:0.28881249 7:0 #
-1000 1:0.98000002 2:0.92000002 3:0.86000001 4:0.80000001 5:0.75 6:0.4070375 7:0 #
-74.413223172401558 1:0.37 2:0.13 3:0.22499999 4:0.36500001 5:1 6:0 7:0 #
-543.85881841959053 1:0.97500002 2:0.91500002 3:0.85500002 4:0.79500002 5:0.75 6:0.40153125 7:0 #
-0.16913090449133961 1:0.245 2:0.0049999999 3:0.0049999999 4:0.13500001 5:0 6:0 7:0.02775125 #
-0.008002122429161318 1:0.245 2:0.0049999999 3:0.0049999999 4:0.13500001 5:0 6:0 7:0.02775125 #
