SVM-light Version V6.02
0 # kernel type
3 # kernel parameter -d 
1 # kernel parameter -g 
1 # kernel parameter -s 
1 # kernel parameter -r 
empty# kernel parameter -u 
7 # highest feature index 
10225 # number of training documents 
956 # number of support vectors plus 1 
1.0003486 # threshold b, each following line is a SV (starting with alpha*y)
1000 1:0 2:0 3:0 4:0 5:0 6:0 7:0.046080001 #
1000 1:0.88499999 2:0.82499999 3:0.745 4:0.685 5:1 6:0 7:0.28683749 #
-1000 1:0.95499998 2:0.89499998 3:0.83499998 4:0.77499998 5:1 6:0.50921249 7:0 #
-1000 1:0.97500002 2:0.91500002 3:0.79500002 4:0.73500001 5:1 6:0.45311251 7:0 #
1000 1:0 2:0 3:0 4:0 5:0 6:0 7:0.15580125 #
-999.99920960867269 1:0.80000001 2:0.74000001 3:0.68000001 4:0.56 5:0.75 6:0 7:0.78301251 #
-1000 1:0 2:0 3:0 4:0 5:0 6:0 7:0.1326925 #
-1000 1:0 2:0 3:0 4:0 5:0 6:0 7:0.3704125 #
-1000 1:0.98500001 2:0.92500001 3:0.86500001 4:0.80500001 5:1 6:0 7:0 #
1000 1:0.91000003 2:0.85000002 3:0.79000002 4:0.73000002 5:1 6:0.6611625 7:0 #
-1000 1:0 2:0 3:0 4:0 5:0 6:0 7:0.030031251 #
-1000 1:0.96499997 2:0.90499997 3:0.84500003 4:0.78500003 5:1 6:0.52393126 7:0 #
1000 1:0 2:0 3:0 4:0 5:0 6:0 7:0.16054749 #
-1000 1:0.98500001 2:0.92500001 3:0.86500001 4:0.80500001 5:1 6:0.61704999 7:0 #
-1000 1:0.94 2:0.88 3:0.81999999 4:0.75999999 5:0 6:0.1885 7:0 #
-1000 1:0 2:0 3:0 4:0 5:0 6:0 7:0.16148876 #
1000 1:0 2:0 3:0 4:0 5:0 6:0 7:0.1566025 #
-1000 1:0 2:0 3:0 4:0 5:0 6:0 7:0.1689425 #
1000 1:0.98000002 2:0.92000002 3:0.83999997 4:0.77999997 5:0.75 6:0.65415627 7:0 #
1000 1:0.98500001 2:0.92500001 3:0.86500001 4:0.80500001 5:0.5 6:0.2080625 7:0 #
-1000 1:0.97000003 2:0.85000002 3:0.79000002 4:0.72500002 5:1 6:0.1089 7:0 #
-1000 1:0.015 2:0.015 3:0.015 4:0.015 5:1 6:0 7:0.13801876 #
1000 1:0 2:0 3:0 4:0 5:0 6:0 7:0.11593375 #
-1000 1:0.13500001 2:0.035 3:0.039999999 4:0.13500001 5:1 6:0 7:0.03160125 #
1000 1:0.115 2:0.085000001 3:0 4:0 5:0.75 6:0 7:0.43945625 #
-1000 1:0 2:0 3:0 4:0 5:0 6:0 7:0.044651251 #
1000 1:0.039999999 2:0.039999999 3:0.039999999 4:0.039999999 5:0 6:0 7:0.19293542 #
-1000 1:0.02 2:0.02 3:0.02 4:0.02 5:1 6:0 7:0.31789374 #
1000 1:0.285 2:0.285 3:0.285 4:0.285 5:1 6:0.21303125 7:0.1158375 #
-1000 1:0.98000002 2:0.92000002 3:0.86000001 4:0.80000001 5:1 6:0.60352498 7:0 #
-1000 1:0.98000002 2:0.92000002 3:0.80000001 4:0.74000001 5:1 6:0.45895624 7:0 #
1000 1:0.115 2:0.085000001 3:0 4:0 5:0.75 6:0 7:0.43945625 #
-1000 1:0.77999997 2:0.72000003 3:0.54000002 4:0.47999999 5:0.5 6:0 7:0.59416252 #
-1000 1:0.97000003 2:0.91000003 3:0.85000002 4:0.79000002 5:1 6:0 7:0 #
1000 1:0.115 2:0.085000001 3:0 4:0 5:0.75 6:0 7:0.43945625 #
-1000 1:0.63999999 2:0.51999998 3:0.28 4:0.039999999 5:1 6:0 7:0.076002084 #
-1000 1:0.085000001 2:0.085000001 3:0.085000001 4:0.085000001 5:1 6:0 7:0.29708126 #
1000 1:0.035 2:0 3:0 4:0 5:0 6:0 7:0.10695312 #
1000 1:0.91500002 2:0.85500002 3:0.79500002 4:0.73500001 5:1 6:0.42318124 7:0 #
-1000 1:0 2:0 3:0 4:0 5:0 6:0 7:0.028124999 #
-1000 1:0.98500001 2:0.92500001 3:0.80500001 4:0.745 5:1 6:0.47075626 7:0 #
1000 1:0.115 2:0.085000001 3:0 4:0 5:0.75 6:0 7:0.43945625 #
-1000 1:0.02 2:0 3:0 4:0 5:1 6:0 7:0.03741125 #
1000 1:0.93000001 2:0.75 3:0.69 4:0.63 5:0.5 6:0.1024 7:0 #
-1000 1:0 2:0 3:0 4:0 5:0 6:0 7:0.11512125 #
-1000 1:0.36500001 2:0.245 3:0 4:0 5:1 6:0 7:0.062352084 #
1000 1:0.93000001 2:0.75 3:0.69 4:0.63 5:0.5 6:0.17649999 7:0 #
1000 1:0.075000003 2:0.075000003 3:0.075000003 4:0.039999999 5:1 6:0 7:0.23887813 #
1000 1:0.055 2:0.055 3:0.055 4:0.055 5:1 6:0.0625 7:0.054639064 #
-1000 1:0 2:0 3:0 4:0 5:0 6:0 7:0.03081125 #
1000 1:0.93000001 2:0.87 3:0.81 4:0.75 5:0 6:0.14995626 7:0 #
1000 1:0 2:0 3:0 4:0 5:0 6:0 7:0.044651251 #
1000 1:0 2:0 3:0 4:0 5:0 6:0 7:0.11676125 #
1000 1:0.98500001 2:0.92500001 3:0.86500001 4:0.80500001 5:0.5 6:0 7:0 #
-1000 1:0 2:0 3:0 4:0 5:0 6:0 7:0.13552751 #
1000 1:0.115 2:0.085000001 3:0 4:0 5:0.75 6:0 7:0.43945625 #
1000 1:0.98500001 2:0.92500001 3:0.86500001 4:0.80500001 5:0.75 6:0.066306248 7:0 #
-1000 1:0.98500001 2:0.92500001 3:0.86500001 4:0.80500001 5:0.5 6:0.090000004 7:0 #
1000 1:0.115 2:0.085000001 3:0 4:0 5:0.75 6:0 7:0.43945625 #
1000 1:0.115 2:0.085000001 3:0 4:0 5:0.75 6:0 7:0.43945625 #
-1000 1:0.98000002 2:0.92000002 3:0.86000001 4:0.80000001 5:1 6:0.28821251 7:0 #
1000 1:0.80000001 2:0.74000001 3:0.68000001 4:0.62 5:1 6:0.22988126 7:0 #
1000 1:0.0099999998 2:0.0099999998 3:0.0099999998 4:0.0099999998 5:0.5 6:0 7:0.11676125 #
-1000 1:0.98500001 2:0.92500001 3:0.86500001 4:0.80500001 5:0.75 6:0.18705624 7:0 #
-1000 1:0 2:0 3:0 4:0 5:0 6:0 7:0.61243123 #
-1000 1:0.97500002 2:0.91500002 3:0.85500002 4:0.79500002 5:1 6:0.72246248 7:0 #
-1000 1:0.96499997 2:0.90499997 3:0.84500003 4:0.78500003 5:1 6:0.28444999 7:0 #
-1000 1:0.125 2:0.125 3:0.125 4:0.125 5:0.75 6:0 7:0.046764061 #
1000 1:0.81 2:0.75 3:0.69 4:0.63 5:1 6:0.23658125 7:0 #
-1000 1:0.91000003 2:0.85000002 3:0.79000002 4:0.73000002 5:1 6:0.27441251 7:0 #
-1000 1:0.46000001 2:0.46000001 3:0.46000001 4:0.34 5:0.75 6:0 7:0 #
1000 1:0.95999998 2:0.88 3:0.81999999 4:0.69999999 5:1 6:0.47868124 7:0 #
-1000 1:0.98500001 2:0.92500001 3:0.86500001 4:0.80500001 5:1 6:0.2545 7:0 #
-1000 1:0.0049999999 2:0.0049999999 3:0.0049999999 4:0.0049999999 5:0.25 6:0 7:0.29360312 #
1000 1:0.93000001 2:0.87 3:0.81 4:0.75 5:1 6:0.060024999 7:0.057599999 #
1000 1:0.97000003 2:0.91000003 3:0.82999998 4:0.76999998 5:0.75 6:0.64718747 7:0 #
1000 1:0.059999999 2:0.059999999 3:0.059999999 4:0.059999999 5:1 6:0.074256249 7:0.05405625 #
1000 1:0.015 2:0.015 3:0.015 4:0.015 5:0.5 6:0 7:0.18348125 #
-1000 1:0.98500001 2:0.92500001 3:0.86500001 4:0.80500001 5:0.75 6:0.23522501 7:0 #
-1000 1:0.89499998 2:0.83499998 3:0.77499998 4:0.71499997 5:1 6:0.26965001 7:0 #
1000 1:0.98000002 2:0.92000002 3:0.86000001 4:0.74000001 5:0.75 6:0.21313125 7:0 #
1000 1:0.92000002 2:0.86000001 3:0.80000001 4:0.74000001 5:1 6:0.42318124 7:0 #
1000 1:0.98500001 2:0.92500001 3:0.86500001 4:0.745 5:0.75 6:0.21640626 7:0 #
-1000 1:0.95499998 2:0.89499998 3:0.83499998 4:0.77499998 5:1 6:0.28071249 7:0 #
-1000 1:0.0099999998 2:0.0099999998 3:0.0099999998 4:0.0099999998 5:1 6:0 7:0.048020002 #
-1000 1:0.98500001 2:0.92500001 3:0.80500001 4:0.745 5:1 6:0 7:0 #
1000 1:0 2:0 3:0 4:0 5:0 6:0 7:0.072612502 #
-1000 1:0.015 2:0.015 3:0.015 4:0.015 5:0.5 6:0 7:0.1095475 #
1000 1:0.87 2:0.81 3:0.75 4:0.69 5:1 6:0.32855624 7:0 #
1000 1:0.78500003 2:0.72500002 3:0.60500002 4:0.54500002 5:1 6:0.1713125 7:0 #
1000 1:0.115 2:0.085000001 3:0 4:0 5:0.75 6:0 7:0.43945625 #
-1000 1:0.094999999 2:0.094999999 3:0.075000003 4:0.094999999 5:1 6:0 7:0 #
-1000 1:0.815 2:0.755 3:0.63499999 4:0.57499999 5:0 6:0 7:0.12988751 #
1000 1:0.02 2:0.02 3:0.02 4:0.02 5:0.5 6:0 7:0.11676125 #
1000 1:0.83999997 2:0.77999997 3:0.66000003 4:0.60000002 5:1 6:0.20018125 7:0 #
-1000 1:0.98500001 2:0.92500001 3:0.86500001 4:0.80500001 5:0.75 6:0.13505626 7:0 #
-1000 1:0.16500001 2:0.145 3:0.025 4:0.16500001 5:1 6:0 7:0 #
-1000 1:0.94999999 2:0.88999999 3:0.82999998 4:0.76999998 5:1 6:0.29095626 7:0 #
1000 1:0.19 2:0.19 3:0.19 4:0.19 5:0 6:0 7:0.18759374 #
1000 1:0.059999999 2:0.059999999 3:0.059999999 4:0.059999999 5:0 6:0 7:0.19293542 #
-1000 1:0.98500001 2:0.92500001 3:0.86500001 4:0.745 5:0.75 6:0.12780625 7:0 #
-1000 1:0.98500001 2:0.92500001 3:0.80500001 4:0.745 5:1 6:0.13322499 7:0 #
1000 1:0.93000001 2:0.75 3:0.69 4:0.63 5:0.5 6:0.10725625 7:0 #
-975.97059544789954 1:0.15000001 2:0 3:0 4:0 5:0 6:0 7:0.02592 #
1000 1:0.025 2:0.025 3:0.025 4:0.025 5:0.5 6:0 7:0.14879219 #
-1000 1:0.95499998 2:0.89499998 3:0.83499998 4:0.77499998 5:1 6:0.29863125 7:0 #
1000 1:0.94 2:0.88 3:0.80000001 4:0.74000001 5:0.75 6:0.085556246 7:0 #
-1000 1:0 2:0 3:0 4:0 5:0 6:0 7:0.61243123 #
-1000 1:0.075000003 2:0.075000003 3:0.075000003 4:0.075000003 5:0.5 6:0 7:0.20035625 #
-1000 1:0.02 2:0.02 3:0.02 4:0.02 5:0.75 6:0 7:0.11228281 #
-1000 1:0.98000002 2:0.92000002 3:0.86000001 4:0.80000001 5:0.5 6:0.11055625 7:0 #
-789.71790219452726 1:0.40000001 2:0.28 3:0.039999999 4:0 5:0 6:0 7:0.082152501 #
-1000 1:0.98000002 2:0.92000002 3:0.83999997 4:0.77999997 5:0.75 6:0.65415627 7:0 #
-618.12506888576763 1:0.20999999 2:0 3:0 4:0 5:0 6:0 7:0.076049998 #
-1000 1:0.0049999999 2:0.0049999999 3:0.0049999999 4:0.0049999999 5:0.75 6:0 7:0.18888958 #
-1000 1:0.95999998 2:0.89999998 3:0.83999997 4:0.77999997 5:1 6:0.28071249 7:0 #
1000 1:0.94499999 2:0.88499999 3:0.82499999 4:0.76499999 5:0.5 6:0.1711625 7:0 #
-1000 1:0.935 2:0.875 3:0.815 4:0.755 5:1 6:0.27331251 7:0 #
-1000 1:0.0099999998 2:0.0099999998 3:0.0099999998 4:0.0099999998 5:0.75 6:0 7:0.071762502 #
-1000 1:0 2:0 3:0 4:0 5:0 6:0 7:0.4210625 #
1000 1:0.98000002 2:0.92000002 3:0.86000001 4:0.80000001 5:0.5 6:0.20485 7:0 #
1000 1:0.97500002 2:0.91500002 3:0.85500002 4:0.79500002 5:0.5 6:0.19850001 7:0 #
1000 1:0.050000001 2:0.050000001 3:0.050000001 4:0.050000001 5:0.5 6:0 7:0.11676125 #
1000 1:0.97500002 2:0.91500002 3:0.85500002 4:0.73500001 5:0.75 6:0.20665625 7:0 #
1000 1:0.93000001 2:0.75 3:0.69 4:0.63 5:0.5 6:0.105625 7:0 #
1000 1:0.82999998 2:0.76999998 3:0.64999998 4:0.58999997 5:1 6:0.19703124 7:0 #
-1000 1:0.055 2:0.055 3:0.055 4:0.055 5:1 6:0 7:0.10927813 #
-1000 1:0.98500001 2:0.92500001 3:0.86500001 4:0.80500001 5:0.75 6:0.23765625 7:0 #
1000 1:0.93000001 2:0.75 3:0.69 4:0.63 5:0.5 6:0.1024 7:0 #
-1000 1:0.14 2:0.14 3:0.085000001 4:0 5:1 6:0 7:0 #
1000 1:0.93000001 2:0.75 3:0.69 4:0.63 5:0.5 6:0.10400625 7:0 #
-1000 1:0.41999999 2:0.41999999 3:0.41999999 4:0.30000001 5:0.75 6:0 7:0 #
-1000 1:0.115 2:0.085000001 3:0 4:0 5:0.75 6:0 7:0.43945625 #
-1000 1:0.0099999998 2:0.0099999998 3:0.0099999998 4:0.0099999998 5:0.75 6:0 7:0.071762502 #
1000 1:0.93000001 2:0.87 3:0.81 4:0.75 5:0.5 6:0.1513 7:0 #
1000 1:0.94999999 2:0.87 3:0.81 4:0.69 5:1 6:0.46961251 7:0 #
-1000 1:0.97500002 2:0.91500002 3:0.85500002 4:0.79500002 5:1 6:0.28821251 7:0 #
-1000 1:0.98000002 2:0.92000002 3:0.86000001 4:0.80000001 5:1 6:0.73096251 7:0 #
1000 1:0.93000001 2:0.87 3:0.81 4:0.75 5:0.5 6:0.14856251 7:0 #
1000 1:0.81999999 2:0.75999999 3:0.63999999 4:0.57999998 5:1 6:0.19390625 7:0 #
1000 1:0.96499997 2:0.90499997 3:0.84500003 4:0.78500003 5:0.5 6:0.18916249 7:0 #
-1000 1:0.93000001 2:0.87 3:0.81 4:0.75 5:1 6:0.26965001 7:0 #
-1000 1:0.44 2:0.44 3:0.30500001 4:0.185 5:1 6:0 7:0 #
-1000 1:0.36500001 2:0.36500001 3:0.36500001 4:0.30000001 5:0.5 6:0 7:0 #
-510.02011398342324 1:0.93000001 2:0.87 3:0.81 4:0.69 5:1 6:0 7:0 #
-1000 1:0.41 2:0.35499999 3:0.235 4:0.115 5:1 6:0 7:0 #
1000 1:0.84500003 2:0.78500003 3:0.66500002 4:0.60500002 5:1 6:0.20335625 7:0 #
-1000 1:0.91500002 2:0.85500002 3:0.79500002 4:0.73500001 5:1 6:0.25408125 7:0 #
1000 1:0.80500001 2:0.745 3:0.685 4:0.625 5:1 6:0.23328125 7:0 #
1000 1:0.050000001 2:0.050000001 3:0.050000001 4:0.050000001 5:0 6:0 7:0.19293542 #
-1000 1:0 2:0 3:0 4:0 5:0 6:0 7:0.4210625 #
1000 1:0.83499998 2:0.77499998 3:0.65499997 4:0.59500003 5:1 6:0.24243125 7:0 #
-1000 1:0 2:0 3:0 4:0 5:0 6:0 7:0.4210625 #
1000 1:0.93000001 2:0.87 3:0.81 4:0.75 5:0.5 6:0.14585 7:0 #
-1000 1:0.93000001 2:0.87 3:0.81 4:0.75 5:1 6:0.25165626 7:0 #
-1000 1:0.93000001 2:0.87 3:0.81 4:0.75 5:1 6:0.7567625 7:0 #
1000 1:0.93000001 2:0.75 3:0.69 4:0.63 5:0.5 6:0.10400625 7:0 #
1000 1:0.85000002 2:0.79000002 3:0.67000002 4:0.61000001 5:1 6:0.20358124 7:0 #
1000 1:0.07 2:0.07 3:0.07 4:0.07 5:0 6:0 7:0.19293542 #
-1000 1:0.93000001 2:0.87 3:0.75 4:0.69 5:0.75 6:0 7:0 #
-1000 1:0.98500001 2:0.92500001 3:0.86500001 4:0.745 5:0.75 6:0.14822499 7:0 #
-1000 1:0.92500001 2:0.86500001 3:0.80500001 4:0.745 5:1 6:0.26488125 7:0 #
1000 1:0.115 2:0.085000001 3:0 4:0 5:0.75 6:0 7:0.43945625 #
-1000 1:0.094999999 2:0.094999999 3:0.094999999 4:0.094999999 5:0.5 6:0 7:0.19002292 #
1000 1:0.075000003 2:0.075000003 3:0.075000003 4:0.075000003 5:0.5 6:0 7:0.13116625 #
1000 1:0.815 2:0.755 3:0.63499999 4:0.57499999 5:1 6:0.19390625 7:0 #
1000 1:0.115 2:0.085000001 3:0 4:0 5:0.75 6:0 7:0.43945625 #
-1000 1:0.87 2:0.81 3:0.75 4:0.69 5:1 6:0.10400625 7:0 #
1000 1:0.029999999 2:0.029999999 3:0.029999999 4:0.029999999 5:0.5 6:0 7:0.11676125 #
1000 1:0.285 2:0.285 3:0.285 4:0.285 5:1 6:0.23305625 7:0.031064063 #
1000 1:0.82499999 2:0.76499999 3:0.64499998 4:0.58499998 5:1 6:0.19703124 7:0 #
1000 1:0.97000003 2:0.91000003 3:0.85000002 4:0.79000002 5:0.5 6:0.19536249 7:0 #
1000 1:0.0049999999 2:0.0049999999 3:0.0049999999 4:0.0049999999 5:0.5 6:0 7:0.19944374 #
1000 1:0.93000001 2:0.75 3:0.69 4:0.63 5:0.5 6:0.10725625 7:0 #
1000 1:0.93000001 2:0.87 3:0.81 4:0.75 5:0.5 6:0.1431625 7:0 #
1000 1:0.035 2:0.035 3:0.035 4:0.035 5:0.5 6:0 7:0.14879219 #
-1000 1:0.96499997 2:0.90499997 3:0.84500003 4:0.78500003 5:1 6:0.2628125 7:0 #
-1000 1:0.94 2:0.88 3:0.81999999 4:0.75999999 5:1 6:0.27963126 7:0 #
1000 1:0.07 2:0.07 3:0.07 4:0.07 5:1 6:0.18062501 7:0.052900001 #
1000 1:0.95499998 2:0.875 3:0.815 4:0.69499999 5:1 6:0.4727625 7:0 #
1000 1:0.059999999 2:0.059999999 3:0.059999999 4:0.059999999 5:1 6:0.17850626 7:0.05405625 #
-1000 1:0 2:0 3:0 4:0 5:0 6:0 7:0.4210625 #
1000 1:0 2:0 3:0 4:0 5:0 6:0 7:0.11593375 #
1000 1:0.86500001 2:0.80500001 3:0.745 4:0.685 5:1 6:0.32855624 7:0 #
1000 1:0.93000001 2:0.87 3:0.81 4:0.75 5:0.5 6:0.15406249 7:0 #
-1000 1:0.94499999 2:0.88499999 3:0.82499999 4:0.76499999 5:1 6:0.28715625 7:0 #
-1000 1:0 2:0 3:0 4:0 5:0 6:0 7:0.4210625 #
1000 1:0.115 2:0.085000001 3:0 4:0 5:0.75 6:0 7:0.43945625 #
1000 1:0.19 2:0.19 3:0.19 4:0.19 5:1 6:0.18062501 7:0.039999999 #
1000 1:0.83499998 2:0.77499998 3:0.65499997 4:0.59500003 5:1 6:0.20018125 7:0 #
1000 1:0.115 2:0.085000001 3:0 4:0 5:0.75 6:0 7:0.43945625 #
-1000 1:0.98500001 2:0.92500001 3:0.86500001 4:0.80500001 5:0.5 6:0.112225 7:0 #
-1000 1:0.0049999999 2:0.0049999999 3:0.0049999999 4:0.0049999999 5:0.75 6:0 7:0.079218753 #
1000 1:0.059999999 2:0.059999999 3:0.059999999 4:0.059999999 5:0.5 6:0 7:0.12837625 #
-1000 1:0.97000003 2:0.91000003 3:0.85000002 4:0.79000002 5:1 6:0.28444999 7:0 #
1000 1:0.13 2:0.13 3:0.13 4:0.13 5:1 6:0.065025002 7:0.07522656 #
-1000 1:0.22 2:0.22 3:0.22 4:0.22 5:0.75 6:0 7:0.037056249 #
1000 1:0.95999998 2:0.89999998 3:0.83999997 4:0.77999997 5:0.5 6:0.18610001 7:0 #
1000 1:0.95499998 2:0.89499998 3:0.83499998 4:0.77499998 5:0.5 6:0.18005 7:0 #
-1000 1:0.98500001 2:0.92500001 3:0.86500001 4:0.80500001 5:0.75 6:0.21855626 7:0 #
-1000 1:0.98500001 2:0.92500001 3:0.86500001 4:0.80500001 5:0.5 6:0 7:0 #
1000 1:0.039999999 2:0.039999999 3:0.039999999 4:0.039999999 5:0.5 6:0 7:0.11676125 #
-999.59117797388899 1:0.23999999 2:0 3:0 4:0 5:0 6:0 7:0.028124999 #
-1000 1:0.93000001 2:0.87 3:0.81 4:0.75 5:1 6:0.26853126 7:0 #
-1000 1:0.255 2:0.255 3:0.155 4:0.255 5:1 6:0 7:0.027011249 #
-1000 1:0.935 2:0.875 3:0.815 4:0.755 5:1 6:0.27590626 7:0 #
-1000 1:0.23999999 2:0.23999999 3:0.23999999 4:0.23999999 5:0.5 6:0 7:0.028124999 #
1000 1:0.059999999 2:0.059999999 3:0.059999999 4:0.059999999 5:0.5 6:0 7:0.11676125 #
-1000 1:0.91500002 2:0.85500002 3:0.79500002 4:0.73500001 5:1 6:0.2818625 7:0 #
1000 1:0.19499999 2:0.19499999 3:0.19499999 4:0.19499999 5:0.75 6:0.070225 7:0.039501563 #
-1000 1:0.94 2:0.88 3:0.81999999 4:0.75999999 5:1 6:0.29275626 7:0 #
1000 1:0.81 2:0.75 3:0.69 4:0.63 5:1 6:0.24015625 7:0 #
-1000 1:0.935 2:0.875 3:0.815 4:0.755 5:1 6:0.28826249 7:0 #
-1000 1:0.064999998 2:0.064999998 3:0.064999998 4:0.064999998 5:0.75 6:0 7:0.12200208 #
1000 1:0.94 2:0.88 3:0.81999999 4:0.75999999 5:0.5 6:0.16824999 7:0 #
1000 1:0.055 2:0.055 3:0.055 4:0.055 5:1 6:0 7:0.1191925 #
1000 1:0.75999999 2:0.69999999 3:0.63999999 4:0.57999998 5:1 6:0.18195 7:0 #
-1000 1:0.125 2:0.125 3:0.125 4:0.125 5:0.5 6:0 7:0.062352084 #
1000 1:0.93000001 2:0.87 3:0.81 4:0.75 5:0.5 6:0.1741 7:0 #
-1000 1:0.97000003 2:0.91000003 3:0.85000002 4:0.79000002 5:1 6:0.58351874 7:0 #
1000 1:0.0099999998 2:0.0099999998 3:0.0099999998 4:0.0099999998 5:0.75 6:0 7:0.20415834 #
-1000 1:0.0049999999 2:0.0049999999 3:0.0049999999 4:0.0049999999 5:0 6:0 7:0.27515626 #
-1000 1:0.98000002 2:0.86000001 3:0.80000001 4:0.73500001 5:0.75 6:0.2401 7:0 #
1000 1:0.105 2:0.105 3:0.105 4:0.105 5:0.5 6:0 7:0.19575313 #
1000 1:0.935 2:0.875 3:0.815 4:0.755 5:0.5 6:0 7:0 #
-1000 1:0.98000002 2:0.92000002 3:0.86000001 4:0.80000001 5:0.75 6:0.39420626 7:0 #
-1000 1:0.23 2:0.23 3:0 4:0 5:1 6:0 7:0.12413542 #
1000 1:0.96499997 2:0.90499997 3:0.84500003 4:0.72500002 5:0.75 6:0.19713125 7:0 #
-1000 1:0.015 2:0.015 3:0.015 4:0.015 5:0.5 6:0 7:0.15552813 #
1000 1:0.95999998 2:0.89999998 3:0.81999999 4:0.75999999 5:0.75 6:0.64025623 7:0 #
1000 1:0.059999999 2:0.059999999 3:0.059999999 4:0.059999999 5:1 6:0 7:0.081090003 #
1000 1:0.85000002 2:0.79000002 3:0.67000002 4:0.61000001 5:1 6:0.2583375 7:0 #
-1000 1:0.12 2:0.12 3:0.12 4:0.12 5:0.25 6:0 7:0.13145626 #
1000 1:0.97500002 2:0.91500002 3:0.85500002 4:0.79500002 5:0.5 6:0 7:0 #
-1000 1:0.0099999998 2:0.0099999998 3:0.0099999998 4:0.0099999998 5:0.75 6:0 7:0.12144125 #
-1000 1:0.14 2:0.14 3:0.14 4:0 5:0 6:0 7:0.060208332 #
-1000 1:0.93000001 2:0.87 3:0.81 4:0.75 5:0.5 6:0.071556248 7:0 #
-1000 1:0.92500001 2:0.86500001 3:0.80500001 4:0.745 5:0.5 6:0.12075625 7:0 #
1000 1:0.94999999 2:0.88999999 3:0.82999998 4:0.76999998 5:0.5 6:0.1770625 7:0 #
1000 1:0.81 2:0.75 3:0.63 4:0.56999999 5:1 6:0.10080625 7:0 #
1000 1:0.035 2:0.035 3:0.035 4:0.035 5:0.75 6:0 7:0.20192292 #
1000 1:0.145 2:0.145 3:0.145 4:0.145 5:1 6:0 7:0.084212497 #
-1000 1:0.98500001 2:0.92500001 3:0.80500001 4:0.745 5:1 6:0.15602501 7:0 #
-1000 1:0.93000001 2:0.87 3:0.75 4:0.69 5:0.75 6:0.096100003 7:0 #
1000 1:0.12 2:0.12 3:0.12 4:0.12 5:1 6:0.066306248 7:0.077107809 #
1000 1:0.85000002 2:0.79000002 3:0.73000002 4:0.61000001 5:1 6:0.1518625 7:0 #
1000 1:0.93000001 2:0.87 3:0.81 4:0.75 5:0.5 6:0.1596625 7:0 #
-1000 1:0.95499998 2:0.83499998 3:0.77499998 4:0.70999998 5:0.75 6:0.12780625 7:0 #
1000 1:0.93000001 2:0.87 3:0.81 4:0.75 5:0.5 6:0.1770625 7:0 #
1000 1:0.82999998 2:0.76999998 3:0.70999998 4:0.64999998 5:1 6:0.30900624 7:0 #
-1000 1:0.0049999999 2:0.0049999999 3:0.0049999999 4:0.0049999999 5:0.75 6:0 7:0.21117812 #
-1000 1:0.22 2:0.22 3:0.125 4:0.22 5:1 6:0 7:0.058525 #
1000 1:0.85000002 2:0.79000002 3:0.67000002 4:0.61000001 5:1 6:0.11055625 7:0 #
1000 1:0.085000001 2:0.039999999 3:0.039999999 4:0.085000001 5:1 6:0 7:0.10759531 #
-1000 1:0.98000002 2:0.92000002 3:0.86000001 4:0.74000001 5:1 6:0.12780625 7:0 #
-1000 1:0.98000002 2:0.92000002 3:0.86000001 4:0.74000001 5:0.75 6:0.14822499 7:0 #
1000 1:0.029999999 2:0.029999999 3:0.029999999 4:0.029999999 5:0.75 6:0 7:0.20415834 #
-1000 1:0.92500001 2:0.86500001 3:0.80500001 4:0.745 5:1 6:0.45515624 7:0 #
1000 1:0.98000002 2:0.92000002 3:0.83999997 4:0.77999997 5:0.75 6:0.10400625 7:0 #
-1000 1:0.090000004 2:0.090000004 3:0.090000004 4:0.090000004 5:0.5 6:0 7:0.098476559 #
-1000 1:0.07 2:0.07 3:0.07 4:0.07 5:0.5 6:0 7:0.1058 #
-1000 1:0.33000001 2:0.27000001 3:0.255 4:0.33000001 5:1 6:0 7:0.075208336 #
1000 1:0.80000001 2:0.74000001 3:0.62 4:0.56 5:1 6:0.18625 7:0 #
1000 1:0.0049999999 2:0.0049999999 3:0.0049999999 4:0.0049999999 5:0.75 6:0 7:0.20192292 #
-1000 1:0.94999999 2:0.82999998 3:0.76999998 4:0.70499998 5:0.75 6:0.12602501 7:0 #
-1000 1:0.0099999998 2:0.0099999998 3:0.0099999998 4:0.0099999998 5:0.75 6:0 7:0.1263825 #
-1000 1:0.0099999998 2:0.0099999998 3:0.0099999998 4:0.0099999998 5:0.75 6:0 7:0.1263825 #
-1000 1:0.035 2:0.035 3:0.035 4:0.035 5:0.5 6:0 7:0.18153125 #
1000 1:0.039999999 2:0.039999999 3:0.039999999 4:0.039999999 5:0.75 6:0 7:0.20415834 #
-1000 1:0.94999999 2:0.88999999 3:0.82999998 4:0.76999998 5:0.25 6:0.37 7:0 #
1000 1:0.045000002 2:0.045000002 3:0.045000002 4:0.045000002 5:0.75 6:0 7:0.20192292 #
-1000 1:0.96499997 2:0.90499997 3:0.84500003 4:0.78500003 5:0.75 6:0.22570001 7:0 #
-1000 1:0.96499997 2:0.90499997 3:0.84500003 4:0.76499999 5:0.75 6:0.26304999 7:0 #
-1000 1:0.98500001 2:0.86500001 3:0.80500001 4:0.74000001 5:0.75 6:0.172225 7:0 #
1000 1:0.94499999 2:0.88499999 3:0.82499999 4:0.70499998 5:0.75 6:0.17875625 7:0 #
1000 1:0.93000001 2:0.87 3:0.75 4:0.69 5:1 6:0.21313125 7:0 #
-1000 1:0 2:0 3:0 4:0 5:0 6:0 7:0.61243123 #
1000 1:0.93000001 2:0.87 3:0.81 4:0.75 5:0.5 6:0.16824999 7:0 #
-1000 1:0.97500002 2:0.91500002 3:0.85500002 4:0.79500002 5:0.75 6:0.34744999 7:0 #
-1000 1:0.43000001 2:0.43000001 3:0.375 4:0.255 5:1 6:0 7:0 #
-1000 1:0.98500001 2:0.92500001 3:0.86500001 4:0.80500001 5:0.75 6:0 7:0 #
1000 1:0.93000001 2:0.87 3:0.81 4:0.75 5:0.5 6:0.15685 7:0 #
1000 1:0.93000001 2:0.87 3:0.81 4:0.75 5:0.5 6:0.16536251 7:0 #
1000 1:0.11 2:0.11 3:0.11 4:0.11 5:1 6:0.067599997 7:0.079014063 #
1000 1:0.96499997 2:0.90499997 3:0.84500003 4:0.78500003 5:0.25 6:0.17425001 7:0 #
-1000 1:0.87 2:0.81 3:0.75 4:0.69 5:0.75 6:0.31020626 7:0 #
1000 1:0.07 2:0.07 3:0.07 4:0.07 5:0.75 6:0 7:0.14595157 #
1000 1:0.155 2:0.155 3:0.155 4:0.155 5:0.5 6:0.0625 7:0.034861252 #
1000 1:0.935 2:0.875 3:0.815 4:0.755 5:0.5 6:0.16249999 7:0 #
-1000 1:0.015 2:0.015 3:0.015 4:0.015 5:0.25 6:0 7:0.16226751 #
-1000 1:0.94499999 2:0.88499999 3:0.82499999 4:0.745 5:0.5 6:0.27556249 7:0.057599999 #
-1000 1:0.97500002 2:0.91500002 3:0.85500002 4:0.79500002 5:0.5 6:0.085556246 7:0 #
1000 1:0.94 2:0.88 3:0.81999999 4:0.75999999 5:0.5 6:0 7:0 #
1000 1:0.96499997 2:0.88499999 3:0.82499999 4:0.70499998 5:1 6:0.48190624 7:0 #
1000 1:0.98000002 2:0.92000002 3:0.86000001 4:0.80000001 5:0.75 6:0.065025002 7:0 #
1000 1:0.02 2:0.02 3:0.02 4:0.02 5:0.75 6:0 7:0.20415834 #
-1000 1:0.13500001 2:0.035 3:0.13500001 4:0.13500001 5:1 6:0 7:0 #
1000 1:0.015 2:0.015 3:0.015 4:0.015 5:0.5 6:0 7:0.25211251 #
1000 1:0.93000001 2:0.87 3:0.81 4:0.75 5:0.5 6:0.1711625 7:0 #
-1000 1:0.0099999998 2:0.0099999998 3:0.0099999998 4:0.0099999998 5:0.75 6:0 7:0.10331125 #
-1000 1:0.98000002 2:0.92000002 3:0.86000001 4:0.80000001 5:0.5 6:0.087025002 7:0 #
-1000 1:0.029999999 2:0.029999999 3:0.029999999 4:0.029999999 5:0.75 6:0.18062501 7:0.1152 #
-1000 1:0.115 2:0.115 3:0.115 4:0.115 5:0.5 6:0 7:0.090390623 #
-1000 1:0.89499998 2:0.83499998 3:0.77499998 4:0.71499997 5:0.5 6:0.105625 7:0.041861251 #
1000 1:0.015 2:0.015 3:0.015 4:0.015 5:0.75 6:0 7:0.20192292 #
1000 1:0.93000001 2:0.87 3:0.81 4:0.75 5:0.5 6:0.18005 7:0 #
-1000 1:0.98000002 2:0.92000002 3:0.86000001 4:0.80000001 5:0.75 6:0.29348126 7:0 #
-1000 1:0.93000001 2:0.81 3:0.75 4:0.685 5:0.75 6:0.1156 7:0 #
-1000 1:0.98500001 2:0.92500001 3:0.86500001 4:0.80500001 5:1 6:0.292 7:0 #
-1000 1:0.18000001 2:0.18000001 3:0.18000001 4:0.18000001 5:1 6:0 7:0.041006248 #
1000 1:0.93000001 2:0.87 3:0.81 4:0.75 5:0.5 6:0.16249999 7:0 #
-1000 1:0.98500001 2:0.92500001 3:0.86500001 4:0.80500001 5:0.5 6:0.27856249 7:0 #
-1000 1:0.18000001 2:0.18000001 3:0.18000001 4:0.13 5:0.5 6:0 7:0.087966248 #
1000 1:0.93000001 2:0.87 3:0.81 4:0.75 5:0.5 6:0.18306249 7:0 #
-1000 1:0.97000003 2:0.91000003 3:0.85000002 4:0.79000002 5:0.5 6:0.082656249 7:0 #
-1000 1:0.0099999998 2:0.0099999998 3:0.0099999998 4:0.0099999998 5:0.75 6:0 7:0.1263825 #
-1000 1:0.97000003 2:0.91000003 3:0.85000002 4:0.79000002 5:0.75 6:0.2289625 7:0 #
-1000 1:0.73000002 2:0.67000002 3:0.55000001 4:0.49000001 5:1 6:0.24255624 7:0 #
-1000 1:0.98000002 2:0.92000002 3:0.80000001 4:0.74000001 5:0.75 6:0.12602501 7:0 #
1000 1:0.935 2:0.875 3:0.815 4:0.755 5:0.75 6:0.10725625 7:0 #
1000 1:0.96499997 2:0.90499997 3:0.84500003 4:0.78500003 5:0.5 6:0 7:0 #
1000 1:0.85500002 2:0.79500002 3:0.73500001 4:0.67500001 5:1 6:0.32361251 7:0 #
1000 1:0.1 2:0.1 3:0.1 4:0.1 5:1 6:0.068906248 7:0.080945313 #
1000 1:0.79500002 2:0.73500001 3:0.61500001 4:0.55500001 5:1 6:0.1802 7:0 #
-1000 1:0.19499999 2:0.19499999 3:0.079999998 4:0.19499999 5:1 6:0 7:0.1095475 #
-1000 1:0.93000001 2:0.87 3:0.81 4:0.75 5:0.75 6:0.29249999 7:0 #
-1000 1:0.96499997 2:0.90499997 3:0.84500003 4:0.78500003 5:1 6:0.69726253 7:0 #
-1000 1:0.059999999 2:0.059999999 3:0.059999999 4:0.059999999 5:0.5 6:0 7:0.1233575 #
1000 1:0.94 2:0.88 3:0.81999999 4:0.75999999 5:0.75 6:0.1089 7:0 #
-1000 1:0.95999998 2:0.89999998 3:0.83999997 4:0.77999997 5:0.75 6:0.22570001 7:0 #
1000 1:0.059999999 2:0.059999999 3:0.059999999 4:0.059999999 5:1 6:0 7:0.073546253 #
-1000 1:0.035 2:0.035 3:0.035 4:0.035 5:0.5 6:0 7:0.18153125 #
1000 1:0.14 2:0.14 3:0.14 4:0.14 5:1 6:0.06375625 7:0.055814061 #
-1000 1:0.22 2:0.18000001 3:0.0099999998 4:0 5:1 6:0 7:0.077602081 #
1000 1:0.079999998 2:0.079999998 3:0.079999998 4:0.079999998 5:1 6:0.18275625 7:0.051756252 #
-1000 1:0.98000002 2:0.92000002 3:0.80000001 4:0.74000001 5:1 6:0.099225 7:0 #
1000 1:0.82999998 2:0.76999998 3:0.64999998 4:0.58999997 5:1 6:0.2382125 7:0 #
1000 1:0.97500002 2:0.91500002 3:0.83499998 4:0.77499998 5:0.75 6:0.65415627 7:0 #
-1000 1:0.98500001 2:0.86500001 3:0.80500001 4:0.74000001 5:1 6:0.112225 7:0 #
-1000 1:0.23999999 2:0.23999999 3:0.23999999 4:0 5:0.75 6:0 7:0 #
1000 1:0.085000001 2:0.085000001 3:0.085000001 4:0.050000001 5:1 6:0 7:0.23401563 #
-1000 1:0.20999999 2:0.20999999 3:0.20999999 4:0.13500001 5:0.75 6:0 7:0 #
1000 1:0.93000001 2:0.87 3:0.81 4:0.75 5:0.5 6:0.1378625 7:0 #
1000 1:0.16500001 2:0.16500001 3:0.16500001 4:0.16500001 5:0.5 6:0.06375625 7:0.03403125 #
-1000 1:0.935 2:0.875 3:0.815 4:0.755 5:0.25 6:0.1849 7:0 #
1000 1:0.090000004 2:0.090000004 3:0.090000004 4:0.090000004 5:0.25 6:0 7:0.11576125 #
-1000 1:0.44 2:0.44 3:0.44 4:0.44 5:0.75 6:0 7:0 #
1000 1:0.064999998 2:0.064999998 3:0.064999998 4:0.064999998 5:1 6:0.061256249 7:0.053476561 #
-1000 1:0.98500001 2:0.86500001 3:0.80500001 4:0.74000001 5:1 6:0.1089 7:0 #
1000 1:0.93000001 2:0.75 3:0.69 4:0.63 5:0.5 6:0.11055625 7:0 #
-1000 1:0.98500001 2:0.86500001 3:0.80500001 4:0.74000001 5:0.75 6:0.2401 7:0 #
1000 1:0.93000001 2:0.75 3:0.69 4:0.63 5:0.5 6:0.11390625 7:0 #
1000 1:0.95999998 2:0.89999998 3:0.81999999 4:0.75999999 5:0.75 6:0.09455625 7:0 #
1000 1:0.13 2:0.13 3:0.13 4:0.13 5:0.75 6:0 7:0.18908438 #
1000 1:0.94999999 2:0.88999999 3:0.81 4:0.75 5:0.75 6:0.63336247 7:0 #
1000 1:0.93000001 2:0.87 3:0.81 4:0.75 5:0.5 6:0.14049999 7:0 #
1000 1:0.07 2:0.07 3:0.07 4:0.07 5:1 6:0 7:0.36164999 #
-1000 1:0.42500001 2:0.42500001 3:0.42500001 4:0.42500001 5:0.5 6:0 7:0.13839249 #
1000 1:0.055 2:0.055 3:0.055 4:0.055 5:1 6:0 7:0.1245925 #
-1000 1:0.215 2:0.094999999 3:0.215 4:0.035 5:1 6:0 7:0 #
-1000 1:0.98500001 2:0.92500001 3:0.86500001 4:0.80500001 5:0.75 6:0.55408126 7:0 #
-1000 1:0.90499997 2:0.84500003 3:0.78500003 4:0.72500002 5:0.75 6:0.1089 7:0 #
1000 1:0.11 2:0.11 3:0.11 4:0.11 5:1 6:0 7:0.11426625 #
1000 1:0.155 2:0.155 3:0.155 4:0.155 5:1 6:0 7:0.082392499 #
1000 1:0.93000001 2:0.87 3:0.81 4:0.75 5:0.5 6:0.1387625 7:0 #
1000 1:0 2:0 3:0 4:0 5:0 6:0 7:0.079671249 #
1000 1:0.87 2:0.81 3:0.73000002 4:0.67000002 5:1 6:0.0484 7:0.055814061 #
1000 1:0.93000001 2:0.81 3:0.75 4:0.69 5:1 6:0.1089 7:0 #
1000 1:0.95499998 2:0.89499998 3:0.815 4:0.755 5:0.75 6:0.64025623 7:0 #
1000 1:0.079999998 2:0.079999998 3:0.079999998 4:0.079999998 5:0 6:0 7:0.19293542 #
1000 1:0.98500001 2:0.92500001 3:0.86500001 4:0.80500001 5:0.75 6:0.096100003 7:0 #
-1000 1:0.18000001 2:0.18000001 3:0.18000001 4:0.18000001 5:1 6:0 7:0.041006248 #
1000 1:0.94999999 2:0.88999999 3:0.82999998 4:0.76999998 5:0.5 6:0 7:0 #
-1000 1:0.98500001 2:0.92500001 3:0.86500001 4:0.80500001 5:0.75 6:0 7:0 #
1000 1:0.85000002 2:0.79000002 3:0.73000002 4:0.67000002 5:1 6:0.31870624 7:0 #
-1000 1:0.36500001 2:0.36500001 3:0.36500001 4:0.30000001 5:0.5 6:0 7:0 #
1000 1:0.93000001 2:0.87 3:0.81 4:0.75 5:1 6:0 7:0 #
1000 1:0.89499998 2:0.83499998 3:0.755 4:0.69499999 5:1 6:0 7:0.28683749 #
-1000 1:0 2:0 3:0 4:0 5:0 6:0 7:0.085812502 #
-1000 1:0.175 2:0.175 3:0.175 4:0.175 5:1 6:0 7:0.069768749 #
1000 1:0.87 2:0.81 3:0.73000002 4:0.67000002 5:1 6:0.16200624 7:0 #
1000 1:0.090000004 2:0.090000004 3:0.090000004 4:0.090000004 5:1 6:0.1849 7:0.050625 #
1000 1:0 2:0 3:0 4:0 5:0 6:0 7:0.046080001 #
-1000 1:0.98500001 2:0.92500001 3:0.84500003 4:0.78500003 5:0.75 6:0.6611625 7:0 #
1000 1:0.059999999 2:0.059999999 3:0.059999999 4:0.059999999 5:1 6:0 7:0.21506563 #
1000 1:0.97000003 2:0.91000003 3:0.79000002 4:0.73000002 5:0.75 6:0.56648749 7:0 #
-1000 1:0.18000001 2:0.18000001 3:0.18000001 4:0.145 5:1 6:0 7:0.041006248 #
-1000 1:0.60000002 2:0.60000002 3:0.47999999 4:0.60000002 5:1 6:0.23965625 7:0 #
-1000 1:0.175 2:0.175 3:0.175 4:0.175 5:1 6:0 7:0.19703124 #
-793.38597839977592 1:0.98000002 2:0.86000001 3:0.80000001 4:0.74000001 5:0.25 6:0.1296 7:0 #
-1000 1:0.145 2:0.145 3:0.145 4:0.145 5:1 6:0 7:0.044651251 #
1000 1:0.84500003 2:0.78500003 3:0.72500002 4:0.66500002 5:1 6:0.19536249 7:0 #
1000 1:0.98000002 2:0.89999998 3:0.83999997 4:0.77999997 5:0.75 6:0 7:0 #
-1000 1:0.94499999 2:0.88499999 3:0.82499999 4:0.76499999 5:1 6:0.12075625 7:0.11400312 #
-1000 1:0.19499999 2:0.075000003 3:0.19499999 4:0.19499999 5:1 6:0 7:0.1242725 #
1000 1:0.98500001 2:0.92500001 3:0.80500001 4:0.745 5:0.75 6:0.57300627 7:0 #
-1000 1:0.98500001 2:0.92500001 3:0.80500001 4:0.745 5:0.75 6:0.57300627 7:0 #
-1000 1:0.77999997 2:0.72000003 3:0.66000003 4:0.60000002 5:0.75 6:0.3291125 7:0.076800004 #
-1000 1:0.81999999 2:0.75999999 3:0.63999999 4:0.57999998 5:0 6:0 7:0.12988751 #
-1000 1:0.98500001 2:0.92500001 3:0.86500001 4:0.80500001 5:1 6:0.26965001 7:0 #
1000 1:0.92500001 2:0.86500001 3:0.78500003 4:0.72500002 5:0.75 6:0.6196875 7:0 #
1000 1:0.95999998 2:0.89999998 3:0.83999997 4:0.77999997 5:0.5 6:0 7:0 #
1000 1:0.91000003 2:0.85000002 3:0.76999998 4:0.70999998 5:0.75 6:0.60616249 7:0 #
-1000 1:0.38999999 2:0.38999999 3:0.38999999 4:0.38999999 5:0.75 6:0 7:0 #
-1000 1:0.22 2:0.22 3:0.22 4:0.22 5:0.75 6:0 7:0.0685625 #
-1000 1:0.145 2:0.145 3:0.145 4:0.145 5:1 6:0 7:0.096315622 #
1000 1:0.93000001 2:0.87 3:0.81 4:0.75 5:1 6:0.17640001 7:0.055225 #
1000 1:0.11 2:0.11 3:0.11 4:0.11 5:1 6:0.189225 7:0.0484 #
-1000 1:0.97500002 2:0.91500002 3:0.85500002 4:0.79500002 5:0.5 6:0.10725625 7:0 #
1000 1:0.1 2:0.1 3:0.1 4:0.1 5:1 6:0.18705624 7:0.049506251 #
-1000 1:0.97000003 2:0.91000003 3:0.79000002 4:0.73000002 5:1 6:0 7:0 #
-1000 1:0.31999999 2:0.31999999 3:0.31999999 4:0.31999999 5:0.5 6:0 7:0.1233575 #
-1000 1:0.41999999 2:0.41999999 3:0.41999999 4:0.41999999 5:0.75 6:0 7:0 #
-1000 1:0.98500001 2:0.92500001 3:0.86500001 4:0.80500001 5:0.75 6:0.50714999 7:0 #
-1000 1:0.16500001 2:0.16500001 3:0.16500001 4:0.16500001 5:1 6:0 7:0 #
-1000 1:0.31999999 2:0.31999999 3:0.31999999 4:0.31999999 5:0.5 6:0 7:0.1233575 #
1000 1:0.96499997 2:0.90499997 3:0.82499999 4:0.76499999 5:0.75 6:0.64718747 7:0 #
-1000 1:0.50999999 2:0.50999999 3:0.50999999 4:0.50999999 5:0.75 6:0 7:0.60576874 #
1000 1:0.98000002 2:0.92000002 3:0.86000001 4:0.80000001 5:0.75 6:0.09455625 7:0 #
-1000 1:0.97000003 2:0.91000003 3:0.85000002 4:0.76999998 5:0.75 6:0.26656249 7:0 #
-1000 1:0.30000001 2:0.30000001 3:0.30000001 4:0.30000001 5:0.75 6:0 7:0.079232499 #
1000 1:0.80500001 2:0.745 3:0.625 4:0.565 5:1 6:0.2763375 7:0 #
-1000 1:0.31999999 2:0.31999999 3:0.31999999 4:0.31999999 5:0.5 6:0 7:0.1233575 #
1000 1:0.13500001 2:0.13500001 3:0.13500001 4:0.13500001 5:0.5 6:0.046225 7:0.036551248 #
1000 1:0.185 2:0.185 3:0.185 4:0.185 5:0.5 6:0.067599997 7:0.032401249 #
1000 1:0.93000001 2:0.75 3:0.69 4:0.63 5:0.5 6:0.112225 7:0 #
-1000 1:0.42500001 2:0.42500001 3:0.42500001 4:0.42500001 5:0.5 6:0 7:0.13839249 #
1000 1:0.93000001 2:0.87 3:0.81 4:0.75 5:0.5 6:0.13505626 7:0 #
1000 1:0.02 2:0.02 3:0.02 4:0.02 5:0.25 6:0 7:0.046080001 #
-1000 1:0.93000001 2:0.87 3:0.79000002 4:0.73000002 5:1 6:0.093024999 7:0 #
-1000 1:0.43000001 2:0.42500001 3:0.42500001 4:0.30500001 5:0.25 6:0 7:0 #
1000 1:0.98000002 2:0.92000002 3:0.80000001 4:0.74000001 5:0.75 6:0.57300627 7:0 #
-1000 1:0.98500001 2:0.92500001 3:0.80500001 4:0.745 5:0.75 6:0.12780625 7:0 #
1000 1:0 2:0 3:0 4:0 5:0 6:0 7:0.046080001 #
1000 1:0 2:0 3:0 4:0 5:0 6:0 7:0.069502503 #
1000 1:0.27500001 2:0.27500001 3:0.27500001 4:0.235 5:1 6:0 7:0.11593375 #
1000 1:0.95499998 2:0.89499998 3:0.83499998 4:0.77499998 5:0.5 6:0 7:0 #
1000 1:0.93000001 2:0.87 3:0.81 4:0.75 5:0.5 6:0.13625 7:0 #
1000 1:0.95999998 2:0.89999998 3:0.77999997 4:0.72000003 5:0.75 6:0.55618125 7:0 #
1000 1:0.145 2:0.145 3:0.145 4:0.145 5:0.5 6:0.047306251 7:0.035701249 #
1000 1:0.125 2:0.125 3:0.125 4:0.125 5:0.5 6:0.046225 7:0.03741125 #
1000 1:0.93000001 2:0.81 3:0.75 4:0.69 5:1 6:0.13505626 7:0 #
1000 1:0.050000001 2:0.050000001 3:0.050000001 4:0.050000001 5:0.75 6:0 7:0.20415834 #
-999.99959126263275 1:0.98500001 2:0.92500001 3:0.86500001 4:0.80500001 5:0.5 6:0.60000622 7:0 #
-1000 1:0.22 2:0.22 3:0.22 4:0.22 5:0.75 6:0 7:0.0685625 #
1000 1:0.94499999 2:0.88499999 3:0.82499999 4:0.76499999 5:0.5 6:0 7:0 #
1000 1:0.0049999999 2:0.0049999999 3:0.0049999999 4:0.0049999999 5:0.75 6:0 7:0.1301125 #
1000 1:0.98000002 2:0.92000002 3:0.86000001 4:0.80000001 5:0.75 6:0.1296 7:0 #
1000 1:0.93000001 2:0.87 3:0.81 4:0.75 5:1 6:0.075625002 7:0.055225 #
-1000 1:0.82499999 2:0.76499999 3:0.64499998 4:0.58499998 5:0 6:0 7:0.12988751 #
-1000 1:0.98500001 2:0.92500001 3:0.86500001 4:0.80500001 5:1 6:0.31640625 7:0 #
-1000 1:0.20999999 2:0.20999999 3:0.20999999 4:0.13500001 5:0.75 6:0 7:0 #
-1000 1:0.97500002 2:0.91500002 3:0.85500002 4:0.73500001 5:0.75 6:0.41701251 7:0 #
1000 1:0.82499999 2:0.76499999 3:0.64499998 4:0.58499998 5:1 6:0.33989376 7:0 #
-1000 1:0.36500001 2:0.36500001 3:0.36500001 4:0.30000001 5:0.5 6:0 7:0 #
-1000 1:0.14 2:0.14 3:0.14 4:0.14 5:0.75 6:0 7:0.78301251 #
-1000 1:0.31999999 2:0.31999999 3:0.31999999 4:0.31999999 5:0.5 6:0 7:0.1233575 #
1000 1:0.98000002 2:0.92000002 3:0.86000001 4:0.80000001 5:0.5 6:0 7:0 #
1000 1:0.93000001 2:0.75 3:0.69 4:0.63 5:0.5 6:0.11055625 7:0 #
1000 1:0.87 2:0.81 3:0.73000002 4:0.67000002 5:1 6:0.18275625 7:0 #
1000 1:0.93000001 2:0.87 3:0.81 4:0.75 5:1 6:0.17875625 7:0 #
1000 1:0.94 2:0.88 3:0.80000001 4:0.74000001 5:0.75 6:0.62650627 7:0 #
1000 1:0.93000001 2:0.87 3:0.81 4:0.75 5:0.5 6:0.13525 7:0 #
-1000 1:0.17 2:0.17 3:0.17 4:0 5:1 6:0 7:0 #
-1000 1:0.98500001 2:0.92500001 3:0.86500001 4:0.745 5:0.75 6:0.38500625 7:0 #
-1000 1:0.93000001 2:0.87 3:0.75 4:0.69 5:0.75 6:0 7:0 #
1000 1:0.175 2:0.175 3:0.175 4:0.175 5:0.5 6:0.066306248 7:0.03321125 #
1000 1:0.93000001 2:0.87 3:0.81 4:0.75 5:0.5 6:0.1387625 7:0 #
-1000 1:0.40000001 2:0.28 3:0.039999999 4:0.40000001 5:1 6:0 7:0.1128125 #
-1000 1:0.97500002 2:0.85500002 3:0.79500002 4:0.73000002 5:1 6:0.11055625 7:0 #
-1000 1:0.97000003 2:0.91000003 3:0.85000002 4:0.79000002 5:0.5 6:0.105625 7:0 #
-1000 1:0.98000002 2:0.92000002 3:0.80000001 4:0.74000001 5:0.75 6:0.57300627 7:0 #
1000 1:0.105 2:0.105 3:0.105 4:0.07 5:1 6:0 7:0.22444062 #
1000 1:0.95999998 2:0.89999998 3:0.83999997 4:0.72000003 5:0.75 6:0.19400625 7:0 #
-1000 1:0.97000003 2:0.91000003 3:0.79000002 4:0.73000002 5:0.5 6:0.15800625 7:0 #
-1000 1:0.98000002 2:0.86000001 3:0.80000001 4:0.73500001 5:1 6:0.1089 7:0 #
1000 1:0.20999999 2:0.20999999 3:0.20999999 4:0.20999999 5:1 6:0 7:0.37875 #
-1000 1:0.93000001 2:0.87 3:0.81 4:0.75 5:0.75 6:0.2962625 7:0 #
1000 1:0.83999997 2:0.77999997 3:0.66000003 4:0.60000002 5:1 6:0.24815625 7:0 #
1000 1:0.73500001 2:0.67500001 3:0.55500001 4:0.495 5:1 6:0.20725624 7:0 #
-1000 1:0.96499997 2:0.90499997 3:0.84500003 4:0.78500003 5:1 6:0.67401248 7:0 #
-1000 1:0.96499997 2:0.90499997 3:0.78500003 4:0.72500002 5:0.75 6:0.12425625 7:0 #
1000 1:0.935 2:0.875 3:0.815 4:0.755 5:0.75 6:0.16103125 7:0 #
-1000 1:0.94999999 2:0.88999999 3:0.76999998 4:0.70999998 5:0.75 6:0.12075625 7:0 #
1000 1:0.935 2:0.875 3:0.755 4:0.69499999 5:0.75 6:0.52968752 7:0 #
-1000 1:0.97500002 2:0.85500002 3:0.79500002 4:0.73000002 5:1 6:0.11055625 7:0 #
-1000 1:0.98500001 2:0.90499997 3:0.84500003 4:0.72500002 5:1 6:0.112225 7:0 #
-1000 1:0.95499998 2:0.89499998 3:0.77499998 4:0.71499997 5:1 6:0.50476247 7:0 #
1000 1:0.94499999 2:0.88499999 3:0.82499999 4:0.76499999 5:0.75 6:0.112225 7:0 #
1000 1:0.935 2:0.875 3:0.79500002 4:0.73500001 5:0.75 6:0.62650627 7:0 #
1000 1:0.97500002 2:0.89499998 3:0.83499998 4:0.77499998 5:0.75 6:0 7:0 #
-1000 1:0.98500001 2:0.92500001 3:0.86500001 4:0.80500001 5:1 6:0 7:0 #
1000 1:0.86500001 2:0.80500001 3:0.72500002 4:0.66500002 5:1 6:0.047306251 7:0 #
1000 1:0.95499998 2:0.89499998 3:0.83499998 4:0.71499997 5:0.75 6:0.18783125 7:0 #
-1000 1:0.98500001 2:0.92500001 3:0.86500001 4:0.80500001 5:0.75 6:0.20702501 7:0 #
-1000 1:0.98500001 2:0.86500001 3:0.80500001 4:0.74000001 5:1 6:0.112225 7:0 #
-1000 1:0.98500001 2:0.92500001 3:0.86500001 4:0.80500001 5:0.75 6:0.16200624 7:0 #
1000 1:0.94999999 2:0.88999999 3:0.81 4:0.75 5:0.75 6:0.090000004 7:0 #
-861.82575369594269 1:0.98000002 2:0.92000002 3:0.80000001 4:0.74000001 5:0.75 6:0.25525001 7:0 #
-1000 1:0.98500001 2:0.92500001 3:0.86500001 4:0.80500001 5:0.75 6:0.43013126 7:0 #
-1000 1:0.96499997 2:0.90499997 3:0.78500003 4:0.72500002 5:1 6:0.15602501 7:0 #
1000 1:0.93000001 2:0.87 3:0.81 4:0.75 5:0.75 6:0.1277125 7:0 #
-1000 1:0.97500002 2:0.91500002 3:0.79500002 4:0.73500001 5:1 6:0.12780625 7:0 #
-1000 1:0.015 2:0.015 3:0.015 4:0.015 5:1 6:0 7:0.13801876 #
-1000 1:0.97500002 2:0.85500002 3:0.79500002 4:0.73000002 5:1 6:0.1089 7:0 #
1000 1:0.94999999 2:0.88999999 3:0.82999998 4:0.76999998 5:0.75 6:0.17553125 7:0 #
-1000 1:0.98500001 2:0.92500001 3:0.86500001 4:0.80500001 5:1 6:0.36612499 7:0 #
-1000 1:0.98000002 2:0.86000001 3:0.80000001 4:0.74000001 5:1 6:0.24924999 7:0 #
-1000 1:0.245 2:0.245 3:0.245 4:0.245 5:1 6:0 7:0 #
1000 1:0.94499999 2:0.88499999 3:0.82499999 4:0.76499999 5:0.75 6:0.10725625 7:0 #
-1000 1:0.98000002 2:0.92000002 3:0.86000001 4:0.74000001 5:0.75 6:0.12780625 7:0 #
-1000 1:0.039999999 2:0.039999999 3:0.039999999 4:0 5:1 6:0 7:0.21519062 #
1000 1:0.19499999 2:0.19499999 3:0.19499999 4:0.19499999 5:0.75 6:0 7:0.24464166 #
1000 1:0.95499998 2:0.89499998 3:0.83499998 4:0.77499998 5:0.75 6:0.11730625 7:0 #
-1000 1:0.935 2:0.875 3:0.755 4:0.69499999 5:0.75 6:0.52968752 7:0 #
-1000 1:0.97500002 2:0.85500002 3:0.79500002 4:0.73000002 5:1 6:0.10725625 7:0 #
-1000 1:0.97500002 2:0.91500002 3:0.85500002 4:0.79500002 5:1 6:0.59681875 7:0 #
-1000 1:0.98500001 2:0.92500001 3:0.86500001 4:0.80500001 5:0.75 6:0.39420626 7:0 #
-1000 1:0.80500001 2:0.745 3:0.565 4:0.505 5:0 6:0 7:0.12988751 #
1000 1:0.059999999 2:0.059999999 3:0.059999999 4:0.059999999 5:1 6:0 7:0.27719375 #
-1000 1:0.97500002 2:0.91500002 3:0.79500002 4:0.73500001 5:1 6:0.09765625 7:0 #
-1000 1:0.039999999 2:0.039999999 3:0.039999999 4:0 5:1 6:0 7:0.21519062 #
1000 1:0.93000001 2:0.87 3:0.81 4:0.75 5:1 6:0 7:0 #
-1000 1:0.97000003 2:0.91000003 3:0.85000002 4:0.79000002 5:1 6:0.70561248 7:0 #
1000 1:0.88999999 2:0.82999998 3:0.75 4:0.69 5:1 6:0 7:0.28683749 #
-1000 1:0.935 2:0.815 3:0.755 4:0.69 5:1 6:0.099225 7:0 #
1000 1:0.94499999 2:0.88499999 3:0.82499999 4:0.76499999 5:0.75 6:0.16965625 7:0 #
-1000 1:0.93000001 2:0.87 3:0.75 4:0.69 5:0.75 6:0.19375625 7:0 #
-786.49551746415091 1:0.745 2:0.685 3:0.625 4:0.565 5:0.75 6:0.3133125 7:0.076800004 #
-1000 1:0.54000002 2:0.54000002 3:0.54000002 4:0.48500001 5:0.75 6:0 7:0.046080001 #
-1000 1:0.97000003 2:0.91000003 3:0.82999998 4:0.76999998 5:0.75 6:0.64718747 7:0 #
-1000 1:0.094999999 2:0.094999999 3:0.075000003 4:0.094999999 5:1 6:0 7:0.040051252 #
-1000 1:0.23999999 2:0.23999999 3:0.23999999 4:0.23999999 5:0 6:0.14822499 7:0 #
1000 1:0.94 2:0.88 3:0.81999999 4:0.75999999 5:0.75 6:0.16675626 7:0 #
1000 1:0.92000002 2:0.86000001 3:0.74000001 4:0.68000001 5:0.75 6:0.51633126 7:0 #
1000 1:0.93000001 2:0.75 3:0.69 4:0.63 5:0.5 6:0.112225 7:0 #
-1000 1:0.98500001 2:0.92500001 3:0.86500001 4:0.80500001 5:1 6:0.20930625 7:0 #
1000 1:0.94999999 2:0.88999999 3:0.82999998 4:0.70999998 5:0.75 6:0.18478125 7:0 #
1000 1:0.93000001 2:0.75 3:0.69 4:0.63 5:0.5 6:0.16525625 7:0 #
1000 1:0.92500001 2:0.86500001 3:0.745 4:0.685 5:0.75 6:0.51985627 7:0 #
-1000 1:0.97000003 2:0.91000003 3:0.79000002 4:0.73000002 5:1 6:0.12425625 7:0 #
1000 1:0.83499998 2:0.77499998 3:0.71499997 4:0.65499997 5:1 6:0.19225 7:0 #
-1000 1:0.98500001 2:0.92500001 3:0.86500001 4:0.80500001 5:0.75 6:0.33864999 7:0 #
1000 1:0.94499999 2:0.88499999 3:0.82499999 4:0.70499998 5:0.75 6:0.17055625 7:0 #
1000 1:0.935 2:0.875 3:0.815 4:0.69499999 5:0.75 6:0.16193125 7:0 #
1000 1:0.93000001 2:0.87 3:0.81 4:0.75 5:1 6:0.17430624 7:0.056406248 #
1000 1:0.85500002 2:0.79500002 3:0.73500001 4:0.67500001 5:1 6:0.19850001 7:0 #
-1000 1:0.98000002 2:0.86000001 3:0.80000001 4:0.74000001 5:0.5 6:0.2209 7:0 #
1000 1:0.86500001 2:0.80500001 3:0.745 4:0.685 5:1 6:0.112225 7:0.048951562 #
1000 1:0.93000001 2:0.85000002 3:0.79000002 4:0.73000002 5:0.75 6:0 7:0 #
-1000 1:0.98500001 2:0.92500001 3:0.86500001 4:0.745 5:1 6:0.13140625 7:0 #
1000 1:0.285 2:0.285 3:0.285 4:0.245 5:1 6:0 7:0.11333375 #
1000 1:0.95999998 2:0.88 3:0.81999999 4:0.75999999 5:0.75 6:0 7:0 #
1000 1:0.97500002 2:0.91500002 3:0.85500002 4:0.79500002 5:0.75 6:0.12780625 7:0 #
1000 1:0.094999999 2:0.094999999 3:0.094999999 4:0.059999999 5:1 6:0 7:0.22920312 #
-1000 1:0.97500002 2:0.91500002 3:0.85500002 4:0.79500002 5:0.75 6:0.38978124 7:0 #
-1000 1:0.98000002 2:0.92000002 3:0.80000001 4:0.74000001 5:1 6:0.1296 7:0 #
1000 1:0.96499997 2:0.90499997 3:0.82499999 4:0.76499999 5:0.75 6:0.096100003 7:0 #
-1000 1:0.98000002 2:0.86000001 3:0.80000001 4:0.73500001 5:1 6:0.112225 7:0 #
-1000 1:0.95499998 2:0.89499998 3:0.77499998 4:0.71499997 5:0.75 6:0.1225 7:0 #
1000 1:0.87 2:0.81 3:0.75 4:0.69 5:1 6:0.2016625 7:0 #
1000 1:0.86000001 2:0.80000001 3:0.74000001 4:0.68000001 5:1 6:0.19850001 7:0 #
-1000 1:0.97500002 2:0.85500002 3:0.79500002 4:0.73000002 5:0.75 6:0.23765625 7:0 #
-1000 1:0.97000003 2:0.91000003 3:0.79000002 4:0.73000002 5:0.75 6:0.12425625 7:0 #
-1000 1:0.97500002 2:0.91500002 3:0.83499998 4:0.77499998 5:0.75 6:0.65415627 7:0 #
1000 1:0.83999997 2:0.77999997 3:0.72000003 4:0.66000003 5:1 6:0.19225 7:0 #
1000 1:0.97000003 2:0.91000003 3:0.85000002 4:0.73000002 5:0.75 6:0.20345625 7:0 #
-1000 1:0.039999999 2:0.039999999 3:0.039999999 4:0.039999999 5:1 6:0 7:0.049408332 #
1000 1:0.93000001 2:0.87 3:0.81 4:0.75 5:1 6:0.052900001 7:0 #
-1000 1:0.97000003 2:0.91000003 3:0.82999998 4:0.76999998 5:0.75 6:0.29718125 7:0 #
1000 1:0.93000001 2:0.87 3:0.81 4:0.75 5:0.75 6:0.15820625 7:0 #
1000 1:0.82999998 2:0.76999998 3:0.70999998 4:0.64999998 5:1 6:0.18916249 7:0 #
-1000 1:0.60000002 2:0.47999999 3:0.47999999 4:0.31999999 5:1 6:0.27828124 7:0 #
1000 1:0.94499999 2:0.88499999 3:0.80500001 4:0.745 5:0.75 6:0.63336247 7:0 #
-1000 1:0.98500001 2:0.92500001 3:0.86500001 4:0.80500001 5:1 6:0.33440626 7:0 #
1000 1:0.93000001 2:0.75 3:0.69 4:0.63 5:0.5 6:0.11390625 7:0 #
-1000 1:0.93000001 2:0.81 3:0.75 4:0.685 5:1 6:0.096100003 7:0 #
1000 1:0.315 2:0.315 3:0.315 4:0.27500001 5:1 6:0 7:0.10571375 #
-1000 1:0.91000003 2:0.85000002 3:0.79000002 4:0.73000002 5:1 6:0.6611625 7:0 #
1000 1:0.90499997 2:0.84500003 3:0.78500003 4:0.72500002 5:0.5 6:0 7:0 #
-1000 1:0.95999998 2:0.88 3:0.81999999 4:0.69999999 5:1 6:0.47868124 7:0 #
-1000 1:0.95999998 2:0.89999998 3:0.77999997 4:0.72000003 5:0.75 6:0.1225 7:0 #
-999.99868168047396 1:0.98500001 2:0.86500001 3:0.80500001 4:0.745 5:0.5 6:0.2209 7:0 #
1000 1:0.85000002 2:0.79000002 3:0.73000002 4:0.67000002 5:1 6:0.19536249 7:0 #
-1000 1:0.98000002 2:0.92000002 3:0.86000001 4:0.80000001 5:1 6:0.1936 7:0 #
1000 1:0.93000001 2:0.87 3:0.75 4:0.69 5:0.75 6:0.52608752 7:0 #
1000 1:0.86500001 2:0.80500001 3:0.745 4:0.685 5:1 6:0.2016625 7:0 #
1000 1:0.87 2:0.81 3:0.75 4:0.69 5:0.75 6:0.095781252 7:0 #
-1000 1:0.98000002 2:0.86000001 3:0.80000001 4:0.73500001 5:1 6:0.112225 7:0 #
1000 1:0.95499998 2:0.89499998 3:0.815 4:0.755 5:0.75 6:0.09150625 7:0 #
-1000 1:0.97500002 2:0.91500002 3:0.79500002 4:0.73500001 5:0.75 6:0.12602501 7:0 #
1000 1:0.94 2:0.88 3:0.81999999 4:0.69999999 5:0.75 6:0.16765624 7:0 #
1000 1:0.94999999 2:0.88999999 3:0.82999998 4:0.70999998 5:0.75 6:0.17643125 7:0 #
1000 1:0.075000003 2:0.075000003 3:0.075000003 4:0.075000003 5:1 6:0 7:0.1139125 #
1000 1:0.97000003 2:0.91000003 3:0.82999998 4:0.76999998 5:0.75 6:0.099225 7:0 #
1000 1:0.94 2:0.86000001 3:0.80000001 4:0.74000001 5:0.75 6:0 7:0 #
1000 1:0.92000002 2:0.86000001 3:0.77999997 4:0.72000003 5:0.75 6:0.61290628 7:0 #
1000 1:0.96499997 2:0.88499999 3:0.82499999 4:0.76499999 5:0.75 6:0 7:0 #
1000 1:0.064999998 2:0.064999998 3:0.064999998 4:0.064999998 5:1 6:0 7:0.1165375 #
1000 1:0.96499997 2:0.90499997 3:0.78500003 4:0.72500002 5:0.75 6:0.56000626 7:0 #
1000 1:0.83499998 2:0.77499998 3:0.65499997 4:0.59500003 5:1 6:0.105625 7:0 #
1000 1:0.055 2:0.055 3:0.055 4:0.055 5:1 6:0 7:0.21972813 #
-1000 1:0.32499999 2:0.215 3:0.32499999 4:0.32499999 5:1 6:0 7:0.21506563 #
1000 1:0.97500002 2:0.91500002 3:0.79500002 4:0.73500001 5:0.75 6:0.56648749 7:0 #
-1000 1:0.32499999 2:0.215 3:0.32499999 4:0.32499999 5:1 6:0 7:0.21506563 #
1000 1:0.93000001 2:0.87 3:0.81 4:0.75 5:1 6:0 7:0 #
-1000 1:0.98500001 2:0.92500001 3:0.86500001 4:0.80500001 5:0.75 6:0.49286875 7:0 #
-1000 1:0.98500001 2:0.92500001 3:0.86500001 4:0.80500001 5:0.75 6:0.15800625 7:0 #
-1000 1:0.98500001 2:0.92500001 3:0.84500003 4:0.78500003 5:1 6:0.12075625 7:0 #
1000 1:0.93000001 2:0.87 3:0.79000002 4:0.73000002 5:0.75 6:0.6196875 7:0 #
-1000 1:0.079999998 2:0.025 3:0 4:0 5:0.75 6:0 7:0.43038124 #
-1000 1:0.98500001 2:0.92500001 3:0.86500001 4:0.80500001 5:0.75 6:0.15405625 7:0 #
-1000 1:0.97000003 2:0.91000003 3:0.85000002 4:0.73000002 5:1 6:0 7:0 #
1000 1:0.079999998 2:0.079999998 3:0.079999998 4:0.079999998 5:1 6:0 7:0.08845 #
1000 1:0.94499999 2:0.88499999 3:0.76499999 4:0.70499998 5:0.75 6:0.53965622 7:0 #
-1000 1:0.98500001 2:0.92500001 3:0.86500001 4:0.80500001 5:0.75 6:0 7:0 #
1000 1:0.935 2:0.875 3:0.815 4:0.755 5:0.75 6:0 7:0 #
1000 1:0.059999999 2:0.059999999 3:0.059999999 4:0.059999999 5:1 6:0 7:0.122495 #
-41.217297394497109 1:0.94 2:0.88 3:0.81999999 4:0.75999999 5:1 6:0.119025 7:0.11400312 #
-1000 1:0.82499999 2:0.76499999 3:0.70499998 4:0.64499998 5:1 6:0.29838124 7:0 #
-1000 1:0.96499997 2:0.90499997 3:0.84500003 4:0.78500003 5:1 6:0.17430624 7:0 #
-1000 1:0.19 2:0.19 3:0.16500001 4:0.19 5:0 6:0 7:0.029645 #
-1000 1:0.935 2:0.875 3:0.815 4:0.755 5:0.5 6:0.12075625 7:0 #
-1000 1:0.94499999 2:0.88499999 3:0.82499999 4:0.76499999 5:0.75 6:0.13875625 7:0.076800004 #
1000 1:0.98500001 2:0.90499997 3:0.84500003 4:0.78500003 5:0.75 6:0 7:0 #
-1000 1:0.13 2:0.13 3:0.075000003 4:0.13 5:1 6:0 7:0 #
1000 1:0.97000003 2:0.91000003 3:0.85000002 4:0.79000002 5:0.75 6:0.12425625 7:0 #
-1000 1:0.075000003 2:0.075000003 3:0.075000003 4:0.075000003 5:0.25 6:0 7:0.13839249 #
-1000 1:0.97500002 2:0.91500002 3:0.85500002 4:0.73500001 5:0.75 6:0.12602501 7:0 #
1000 1:0.97000003 2:0.88999999 3:0.82999998 4:0.76999998 5:0.75 6:0 7:0 #
-1000 1:0.98000002 2:0.92000002 3:0.86000001 4:0.80000001 5:1 6:0.1936 7:0 #
-1000 1:0.50999999 2:0.50999999 3:0.50999999 4:0.50999999 5:0.75 6:0 7:0.60576874 #
1000 1:0.94999999 2:0.87 3:0.81 4:0.75 5:0.75 6:0 7:0 #
1000 1:0.07 2:0.07 3:0.07 4:0.07 5:1 6:0 7:0.30989999 #
1000 1:0.32499999 2:0.32499999 3:0.32499999 4:0.285 5:1 6:0 7:0.10323375 #
-1000 1:0.98500001 2:0.92500001 3:0.86500001 4:0.80500001 5:1 6:0.19580625 7:0 #
1000 1:0.064999998 2:0.064999998 3:0.064999998 4:0.064999998 5:1 6:0 7:0.1218775 #
1000 1:0.98500001 2:0.92500001 3:0.86500001 4:0.80500001 5:0.75 6:0.13322499 7:0 #
1000 1:0.059999999 2:0.059999999 3:0.059999999 4:0.059999999 5:1 6:0 7:0.37015 #
1000 1:0.16500001 2:0.16500001 3:0.16500001 4:0.16500001 5:1 6:0 7:0.20148125 #
-1000 1:0.98500001 2:0.92500001 3:0.86500001 4:0.80500001 5:1 6:0 7:0 #
-1000 1:0.95999998 2:0.89999998 3:0.77999997 4:0.72000003 5:1 6:0.51186252 7:0 #
-1000 1:0.98500001 2:0.92500001 3:0.86500001 4:0.80500001 5:0.75 6:0.1681 7:0 #
-1000 1:0.055 2:0.055 3:0.055 4:0.055 5:0.25 6:0 7:0.10552375 #
-1000 1:0.98500001 2:0.92500001 3:0.86500001 4:0.80500001 5:0.75 6:0.13875625 7:0 #
1000 1:0.94999999 2:0.88999999 3:0.82999998 4:0.76999998 5:0.75 6:0.11390625 7:0 #
-1000 1:0.059999999 2:0.059999999 3:0.059999999 4:0.059999999 5:0.25 6:0 7:0.1113175 #
-1000 1:0.015 2:0.015 3:0.015 4:0.015 5:1 6:0 7:0.13801876 #
1000 1:0.94 2:0.88 3:0.75999999 4:0.69999999 5:0.75 6:0.53598124 7:0 #
1000 1:0.98500001 2:0.92500001 3:0.84500003 4:0.78500003 5:0.75 6:0.6611625 7:0 #
1000 1:0.055 2:0.055 3:0.055 4:0.055 5:1 6:0 7:0.28363124 #
-1000 1:0.98000002 2:0.92000002 3:0.86000001 4:0.80000001 5:0.75 6:0.49775001 7:0 #
1000 1:0.95499998 2:0.89499998 3:0.77499998 4:0.71499997 5:0.75 6:0.54976249 7:0 #
1000 1:0.95999998 2:0.89999998 3:0.83999997 4:0.77999997 5:0.75 6:0.119025 7:0 #
-1000 1:0.98500001 2:0.92500001 3:0.86500001 4:0.80500001 5:0.75 6:0.13689999 7:0 #
1000 1:0.935 2:0.85500002 3:0.79500002 4:0.73500001 5:0.75 6:0 7:0 #
-1000 1:0.41499999 2:0.29499999 3:0 4:0 5:1 6:0 7:0 #
1000 1:0.94 2:0.88 3:0.81999999 4:0.75999999 5:0.75 6:0 7:0 #
-1000 1:0.93000001 2:0.87 3:0.75 4:0.69 5:1 6:0.10400625 7:0 #
-1000 1:0.035 2:0.035 3:0.035 4:0.035 5:0.25 6:0 7:0.11251125 #
1000 1:0.77499998 2:0.71499997 3:0.65499997 4:0.59500003 5:1 6:0.1741 7:0 #
-1000 1:0.97500002 2:0.91500002 3:0.85500002 4:0.79500002 5:0.75 6:0.15185 7:0 #
1000 1:0.95499998 2:0.875 3:0.815 4:0.755 5:0.75 6:0 7:0 #
1000 1:0.76499999 2:0.70499998 3:0.64499998 4:0.58499998 5:1 6:0.18561874 7:0 #
-1000 1:0.035 2:0.035 3:0.035 4:0.035 5:0.25 6:0 7:0.074418753 #
1000 1:0.84500003 2:0.78500003 3:0.66500002 4:0.60500002 5:1 6:0.25246251 7:0 #
1000 1:0.94999999 2:0.88999999 3:0.76999998 4:0.70999998 5:0.75 6:0.54601252 7:0 #
1000 1:0.94499999 2:0.86500001 3:0.80500001 4:0.745 5:0.75 6:0 7:0 #
1000 1:0.86000001 2:0.80000001 3:0.74000001 4:0.68000001 5:1 6:0.32361251 7:0 #
1000 1:0.97000003 2:0.91000003 3:0.85000002 4:0.79000002 5:0.75 6:0.061256249 7:0 #
-1000 1:0.98500001 2:0.92500001 3:0.86500001 4:0.80500001 5:0.75 6:0.18705624 7:0 #
-1000 1:0.98500001 2:0.92500001 3:0.86500001 4:0.80500001 5:1 6:0.20930625 7:0 #
1000 1:0.96499997 2:0.90499997 3:0.84500003 4:0.78500003 5:0.75 6:0.058806252 7:0 #
1000 1:0.96499997 2:0.90499997 3:0.84500003 4:0.78500003 5:0.75 6:0.1225 7:0 #
1000 1:0.93000001 2:0.87 3:0.81 4:0.75 5:0.75 6:0 7:0 #
1000 1:0.91500002 2:0.85500002 3:0.73500001 4:0.67500001 5:0.75 6:0.51016247 7:0 #
1000 1:0.085000001 2:0.085000001 3:0.085000001 4:0.085000001 5:1 6:0 7:0.089462496 #
1000 1:0.98500001 2:0.92500001 3:0.84500003 4:0.78500003 5:0.75 6:0.105625 7:0 #
1000 1:0.94999999 2:0.88999999 3:0.82999998 4:0.76999998 5:0.75 6:0.05405625 7:0 #
-1000 1:0.17 2:0.090000004 3:0.17 4:0.17 5:0.75 6:0 7:0.032000002 #
-1000 1:0.97500002 2:0.91500002 3:0.85500002 4:0.73500001 5:1 6:0 7:0 #
1000 1:0.93000001 2:0.87 3:0.81 4:0.75 5:1 6:0 7:0 #
-1000 1:0.98500001 2:0.92500001 3:0.86500001 4:0.80500001 5:1 6:0.35913125 7:0 #
-1000 1:0.97500002 2:0.91500002 3:0.85500002 4:0.73500001 5:1 6:0 7:0 #
-1000 1:0.97500002 2:0.91500002 3:0.85500002 4:0.73500001 5:1 6:0.12602501 7:0 #
1000 1:0.97500002 2:0.91500002 3:0.83499998 4:0.77499998 5:0.75 6:0.10080625 7:0 #
-1000 1:0.88499999 2:0.82499999 3:0.76499999 4:0.64499998 5:1 6:0.082656249 7:0 #
-1000 1:0.98500001 2:0.92500001 3:0.86500001 4:0.80500001 5:1 6:0 7:0 #
1000 1:0.13 2:0.13 3:0.13 4:0.13 5:1 6:0 7:0.082105003 #
-1000 1:0.98500001 2:0.92500001 3:0.86500001 4:0.80500001 5:0.75 6:0 7:0 #
-1000 1:0.98500001 2:0.92500001 3:0.86500001 4:0.78500003 5:1 6:0.09150625 7:0 #
-1000 1:0.85000002 2:0.79000002 3:0.73000002 4:0.61000001 5:1 6:0.070225 7:0 #
-1000 1:0.43000001 2:0.42500001 3:0.42500001 4:0.30500001 5:0.25 6:0 7:0 #
-1000 1:0.97000003 2:0.91000003 3:0.79000002 4:0.73000002 5:1 6:0.4415375 7:0 #
-1000 1:0.0049999999 2:0.0049999999 3:0.0049999999 4:0.0049999999 5:0.75 6:0 7:0.21117812 #
1000 1:0.745 2:0.685 3:0.565 4:0.505 5:1 6:0.2164125 7:0 #
-1000 1:0.95499998 2:0.89499998 3:0.83499998 4:0.77499998 5:1 6:0.46201876 7:0 #
-1000 1:0.98500001 2:0.92500001 3:0.86500001 4:0.80500001 5:0.75 6:0.216225 7:0 #
1000 1:0.815 2:0.755 3:0.69499999 4:0.63499999 5:1 6:0.18610001 7:0 #
-1000 1:0.035 2:0.035 3:0.035 4:0.035 5:1 6:0 7:0.13692084 #
-1000 1:0.97500002 2:0.91500002 3:0.79500002 4:0.73500001 5:1 6:0.15015624 7:0 #
1000 1:0.96499997 2:0.90499997 3:0.84500003 4:0.78500003 5:0.75 6:0.093024999 7:0 #
-1000 1:0.0049999999 2:0.0049999999 3:0.0049999999 4:0.0049999999 5:0.75 6:0 7:0.096315622 #
-1000 1:0.94999999 2:0.88999999 3:0.81 4:0.75 5:0.75 6:0 7:0.1152 #
1000 1:0.97500002 2:0.91500002 3:0.85500002 4:0.79500002 5:0.75 6:0.09455625 7:0 #
-1000 1:0.115 2:0.115 3:0.115 4:0.115 5:1 6:0 7:0.079218753 #
1000 1:0.090000004 2:0.090000004 3:0.090000004 4:0.090000004 5:1 6:0 7:0.086580001 #
-1000 1:0.47999999 2:0.47999999 3:0.47999999 4:0.36000001 5:1 6:0 7:0 #
1000 1:0.93000001 2:0.87 3:0.81 4:0.75 5:1 6:0 7:0 #
-1000 1:0.88999999 2:0.82999998 3:0.75 4:0.69 5:1 6:0 7:0.28683749 #
1000 1:0.95999998 2:0.89999998 3:0.83999997 4:0.77999997 5:0.75 6:0.09150625 7:0 #
-1000 1:0.94 2:0.88 3:0.81999999 4:0.75999999 5:1 6:0.43865001 7:0 #
-1000 1:0.96499997 2:0.90499997 3:0.78500003 4:0.72500002 5:1 6:0 7:0 #
-1000 1:0.69999999 2:0.63999999 3:0.57999998 4:0.51999998 5:1 6:0.042025 7:0 #
-1000 1:0.96499997 2:0.90499997 3:0.84500003 4:0.78500003 5:1 6:0 7:0 #
1000 1:0.87 2:0.81 3:0.73000002 4:0.67000002 5:1 6:0.16402499 7:0 #
1000 1:0.95499998 2:0.89499998 3:0.83499998 4:0.77499998 5:0.75 6:0.055225 7:0 #
1000 1:0.97000003 2:0.91000003 3:0.85000002 4:0.79000002 5:0.75 6:0.093024999 7:0 #
1000 1:0.93000001 2:0.87 3:0.81 4:0.75 5:1 6:0 7:0 #
-1000 1:0.98500001 2:0.92500001 3:0.86500001 4:0.80500001 5:1 6:0 7:0 #
1000 1:0.87 2:0.81 3:0.73000002 4:0.67000002 5:1 6:0.16 7:0 #
-1000 1:0.90499997 2:0.84500003 3:0.78500003 4:0.72500002 5:0.75 6:0.09150625 7:0 #
1000 1:0.93000001 2:0.87 3:0.81 4:0.75 5:1 6:0 7:0 #
-1000 1:0.89499998 2:0.83499998 3:0.755 4:0.69499999 5:1 6:0 7:0.28683749 #
1000 1:0.95999998 2:0.89999998 3:0.83999997 4:0.77999997 5:0.75 6:0.057599999 7:0 #
-1000 1:0.15000001 2:0.15000001 3:0.029999999 4:0.15000001 5:0 6:0 7:0 #
-1000 1:0.70999998 2:0.64999998 3:0.58999997 4:0.52999997 5:1 6:0.045156252 7:0 #
1000 1:0.93000001 2:0.87 3:0.81 4:0.75 5:1 6:0 7:0 #
-999.99970087409019 1:0.17 2:0.050000001 3:0.17 4:0.17 5:1 6:0.1089 7:0 #
1000 1:0.93000001 2:0.87 3:0.81 4:0.75 5:1 6:0 7:0 #
-1000 1:0.0049999999 2:0.0049999999 3:0.0049999999 4:0.0049999999 5:0.5 6:0 7:0.048511252 #
1000 1:0.12 2:0.12 3:0.12 4:0.12 5:1 6:0 7:0.11892125 #
-1000 1:0.98500001 2:0.92500001 3:0.86500001 4:0.80500001 5:1 6:0 7:0 #
1000 1:0.115 2:0.115 3:0.115 4:0.115 5:1 6:0 7:0.083882503 #
-1000 1:0.94 2:0.88 3:0.75999999 4:0.69999999 5:1 6:0 7:0 #
1000 1:0.79500002 2:0.73500001 3:0.61500001 4:0.55500001 5:1 6:0.26575625 7:0 #
-1000 1:0.98500001 2:0.92500001 3:0.86500001 4:0.80500001 5:1 6:0.35913125 7:0 #
-1000 1:0.95999998 2:0.89999998 3:0.83999997 4:0.77999997 5:1 6:0.51540625 7:0 #
-1000 1:0.72500002 2:0.66500002 3:0.60500002 4:0.54500002 5:1 6:0.050625 7:0 #
1000 1:0.87 2:0.81 3:0.73000002 4:0.67000002 5:1 6:0.17640001 7:0 #
1000 1:0.11 2:0.11 3:0.11 4:0.11 5:1 6:0 7:0.12160125 #
1000 1:0.07 2:0.07 3:0.07 4:0.07 5:1 6:0 7:0.27083126 #
-36.260594325938655 1:0.98500001 2:0.92500001 3:0.80500001 4:0.745 5:0.75 6:0.25881249 7:0 #
1000 1:0.76999998 2:0.70999998 3:0.58999997 4:0.52999997 5:1 6:0.1598125 7:0 #
1000 1:0.80000001 2:0.74000001 3:0.68000001 4:0.62 5:1 6:0.18005 7:0 #
-1000 1:0.88 2:0.81999999 3:0.75999999 4:0.63999999 5:1 6:0.079806253 7:0 #
-1000 1:0.98500001 2:0.92500001 3:0.86500001 4:0.80500001 5:1 6:0 7:0 #
-841.57889424326277 1:0.96499997 2:0.90499997 3:0.84500003 4:0.78500003 5:1 6:0.263825 7:0 #
-1000 1:0.32499999 2:0.215 3:0.16500001 4:0.32499999 5:1 6:0 7:0.21506563 #
-437.97303603589535 1:0.875 2:0.815 3:0.73500001 4:0.67500001 5:1 6:0 7:0.28683749 #
1000 1:0.085000001 2:0.085000001 3:0.085000001 4:0.085000001 5:1 6:0 7:0.1113175 #
-1000 1:0.32499999 2:0.215 3:0.16500001 4:0.32499999 5:1 6:0 7:0.21506563 #
-1000 1:0.98000002 2:0.92000002 3:0.86000001 4:0.80000001 5:1 6:0.24490625 7:0 #
1000 1:0.87 2:0.81 3:0.73000002 4:0.67000002 5:1 6:0.17850626 7:0 #
-1000 1:0.38 2:0.38 3:0.14 4:0.045000002 5:1 6:0 7:0 #
-1000 1:0.98500001 2:0.92500001 3:0.86500001 4:0.80500001 5:1 6:0 7:0 #
-1000 1:0.935 2:0.875 3:0.815 4:0.755 5:1 6:0.4677875 7:0 #
-1000 1:0.69499999 2:0.63499999 3:0.57499999 4:0.51499999 5:1 6:0.041006248 7:0 #
-1000 1:0.015 2:0.015 3:0.015 4:0.015 5:1 6:0 7:0.036551248 #
-999.86746609621332 1:0.54000002 2:0.54000002 3:0.54000002 4:0.48500001 5:0.75 6:0 7:0.046080001 #
1000 1:0.87 2:0.81 3:0.73000002 4:0.67000002 5:1 6:0.1849 7:0 #
-1000 1:0.235 2:0.235 3:0.235 4:0.235 5:1 6:0 7:0.10641406 #
-1000 1:0.015 2:0.015 3:0.015 4:0.015 5:1 6:0 7:0.13801876 #
1000 1:0.075000003 2:0.075000003 3:0.075000003 4:0.075000003 5:1 6:0 7:0.28955936 #
-765.03584672044963 1:0.75999999 2:0.69999999 3:0.63999999 4:0.51999998 5:0.75 6:0 7:0.78301251 #
1000 1:0.12 2:0.12 3:0.12 4:0.12 5:1 6:0 7:0.11167625 #
-586.58316170974285 1:0.98500001 2:0.92500001 3:0.86500001 4:0.80500001 5:0.75 6:0.3584125 7:0 #
1000 1:0.83999997 2:0.77999997 3:0.72000003 4:0.66000003 5:1 6:0.3138375 7:0 #
-999.999332934618 1:0.17 2:0.050000001 3:0.17 4:0.17 5:1 6:0.096100003 7:0 #
-1000 1:0.11 2:0.11 3:0 4:0 5:1 6:0 7:0 #
1000 1:0.93000001 2:0.87 3:0.81 4:0.75 5:1 6:0 7:0 #
-626.83905390463769 1:0.88999999 2:0.82999998 3:0.75 4:0.69 5:1 6:0.17850626 7:0 #
-227.73546670540054 1:0.91000003 2:0.85000002 3:0.79000002 4:0.73000002 5:1 6:0.1936 7:0.10695312 #
-1000 1:0.69 2:0.63 3:0.56999999 4:0.50999999 5:1 6:0.039006252 7:0 #
-15.277733908529626 1:0.93000001 2:0.87 3:0.75 4:0.69 5:0.75 6:0 7:0 #
-1000 1:0.54000002 2:0.54000002 3:0.54000002 4:0.48500001 5:0.75 6:0 7:0.046080001 #
-1000 1:0.98500001 2:0.92500001 3:0.86500001 4:0.80500001 5:1 6:0 7:0 #
1000 1:0.815 2:0.755 3:0.63499999 4:0.57499999 5:1 6:0.1024 7:0 #
-644.0061785695143 1:0.47 2:0.47 3:0.47 4:0.34999999 5:1 6:0 7:0 #
-1000 1:0.30000001 2:0.18000001 3:0.18000001 4:0.30000001 5:1 6:0 7:0 #
1000 1:0.87 2:0.81 3:0.73000002 4:0.67000002 5:1 6:0.17015626 7:0 #
-31.705110573275306 1:0.95499998 2:0.89499998 3:0.83499998 4:0.77499998 5:1 6:0.25512499 7:0 #
-1000 1:0.14 2:0.14 3:0.14 4:0.14 5:0.75 6:0 7:0.78301251 #
-1000 1:0.0049999999 2:0.0049999999 3:0.0049999999 4:0.0049999999 5:0.75 6:0 7:0.047531251 #
-1000 1:0.094999999 2:0.094999999 3:0.094999999 4:0.0099999998 5:1 6:0 7:0 #
1000 1:0.1 2:0.1 3:0.1 4:0.1 5:1 6:0 7:0.084729999 #
1000 1:0.094999999 2:0.094999999 3:0.094999999 4:0.094999999 5:1 6:0 7:0.087582499 #
-608.40681271413678 1:0.96499997 2:0.90499997 3:0.78500003 4:0.72500002 5:1 6:0.43011251 7:0 #
1000 1:0.745 2:0.685 3:0.565 4:0.505 5:1 6:0.1380125 7:0 #
1000 1:0.14 2:0.14 3:0.14 4:0.14 5:1 6:0 7:0.080305003 #
-1000 1:0.96499997 2:0.90499997 3:0.84500003 4:0.72500002 5:1 6:0 7:0 #
1000 1:0.79000002 2:0.73000002 3:0.61000001 4:0.55000001 5:1 6:0.26131251 7:0 #
-70.634321032230901 1:0.88 2:0.81999999 3:0.74000001 4:0.68000001 5:1 6:0 7:0.28683749 #
-14.384443158580616 1:0.92500001 2:0.86500001 3:0.80500001 4:0.745 5:1 6:0.33415624 7:0 #
1000 1:0.094999999 2:0.094999999 3:0.094999999 4:0.094999999 5:1 6:0 7:0.27690938 #
-1000 1:0.98500001 2:0.92500001 3:0.86500001 4:0.80500001 5:1 6:0 7:0 #
1000 1:0.79500002 2:0.73500001 3:0.67500001 4:0.61500001 5:1 6:0.18005 7:0 #
-1000 1:0.96499997 2:0.90499997 3:0.84500003 4:0.78500003 5:1 6:0.476825 7:0 #
1000 1:0.105 2:0.105 3:0.105 4:0.105 5:1 6:0 7:0.085722499 #
1000 1:0.87 2:0.81 3:0.73000002 4:0.67000002 5:1 6:0.17430624 7:0 #
1000 1:0.79000002 2:0.73000002 3:0.61000001 4:0.55000001 5:1 6:0.17721251 7:0 #
-1000 1:0.0099999998 2:0.0099999998 3:0.0099999998 4:0.0099999998 5:1 6:0 7:0.048020002 #
-10.890576362609863 1:0.935 2:0.875 3:0.815 4:0.755 5:1 6:0.30481249 7:0 #
-1000 1:0.98000002 2:0.92000002 3:0.86000001 4:0.80000001 5:1 6:0.35762501 7:0 #
1000 1:0.11 2:0.11 3:0.11 4:0.11 5:1 6:0 7:0.082900003 #
1000 1:0.1 2:0.1 3:0.1 4:0.1 5:1 6:0 7:0.11688625 #
1000 1:0.80000001 2:0.74000001 3:0.62 4:0.56 5:1 6:0.27180624 7:0 #
-57.280328527092934 1:0.015 2:0.015 3:0.015 4:0.015 5:1 6:0 7:0.079218753 #
1000 1:0.83499998 2:0.77499998 3:0.71499997 4:0.65499997 5:1 6:0.3138375 7:0 #
1000 1:0.87 2:0.81 3:0.73000002 4:0.67000002 5:1 6:0.16605625 7:0 #
1000 1:0.74000001 2:0.68000001 3:0.56 4:0.5 5:1 6:0.1354 7:0 #
1000 1:0.80500001 2:0.745 3:0.685 4:0.625 5:1 6:0.18306249 7:0 #
1000 1:0.16500001 2:0.16500001 3:0.16500001 4:0.16500001 5:1 6:0 7:0.093613751 #
-1000 1:0.0049999999 2:0.0049999999 3:0.0049999999 4:0.0049999999 5:0.75 6:0.066306248 7:0.047531251 #
1000 1:0.81 2:0.75 3:0.69 4:0.63 5:1 6:0.18306249 7:0 #
1000 1:0.84500003 2:0.78500003 3:0.72500002 4:0.66500002 5:1 6:0.31870624 7:0 #
1000 1:0.81999999 2:0.75999999 3:0.69999999 4:0.63999999 5:1 6:0.18610001 7:0 #
-69.998489225981757 1:0.89499998 2:0.83499998 3:0.77499998 4:0.71499997 5:1 6:0.17442501 7:0 #
-1000 1:0.94499999 2:0.88499999 3:0.82499999 4:0.76499999 5:1 6:0.44745001 7:0 #
1000 1:0.30500001 2:0.30500001 3:0.30500001 4:0.26499999 5:1 6:0 7:0.10822375 #
-1000 1:0.98500001 2:0.92500001 3:0.86500001 4:0.80500001 5:1 6:0.3427625 7:0 #
1000 1:0.82499999 2:0.76499999 3:0.70499998 4:0.64499998 5:1 6:0.18916249 7:0 #
1000 1:0.76999998 2:0.70999998 3:0.64999998 4:0.58999997 5:1 6:0.1711625 7:0 #
1000 1:0.87 2:0.81 3:0.73000002 4:0.67000002 5:1 6:0.18062501 7:0 #
-1000 1:0.38 2:0.38 3:0.14 4:0.045000002 5:1 6:0 7:0 #
1000 1:0.97500002 2:0.91500002 3:0.85500002 4:0.79500002 5:0.75 6:0.0625 7:0 #
-1000 1:0.87 2:0.81 3:0.75 4:0.63 5:1 6:0.075625002 7:0 #
1000 1:0.755 2:0.69499999 3:0.57499999 4:0.51499999 5:1 6:0.146 7:0 #
1000 1:0.83999997 2:0.77999997 3:0.66000003 4:0.60000002 5:1 6:0.105625 7:0 #
1000 1:0.87 2:0.81 3:0.73000002 4:0.67000002 5:1 6:0.1681 7:0 #
-1000 1:0.98500001 2:0.92500001 3:0.86500001 4:0.80500001 5:1 6:0.24813125 7:0 #
-1000 1:0.98000002 2:0.92000002 3:0.86000001 4:0.80000001 5:1 6:0.35913125 7:0 #
1000 1:0.77999997 2:0.72000003 3:0.66000003 4:0.60000002 5:1 6:0.1741 7:0 #
-999.99942169963344 1:0.19499999 2:0.075000003 3:0.19499999 4:0.19499999 5:1 6:0 7:0.092671253 #
1000 1:0.175 2:0.175 3:0.175 4:0.175 5:1 6:0 7:0.091283754 #
1000 1:0.78500003 2:0.72500002 3:0.66500002 4:0.60500002 5:1 6:0.1770625 7:0 #
1000 1:0.125 2:0.125 3:0.125 4:0.125 5:1 6:0 7:0.082062498 #
1000 1:0.93000001 2:0.87 3:0.81 4:0.75 5:1 6:0 7:0 #
1000 1:0.75 2:0.69 3:0.56999999 4:0.50999999 5:1 6:0.1433125 7:0 #
1000 1:0.82499999 2:0.76499999 3:0.64499998 4:0.58499998 5:1 6:0.10400625 7:0 #
-1000 1:0.98500001 2:0.92500001 3:0.86500001 4:0.80500001 5:1 6:0 7:0 #
-1000 1:0.93000001 2:0.87 3:0.81 4:0.75 5:1 6:0.46101251 7:0 #
-225.5771809075959 1:0.50999999 2:0.45500001 3:0.33500001 4:0.215 5:1 6:0 7:0 #
-89.171546206693165 1:0.105 2:0.015 3:0.105 4:0.105 5:0.75 6:0 7:0.070682503 #
-1000 1:0.22 2:0.22 3:0 4:0 5:1 6:0 7:0.077602081 #
1000 1:0.77499998 2:0.71499997 3:0.59500003 4:0.53500003 5:1 6:0.24530625 7:0 #
-1000 1:0.215 2:0.215 3:0 4:0 5:1 6:0 7:0 #
-1000 1:0.22 2:0.22 3:0 4:0 5:1 6:0 7:0.077602081 #
1000 1:0.82999998 2:0.76999998 3:0.64999998 4:0.58999997 5:1 6:0.10400625 7:0 #
-891.7844197389993 1:0.34999999 2:0.34999999 3:0.0099999998 4:0.28999999 5:0 6:0 7:0 #
1000 1:0.13500001 2:0.13500001 3:0.13500001 4:0.13500001 5:1 6:0 7:0.10078375 #
-622.50415637518745 1:0.96499997 2:0.90499997 3:0.84500003 4:0.72500002 5:1 6:0.12075625 7:0 #
-2.5970582882873714 1:0.94499999 2:0.88499999 3:0.82499999 4:0.76499999 5:1 6:0.25853124 7:0 #
-1000 1:0.96499997 2:0.90499997 3:0.78500003 4:0.72500002 5:1 6:0.43580624 7:0 #
1000 1:0.079999998 2:0.079999998 3:0.079999998 4:0.079999998 5:1 6:0 7:0.26454374 #
-1000 1:0.039999999 2:0.039999999 3:0.039999999 4:0 5:1 6:0 7:0.21519062 #
-1000 1:0.22 2:0.22 3:0 4:0 5:1 6:0 7:0.12701042 #
-1000 1:0.039999999 2:0.039999999 3:0.039999999 4:0.039999999 5:1 6:0 7:0.28157082 #
-1000 1:0.11 2:0.11 3:0 4:0 5:1 6:0 7:0 #
-239.61569003702607 1:0.88499999 2:0.82499999 3:0.76499999 4:0.70499998 5:1 6:0.26601249 7:0 #
1000 1:0.80500001 2:0.745 3:0.625 4:0.565 5:1 6:0.1893125 7:0 #
-1000 1:0.44999999 2:0.39500001 3:0.27500001 4:0.155 5:1 6:0 7:0 #
-1000 1:0.47 2:0.47 3:0.47 4:0.34999999 5:1 6:0 7:0 #
1000 1:0.75999999 2:0.69999999 3:0.57999998 4:0.51999998 5:1 6:0.15144999 7:0 #
1000 1:0.090000004 2:0.090000004 3:0.090000004 4:0.090000004 5:1 6:0 7:0.25833124 #
-1000 1:0.025 2:0.025 3:0.025 4:0.025 5:1 6:0 7:0.20148125 #
1000 1:0.16 2:0.16 3:0.16 4:0.16 5:1 6:0 7:0.1295175 #
1000 1:0.76999998 2:0.70999998 3:0.58999997 4:0.52999997 5:1 6:0.2410375 7:0 #
-20.888458297615216 1:0.94 2:0.81999999 3:0.75999999 4:0.69499999 5:0.75 6:0.12075625 7:0 #
-1000 1:0.94999999 2:0.88999999 3:0.82999998 4:0.76999998 5:1 6:0.45306876 7:0 #
-20.624104568036273 1:0.85000002 2:0.79000002 3:0.73000002 4:0.61000001 5:1 6:0.2137 7:0 #
-190.27010471012909 1:0.95499998 2:0.89499998 3:0.83499998 4:0.71499997 5:1 6:0 7:0 #
-1000 1:0.94 2:0.88 3:0.81999999 4:0.75999999 5:1 6:0.47365624 7:0 #
1000 1:0.81999999 2:0.75999999 3:0.63999999 4:0.57999998 5:1 6:0.1024 7:0 #
-63.284459568050636 1:0.19499999 2:0.19499999 3:0.19499999 4:0.19499999 5:1 6:0.36158124 7:0 #
-18.17708442453295 1:0.88999999 2:0.82999998 3:0.76999998 4:0.70999998 5:1 6:0.26601249 7:0 #
-1000 1:0.47 2:0.47 3:0.23 4:0.23 5:1 6:0 7:0 #
-959.76321560548968 1:0.92000002 2:0.86000001 3:0.80000001 4:0.74000001 5:1 6:0.44355625 7:0 #
1000 1:0.81 2:0.75 3:0.63 4:0.56999999 5:1 6:0.19080625 7:0 #
1000 1:0.13 2:0.13 3:0.13 4:0.13 5:1 6:0 7:0.1301125 #
-60.384213699311658 1:0.039999999 2:0.039999999 3:0.039999999 4:0.039999999 5:1 6:0 7:0.28157082 #
-1000 1:0.94999999 2:0.88999999 3:0.82999998 4:0.76999998 5:1 6:0 7:0 #
-57.497242489713244 1:0.55000001 2:0.495 3:0.375 4:0.255 5:1 6:0 7:0 #
1000 1:0.76499999 2:0.70499998 3:0.58499998 4:0.52499998 5:1 6:0.2354375 7:0 #
1000 1:0.14 2:0.14 3:0.14 4:0.14 5:1 6:0 7:0.1273375 #
-284.4213508303942 1:0.94499999 2:0.88499999 3:0.82499999 4:0.76499999 5:1 6:0.105625 7:0 #
1000 1:0.145 2:0.145 3:0.145 4:0.145 5:1 6:0 7:0.09836375 #
1000 1:0.755 2:0.69499999 3:0.57499999 4:0.51499999 5:1 6:0.22580625 7:0 #
-1000 1:0.38 2:0.38 3:0.14 4:0.045000002 5:1 6:0 7:0.023408333 #
1000 1:0.77499998 2:0.71499997 3:0.59500003 4:0.53500003 5:1 6:0.16265 7:0 #
1000 1:0.77999997 2:0.72000003 3:0.60000002 4:0.54000002 5:1 6:0.1684 7:0 #
-1000 1:0.015 2:0.015 3:0.015 4:0.015 5:1 6:0 7:0.079218753 #
-1000 1:0.94999999 2:0.82999998 3:0.76999998 4:0.70499998 5:1 6:0.105625 7:0 #
-18.38565110322088 1:0.55000001 2:0.495 3:0.375 4:0.255 5:1 6:0 7:0 #
1000 1:0.76499999 2:0.70499998 3:0.58499998 4:0.52499998 5:1 6:0.1542125 7:0 #
1000 1:0.75999999 2:0.69999999 3:0.57999998 4:0.51999998 5:1 6:0.23125625 7:0 #
-222.69215820822865 1:0.95499998 2:0.89499998 3:0.83499998 4:0.77499998 5:1 6:0 7:0 #
1000 1:0.085000001 2:0.085000001 3:0.085000001 4:0.085000001 5:1 6:0 7:0.28300938 #
-1000 1:0.50999999 2:0.45500001 3:0.33500001 4:0.215 5:1 6:0 7:0 #
-178.67638623411767 1:0.98000002 2:0.92000002 3:0.80000001 4:0.74000001 5:0.5 6:0.16 7:0 #
-1000 1:0.50999999 2:0.45500001 3:0.33500001 4:0.215 5:1 6:0 7:0 #
1000 1:0.18000001 2:0.18000001 3:0.18000001 4:0.18000001 5:1 6:0 7:0.12202375 #
-14.260494291665964 1:0.13500001 2:0.035 3:0.13500001 4:0.029999999 5:1 6:0 7:0 #
-52.810691029547883 1:0.40000001 2:0.28 3:0.039999999 4:0.40000001 5:1 6:0 7:0.1128125 #
1000 1:0.094999999 2:0.094999999 3:0.094999999 4:0.094999999 5:1 6:0 7:0.27653438 #
-42.182676319556776 1:0.035 2:0.035 3:0.035 4:0.035 5:1 6:0.12780625 7:0.11400312 #
1000 1:0.064999998 2:0.064999998 3:0.064999998 4:0.064999998 5:1 6:0 7:0.14809218 #
-17.830034459104354 1:0.16500001 2:0.045000002 3:0.045000002 4:0.16500001 5:1 6:0 7:0 #
-471.01381312102023 1:0.039999999 2:0.039999999 3:0.039999999 4:0.039999999 5:1 6:0 7:0.28157082 #
-9.6759447578492654 1:0.105 2:0.059999999 3:0.105 4:0.105 5:1 6:0 7:0.29360312 #
-14.92511146527977 1:0.11 2:0 3:0 4:0 5:1 6:0 7:0.066100001 #
-263.65362194852787 1:0.025 2:0.025 3:0.025 4:0.025 5:1 6:0 7:0.20148125 #
-58.264566074998584 1:0.025 2:0.025 3:0.025 4:0.025 5:1 6:0 7:0.20148125 #
1000 1:0.77999997 2:0.72000003 3:0.60000002 4:0.54000002 5:1 6:0.25105625 7:0 #
-139.76416153386936 1:0.18000001 2:0 3:0 4:0 5:1 6:0 7:0 #
-124.41324726947323 1:0.13500001 2:0.07 3:0 4:0 5:1 6:0 7:0.03528 #
-378.08786191829131 1:0.38 2:0.38 3:0.14 4:0.045000002 5:1 6:0 7:0 #
1000 1:0.105 2:0.105 3:0.105 4:0.105 5:1 6:0 7:0.27013439 #
-26.068161538336426 1:0.094999999 2:0.050000001 3:0 4:0 5:1 6:0 7:0 #
-476.93265499174595 1:0.015 2:0.015 3:0.015 4:0.015 5:1 6:0 7:0.03741125 #
-48.236275290712001 1:0.16500001 2:0.045000002 3:0 4:0 5:1 6:0 7:0.14971042 #
-24.889538061921485 1:0.035 2:0.035 3:0.035 4:0.035 5:1 6:0.13505626 7:0.076002084 #
-9.1113017024472356 1:0.16500001 2:0.045000002 3:0 4:0 5:1 6:0 7:0.14971042 #
-10.845294537029986 1:0.079999998 2:0.0099999998 3:0.079999998 4:0.079999998 5:1 6:0 7:0.10105208 #
-10.291946390590056 1:0.094999999 2:0.094999999 3:0.094999999 4:0.094999999 5:1 6:0 7:0 #
-35.065339592728492 1:0.094999999 2:0.094999999 3:0.094999999 4:0.050000001 5:1 6:0 7:0 #
1000 1:0.78500003 2:0.72500002 3:0.60500002 4:0.54500002 5:1 6:0.25541249 7:0 #
-165.41664780863812 1:0.95999998 2:0.89999998 3:0.83999997 4:0.77999997 5:1 6:0.68071252 7:0 #
-139.44112483769277 1:0.215 2:0.215 3:0.094999999 4:0.215 5:1 6:0 7:0 #
-219.42221653395609 1:0.085000001 2:0.085000001 3:0.085000001 4:0.039999999 5:1 6:0 7:0.075208336 #
-64.949094027918861 1:0.88 2:0.81999999 3:0.74000001 4:0.68000001 5:1 6:0 7:0.28683749 #
-195.95582098238083 1:0.13500001 2:0.035 3:0.13500001 4:0.13500001 5:1 6:0 7:0 #
-199.37082135864694 1:0.2 2:0.085000001 3:0 4:0 5:1 6:0 7:0 #
-71.530343037423336 1:0.094999999 2:0.094999999 3:0.094999999 4:0.050000001 5:1 6:0 7:0 #
-40.316027968889102 1:0.13500001 2:0.035 3:0.13500001 4:0.029999999 5:1 6:0 7:0 #
-13.644047882354336 1:0.105 2:0.105 3:0.105 4:0.105 5:1 6:0 7:0.29360312 #
1000 1:0.17 2:0.17 3:0.17 4:0.17 5:1 6:0 7:0.1267525 #
-4.6584889980501885 1:0.1 2:0 3:0 4:0 5:1 6:0 7:0.067730002 #
-4.2969598469535413 1:0.085000001 2:0.085000001 3:0.085000001 4:0.085000001 5:1 6:0 7:0.13060416 #
-62.263515676051384 1:0.105 2:0.105 3:0.105 4:0.105 5:1 6:0 7:0.29360312 #
-1000 1:0.039999999 2:0.039999999 3:0.039999999 4:0.039999999 5:1 6:0 7:0.28157082 #
1000 1:0.055 2:0.055 3:0.055 4:0.055 5:1 6:0 7:0.30288437 #
-3.1549131193552924 1:0.155 2:0.155 3:0.155 4:0.155 5:1 6:0 7:0.27013439 #
-0.017735816611093469 1:0.98500001 2:0.92500001 3:0.86500001 4:0.80500001 5:1 6:0.7481125 7:0 #
-0.041940432041883469 1:0.79000002 2:0.73000002 3:0.67000002 4:0.55000001 5:0.75 6:0 7:0.78301251 #
-0.007291166931281623 1:0.14 2:0.14 3:0.14 4:0.14 5:0.75 6:0 7:0.78301251 #
-0.020519844820228172 1:0.23999999 2:0.23999999 3:0 4:0 5:0 6:0 7:0.066752084 #
-0.034948044150951318 1:0.23999999 2:0.23999999 3:0 4:0 5:0 6:0 7:0.066752084 #
-0.0026837223850882316 1:0 2:0 3:0 4:0 5:0 6:0.216225 7:0.44058126 #
-0.010870491755213152 1:0.23999999 2:0.23999999 3:0 4:0 5:0 6:0 7:0 #
-0.00090417433699485628 1:0 2:0 3:0 4:0 5:0 6:0 7:0.6189875 #
-0.00079039123011170886 1:0.41499999 2:0.29499999 3:0 4:0 5:1 6:0 7:0 #
-0.0014791190624237061 1:0.97500002 2:0.91500002 3:0.79500002 4:0.73500001 5:0.75 6:0.56648749 7:0 #
-6.5267086029052734e-005 1:0.97000003 2:0.91000003 3:0.79000002 4:0.73000002 5:0.75 6:0.56648749 7:0 #
-0.00067455048701958731 1:0.19499999 2:0.19499999 3:0 4:0 5:1 6:0 7:0 #
